{"learner":{"attributes":{"scikit_learn":"{\"_estimator_type\": \"classifier\"}"},"feature_names":[],"feature_types":[],"gradient_booster":{"model":{"gbtree_model_param":{"num_parallel_tree":"1","num_trees":"400"},"iteration_indptr":[0,1,2,3,4,5,6,7,8,9,10,11,12,13,14,15,16,17,18,19,20,21,22,23,24,25,26,27,28,29,30,31,32,33,34,35,36,37,38,39,40,41,42,43,44,45,46,47,48,49,50,51,52,53,54,55,56,57,58,59,60,61,62,63,64,65,66,67,68,69,70,71,72,73,74,75,76,77,78,79,80,81,82,83,84,85,86,87,88,89,90,91,92,93,94,95,96,97,98,99,100,101,102,103,104,105,106,107,108,109,110,111,112,113,114,115,116,117,118,119,120,121,122,123,124,125,126,127,128,129,130,131,132,133,134,135,136,137,138,139,140,141,142,143,144,145,146,147,148,149,150,151,152,153,154,155,156,157,158,159,160,161,162,163,164,165,166,167,168,169,170,171,172,173,174,175,176,177,178,179,180,181,182,183,184,185,186,187,188,189,190,191,192,193,194,195,196,197,198,199,200,201,202,203,204,205,206,207,208,209,210,211,212,213,214,215,216,217,218,219,220,221,222,223,224,225,226,227,228,229,230,231,232,233,234,235,236,237,238,239,240,241,242,243,244,245,246,247,248,249,250,251,252,253,254,255,256,257,258,259,260,261,262,263,264,265,266,267,268,269,270,271,272,273,274,275,276,277,278,279,280,281,282,283,284,285,286,287,288,289,290,291,292,293,294,295,296,297,298,299,300,301,302,303,304,305,306,307,308,309,310,311,312,313,314,315,316,317,318,319,320,321,322,323,324,325,326,327,328,329,330,331,332,333,334,335,336,337,338,339,340,341,342,343,344,345,346,347,348,349,350,351,352,353,354,355,356,357,358,359,360,361,362,363,364,365,366,367,368,369,370,371,372,373,374,375,376,377,378,379,380,381,382,383,384,385,386,387,388,389,390,391,392,393,394,395,396,397,398,399,400],"tree_info":[0,0,0,0,0,0,0,0,0,0,0,0,0,0,0,0,0,0,0,0,0,0,0,0,0,0,0,0,0,0,0,0,0,0,0,0,0,0,0,0,0,0,0,0,0,0,0,0,0,0,0,0,0,0,0,0,0,0,0,0,0,0,0,0,0,0,0,0,0,0,0,0,0,0,0,0,0,0,0,0,0,0,0,0,0,0,0,0,0,0,0,0,0,0,0,0,0,0,0,0,0,0,0,0,0,0,0,0,0,0,0,0,0,0,0,0,0,0,0,0,0,0,0,0,0,0,0,0,0,0,0,0,0,0,0,0,0,0,0,0,0,0,0,0,0,0,0,0,0,0,0,0,0,0,0,0,0,0,0,0,0,0,0,0,0,0,0,0,0,0,0,0,0,0,0,0,0,0,0,0,0,0,0,0,0,0,0,0,0,0,0,0,0,0,0,0,0,0,0,0,0,0,0,0,0,0,0,0,0,0,0,0,0,0,0,0,0,0,0,0,0,0,0,0,0,0,0,0,0,0,0,0,0,0,0,0,0,0,0,0,0,0,0,0,0,0,0,0,0,0,0,0,0,0,0,0,0,0,0,0,0,0,0,0,0,0,0,0,0,0,0,0,0,0,0,0,0,0,0,0,0,0,0,0,0,0,0,0,0,0,0,0,0,0,0,0,0,0,0,0,0,0,0,0,0,0,0,0,0,0,0,0,0,0,0,0,0,0,0,0,0,0,0,0,0,0,0,0,0,0,0,0,0,0,0,0,0,0,0,0,0,0,0,0,0,0,0,0,0,0,0,0,0,0,0,0,0,0,0,0,0,0,0,0,0,0,0,0,0,0,0,0,0,0,0,0,0,0,0,0,0,0,0,0,0,0,0,0,0,0,0,0,0,0,0,0,0,0,0,0],"trees":[{"base_weights":[9.5623145E-3,1.330732E-1,-8.3803153E-1,-5.98515E-1,3.1433624E-1,6.852589E-1,-1.2176436E0,1.2962475E-1,-8.82353E-2,3.8216615E-1,-7.1428575E-2,9.959071E-3,5.0654203E-2,9.959071E-3,-1.4585153E0,-6.666667E-2,2.3606457E-2,2.2704607E-2,-7.1428575E-2,-8.9189194E-2,8.7609433E-4],"categories":[],"categories_nodes":[],"categories_segments":[],"categories_sizes":[],"default_left":[0,0,0,0,0,0,0,0,0,0,0,0,0,0,0,0,0,0,0,0,0],"id":0,"left_children":[1,3,5,7,9,11,13,15,-1,17,-1,-1,-1,-1,19,-1,-1,-1,-1,-1,-1],"loss_changes":[1.304989E1,1.460745E1,1.0003319E1,1.8855368E1,1.0925691E1,4.042195E-1,4.7451553E0,7.8627486E0,0E0,1.1757996E1,0E0,0E0,0E0,0E0,5.445204E0,0E0,0E0,0E0,0E0,0E0,0E0],"parents":[2147483647,0,0,1,1,2,2,3,3,4,4,5,5,6,6,7,7,9,9,14,14],"right_children":[2,4,6,8,10,12,14,16,-1,18,-1,-1,-1,-1,20,-1,-1,-1,-1,-1,-1],"split_conditions":[2.6E1,1.3E1,1.3E1,-3.2162452E-16,9.9270886E-1,1.7E1,1E1,9E0,-8.82353E-2,3.32E2,-7.1428575E-2,9.959071E-3,5.0654203E-2,9.959071E-3,3.2E1,-6.666667E-2,2.3606457E-2,2.2704607E-2,-7.1428575E-2,-8.9189194E-2,8.7609433E-4],"split_indices":[2,2,7,10,10,1,3,2,0,12,0,0,0,0,3,0,0,0,0,0,0],"split_type":[0,0,0,0,0,0,0,0,0,0,0,0,0,0,0,0,0,0,0,0,0],"sum_hessian":[1.22590904E2,1.0773485E2,1.485606E1,2.0935606E1,8.679924E1,2.8030303E0,1.205303E1,1.3435606E1,7.5E0,8.429924E1,2.5E0,1.7765151E0,1.0265151E0,1.7765151E0,1.0276515E1,2E0,1.1435606E1,8.179924E1,2.5E0,8.25E0,2.026515E0],"tree_param":{"num_deleted":"0","num_feature":"13","num_nodes":"21","size_leaf_vector":"1"}},{"base_weights":[7.94702E-3,4.8610985E-1,-2.8951615E-1,9.616508E-1,-4.1699305E-1,-1.1952276E0,-1.0314956E-1,-5.5184055E-2,1.0851715E0,4.013219E-1,-1.2687372E0,6.7571753E-1,-8.937214E-2,1.17217235E-1,-1.0843476E0,-1.7960535E-2,6.232811E-2,-6.204414E-2,4.700266E-2,-8.524416E-2,3.383107E-2,9.7176945E-3,5.0082456E-2,-5.3679276E-2,1.4281551E-2,-8.393438E-2,2.0691028E-3],"categories":[],"categories_nodes":[],"categories_segments":[],"categories_sizes":[],"default_left":[0,0,0,0,0,0,0,0,0,0,0,0,0,0,0,0,0,0,0,0,0,0,0,0,0,0,0],"id":1,"left_children":[1,3,5,7,9,11,13,-1,15,17,19,21,-1,23,25,-1,-1,-1,-1,-1,-1,-1,-1,-1,-1,-1,-1],"loss_changes":[1.7423834E1,2.0574596E1,1.2626775E1,9.124899E0,1.2288721E1,1.5385822E1,1.3909201E1,0E0,7.40012E0,9.464235E0,8.383625E0,4.0185952E-1,0E0,1.0926164E1,7.9560633E0,0E0,0E0,0E0,0E0,0E0,0E0,0E0,0E0,0E0,0E0,0E0,0E0],"parents":[2147483647,0,0,1,1,2,2,3,3,4,4,5,5,6,6,8,8,9,9,10,10,11,11,13,13,14,14],"right_children":[2,4,6,8,10,12,14,-1,16,18,20,22,-1,24,26,-1,-1,-1,-1,-1,-1,-1,-1,-1,-1,-1,-1],"split_conditions":[1.5E1,1.6E1,1.4E1,8E0,-2.3931566E-1,1.6E1,2.6E1,-5.5184055E-2,1.2E1,1.7E1,3.1E1,1.7E1,-8.937214E-2,1.575E1,2.8E1,-1.7960535E-2,6.232811E-2,-6.204414E-2,4.700266E-2,-8.524416E-2,3.383107E-2,9.7176945E-3,5.0082456E-2,-5.3679276E-2,1.4281551E-2,-8.393438E-2,2.0691028E-3],"split_indices":[3,4,1,4,11,3,2,0,2,7,4,5,0,8,1,0,0,0,0,0,0,0,0,0,0,0,0],"split_type":[0,0,0,0,0,0,0,0,0,0,0,0,0,0,0,0,0,0,0,0,0,0,0,0,0,0,0],"sum_hessian":[1.2051014E2,4.5974064E1,7.453608E1,3.0073587E1,1.5900479E1,1.1796019E1,6.274006E1,1.2493072E0,2.882428E1,8.379082E0,7.521397E0,2.8022046E0,8.9938135E0,5.1952587E1,1.078747E1,2.7738383E0,2.6050442E1,1.7478379E0,6.631244E0,6.2449136E0,1.2764834E0,1.7758218E0,1.0263828E0,5.771237E0,4.618135E1,6.738574E0,4.0488963E0],"tree_param":{"num_deleted":"0","num_feature":"13","num_nodes":"27","size_leaf_vector":"1"}},{"base_weights":[-1.1533766E-1,-1.2485335E0,5.2437834E-2,-1.4781586E0,3.3054344E-2,2.5873682E-1,-6.478579E-1,-4.2602704E-3,-8.761792E-2,7.4566483E-1,-1.5412578E-1,-1.4673868E0,3.244625E-1,4.8323415E-2,-7.10395E-2,1.9897506E-2,-3.680053E-2,-8.79298E-2,1.0679894E-2,-6.504055E-2,4.0383358E-2],"categories":[],"categories_nodes":[],"categories_segments":[],"categories_sizes":[],"default_left":[0,0,0,0,0,0,0,0,0,0,0,0,0,0,0,0,0,0,0,0,0],"id":2,"left_children":[1,3,5,7,-1,9,11,-1,-1,13,15,17,19,-1,-1,-1,-1,-1,-1,-1,-1],"loss_changes":[2.1776453E1,7.4524937E0,1.4676436E1,5.003542E0,0E0,1.5853821E1,1.8913567E1,0E0,0E0,1.8639057E1,1.4169267E1,6.6104355E0,1.0004647E1,0E0,0E0,0E0,0E0,0E0,0E0,0E0,0E0],"parents":[2147483647,0,0,1,1,2,2,3,3,5,5,6,6,9,9,10,10,11,11,12,12],"right_children":[2,4,6,8,-1,10,12,-1,-1,14,16,18,20,-1,-1,-1,-1,-1,-1,-1,-1],"split_conditions":[1.2E1,3.1E1,2.175E1,9E0,3.3054344E-2,-3.546049E-1,2.8E1,-4.2602704E-3,-8.761792E-2,2.92E2,1.7E1,9.7094184E-1,1.9E1,4.8323415E-2,-7.10395E-2,1.9897506E-2,-3.680053E-2,-8.79298E-2,1.0679894E-2,-6.504055E-2,4.0383358E-2],"split_indices":[2,3,8,5,0,11,1,0,0,12,4,11,3,0,0,0,0,0,0,0,0],"split_type":[0,0,0,0,0,0,0,0,0,0,0,0,0,0,0,0,0,0,0,0,0],"sum_hessian":[1.131947E2,1.3767052E1,9.942765E1,1.2490995E1,1.276057E0,7.728957E1,2.2138079E1,2.2699971E0,1.0220998E1,3.509391E1,4.2195663E1,1.1736611E1,1.0401467E1,3.235065E1,2.74326E0,2.1814646E1,2.038102E1,9.96426E0,1.7723508E0,1.9959564E0,8.405511E0],"tree_param":{"num_deleted":"0","num_feature":"13","num_nodes":"21","size_leaf_vector":"1"}},{"base_weights":[-9.392227E-3,6.932038E-2,-1.1665453E0,2.523013E-1,-4.1383076E-1,-8.103692E-2,2.3091057E-2,5.494411E-1,-4.6792606E-1,-1.0535347E0,5.831491E-1,-6.890061E-2,3.2293823E-2,-8.3253555E-2,-9.580051E-4,-1.8317124E-2,-8.645122E-2,5.827691E-2,-3.5921156E-2],"categories":[],"categories_nodes":[],"categories_segments":[],"categories_sizes":[],"default_left":[0,0,0,0,0,0,0,0,0,0,0,0,0,0,0,0,0,0,0],"id":3,"left_children":[1,3,5,7,9,-1,-1,11,13,15,17,-1,-1,-1,-1,-1,-1,-1,-1],"loss_changes":[1.1436787E1,1.0508238E1,6.66288E0,1.865664E1,2.1472443E1,0E0,0E0,1.2288792E1,1.3748686E1,8.779541E0,1.1014859E1,0E0,0E0,0E0,0E0,0E0,0E0,0E0,0E0],"parents":[2147483647,0,0,1,1,2,2,3,3,4,4,7,7,8,8,9,9,10,10],"right_children":[2,4,6,8,10,-1,-1,12,14,16,18,-1,-1,-1,-1,-1,-1,-1,-1],"split_conditions":[3E1,2.44E2,9.350162E-1,2E1,2.1E1,-8.103692E-2,2.3091057E-2,9E0,1.9E1,1.6E1,1.9375E1,-6.890061E-2,3.2293823E-2,-8.3253555E-2,-9.580051E-4,-1.8317124E-2,-8.645122E-2,5.827691E-2,-3.5921156E-2],"split_indices":[6,12,11,7,7,0,0,4,8,3,9,0,0,0,0,0,0,0,0],"split_type":[0,0,0,0,0,0,0,0,0,0,0,0,0,0,0,0,0,0,0],"sum_hessian":[1.23677284E2,1.16680466E2,6.996819E0,8.497587E1,3.1704597E1,5.4745197E0,1.5222992E0,6.0325054E1,2.4650812E1,1.9278183E1,1.24264145E1,2.241175E0,5.8083878E1,5.982183E0,1.866863E1,1.0320857E1,8.957326E0,8.657243E0,3.769172E0],"tree_param":{"num_deleted":"0","num_feature":"13","num_nodes":"19","size_leaf_vector":"1"}},{"base_weights":[2.4454808E-2,2.4190968E-1,-4.562425E-1,3.6637712E-1,-8.5100335E-1,-9.9746835E-1,8.836656E-2,4.360669E-1,-6.4273305E-2,-8.200528E-2,6.469595E-2,-2.730432E-1,-1.4140742E0,6.8367046E-1,-5.792056E-1,2.8638333E-2,-9.9437535E-3,-6.8911485E-2,2.4153296E-2,-3.5167586E-3,-8.527988E-2,5.2341443E-2,-1.6749201E-2,-5.8473747E-2,4.3641023E-2],"categories":[],"categories_nodes":[],"categories_segments":[],"categories_sizes":[],"default_left":[0,0,0,0,0,0,0,0,0,0,0,0,0,0,0,0,0,0,0,0,0,0,0,0,0],"id":4,"left_children":[1,3,5,7,9,11,13,15,-1,-1,-1,17,19,21,23,-1,-1,-1,-1,-1,-1,-1,-1,-1,-1],"loss_changes":[1.3313832E1,1.2231371E1,1.1786842E1,9.696614E0,1.7794857E1,5.6462383E0,8.622924E0,6.7883406E0,0E0,0E0,0E0,7.7997694E0,4.757389E0,4.568534E0,9.848538E0,0E0,0E0,0E0,0E0,0E0,0E0,0E0,0E0,0E0,0E0],"parents":[2147483647,0,0,1,1,2,2,3,3,4,4,5,5,6,6,7,7,11,11,12,12,13,13,14,14],"right_children":[2,4,6,8,10,12,14,16,-1,-1,-1,18,20,22,24,-1,-1,-1,-1,-1,-1,-1,-1,-1,-1],"split_conditions":[2E1,2.4E1,2.2E1,3.32E2,9.350162E-1,1.6E1,2.6E1,2E1,-6.4273305E-2,-8.200528E-2,6.469595E-2,1.92E2,4E1,2.7E1,3.2E1,2.8638333E-2,-9.9437535E-3,-6.8911485E-2,2.4153296E-2,-3.5167586E-3,-8.527988E-2,5.2341443E-2,-1.6749201E-2,-5.8473747E-2,4.3641023E-2],"split_indices":[6,5,5,12,11,3,5,1,0,0,0,12,12,6,0,0,0,0,0,0,0,0,0,0,0],"split_type":[0,0,0,0,0,0,0,0,0,0,0,0,0,0,0,0,0,0,0,0,0,0,0,0,0],"sum_hessian":[1.2531269E2,8.662332E1,3.868937E1,7.836359E1,8.25974E0,1.8987898E1,1.9701473E1,7.5897545E1,2.4660373E0,6.2103496E0,2.0493906E0,7.5371456E0,1.1450752E1,1.0401698E1,9.299774E0,6.2532536E1,1.3365012E1,2.7275536E0,4.809592E0,2.2626472E0,9.188106E0,7.6476073E0,2.7540913E0,6.75028E0,2.5494943E0],"tree_param":{"num_deleted":"0","num_feature":"13","num_nodes":"25","size_leaf_vector":"1"}},{"base_weights":[-7.1847807E-3,-9.845867E-1,1.3543445E-1,4.742318E-2,-1.1805114E0,2.969495E-1,-7.818313E-1,2.2298874E-2,-1.3984818E0,5.4973257E-1,-1.2395063E-1,-1.1176133E0,5.4645085E-1,-9.341947E-3,-8.306816E-2,1.0971038E-2,5.246032E-2,5.389489E-2,-2.3537718E-2,-6.774413E-2,3.3397134E-2,4.8963185E-2,3.6453088E-3],"categories":[],"categories_nodes":[],"categories_segments":[],"categories_sizes":[],"default_left":[0,0,0,0,0,0,0,0,0,0,0,0,0,0,0,0,0,0,0,0,0,0,0],"id":5,"left_children":[1,3,5,-1,7,9,11,-1,13,15,17,19,21,-1,-1,-1,-1,-1,-1,-1,-1,-1,-1],"loss_changes":[1.7458347E1,7.159321E0,1.643097E1,0E0,5.914982E0,1.0036786E1,8.034829E0,0E0,3.9586868E0,9.457739E0,1.5500822E1,6.673111E0,7.546643E-1,0E0,0E0,0E0,0E0,0E0,0E0,0E0,0E0,0E0,0E0],"parents":[2147483647,0,0,1,1,2,2,4,4,5,5,6,6,8,8,9,9,10,10,11,11,12,12],"right_children":[2,4,6,-1,8,10,12,-1,14,16,18,20,22,-1,-1,-1,-1,-1,-1,-1,-1,-1,-1],"split_conditions":[1.2E1,-9.9270886E-1,2.6E1,4.742318E-2,-9.7094184E-1,2.09E2,3.3E1,2.2298874E-2,1.2E1,1.35E2,1.2E1,1E0,1.9E1,-9.341947E-3,-8.306816E-2,1.0971038E-2,5.246032E-2,5.389489E-2,-2.3537718E-2,-6.774413E-2,3.3397134E-2,4.8963185E-2,3.6453088E-3],"split_indices":[2,10,2,0,11,12,4,0,6,12,3,10,0,0,0,0,0,0,0,0,0,0,0],"split_type":[0,0,0,0,0,0,0,0,0,0,0,0,0,0,0,0,0,0,0,0,0,0,0],"sum_hessian":[1.23285934E2,1.4947019E1,1.0833892E2,1.022065E0,1.3924953E1,9.269343E1,1.5645487E1,1.5219748E0,1.2402979E1,5.7721264E1,3.4972168E1,1.2615072E1,3.030414E0,2.5162237E0,9.886755E0,3.5610588E1,2.2110676E1,7.3595505E0,2.7612617E1,1.1348282E1,1.2667907E0,1.0253321E0,2.0050821E0],"tree_param":{"num_deleted":"0","num_feature":"13","num_nodes":"23","size_leaf_vector":"1"}},{"base_weights":[1.1211832E-2,1.2498826E-1,-8.593119E-1,-6.9764143E-1,2.618151E-1,-1.271192E0,5.32462E-1,8.371973E-2,-1.202232E0,3.2003927E-1,-6.8771586E-2,2.1066561E-2,-7.854074E-2,3.208939E-3,4.8224095E-2,-6.4386375E-2,5.2897196E-2,4.9926657E-2,-7.852353E-2,-6.858107E-2,1.859125E-2],"categories":[],"categories_nodes":[],"categories_segments":[],"categories_sizes":[],"default_left":[0,0,0,0,0,0,0,0,0,0,0,0,0,0,0,0,0,0,0,0,0],"id":6,"left_children":[1,3,5,7,9,11,13,15,17,19,-1,-1,-1,-1,-1,-1,-1,-1,-1,-1,-1],"loss_changes":[1.2469536E1,1.2705713E1,9.020018E0,6.463876E0,9.60301E0,6.506834E0,7.530738E-1,1.1072792E1,9.5681715E0,8.712344E0,0E0,0E0,0E0,0E0,0E0,0E0,0E0,0E0,0E0,0E0,0E0],"parents":[2147483647,0,0,1,1,2,2,3,3,4,4,5,5,6,6,7,7,8,8,9,9],"right_children":[2,4,6,8,10,12,14,16,18,20,-1,-1,-1,-1,-1,-1,-1,-1,-1,-1,-1],"split_conditions":[2.6E1,1.2E1,3.3E1,-5.6806475E-1,3.1E1,1E1,2.7E1,-7.485108E-1,-9.7094184E-1,9E0,-6.8771586E-2,2.1066561E-2,-7.854074E-2,3.208939E-3,4.8224095E-2,-6.4386375E-2,5.2897196E-2,4.9926657E-2,-7.852353E-2,-6.858107E-2,1.859125E-2],"split_indices":[2,2,4,10,4,3,1,10,11,5,0,0,0,0,0,0,0,0,0,0,0],"split_type":[0,0,0,0,0,0,0,0,0,0,0,0,0,0,0,0,0,0,0,0,0],"sum_hessian":[1.2381319E2,1.10258896E2,1.3554287E1,1.5139365E1,9.511954E1,1.0525902E1,3.028385E0,6.2677712E0,8.871594E0,9.262993E1,2.4896016E0,1.5220236E0,9.003879E0,2.0043485E0,1.0240364E0,2.4695323E0,3.7982388E0,1.0263002E0,7.845294E0,1.9943665E0,9.063557E1],"tree_param":{"num_deleted":"0","num_feature":"13","num_nodes":"21","size_leaf_vector":"1"}},{"base_weights":[5.2704208E-2,1.4031899E-1,-9.3309623E-1,3.4501562E-1,-3.926479E-1,4.4366375E-2,-1.2237036E0,4.3149972E-1,-8.6556035E-1,-9.2173624E-1,7.548947E-1,-7.896656E-2,1.881875E-2,-6.3827686E-2,2.4569495E-2,-7.230588E-2,4.8904702E-2,5.8989427E-3,-7.210779E-2,5.93809E-2,-5.8808655E-2],"categories":[],"categories_nodes":[],"categories_segments":[],"categories_sizes":[],"default_left":[0,0,0,0,0,0,0,0,0,0,0,0,0,0,0,0,0,0,0,0,0],"id":7,"left_children":[1,3,5,7,9,-1,11,13,15,17,19,-1,-1,-1,-1,-1,-1,-1,-1,-1,-1],"loss_changes":[1.097702E1,1.2811994E1,6.5774317E0,9.218624E0,2.0556448E1,0E0,5.9273176E0,8.761674E0,7.799956E0,1.2527985E1,1.0481937E1,0E0,0E0,0E0,0E0,0E0,0E0,0E0,0E0,0E0,0E0],"parents":[2147483647,0,0,1,1,2,2,3,3,4,4,6,6,7,7,8,8,9,9,10,10],"right_children":[2,4,6,8,10,-1,12,14,16,18,20,-1,-1,-1,-1,-1,-1,-1,-1,-1,-1],"split_conditions":[2.8E1,2.44E2,6E0,9.7094184E-1,2.1E1,4.4366375E-2,3.2E1,9E0,2.9E1,1.3E1,2.2E1,-7.896656E-2,1.881875E-2,-6.3827686E-2,2.4569495E-2,-7.230588E-2,4.8904702E-2,5.8989427E-3,-7.210779E-2,5.93809E-2,-5.8808655E-2],"split_indices":[7,12,3,10,7,0,0,4,2,6,2,0,0,0,0,0,0,0,0,0,0],"split_type":[0,0,0,0,0,0,0,0,0,0,0,0,0,0,0,0,0,0,0,0,0],"sum_hessian":[1.24576035E2,1.1519549E2,9.380546E0,8.3484314E1,3.1711174E1,1.0086713E0,8.371875E0,7.851847E1,4.965838E0,2.1838873E1,9.872301E0,6.8601336E0,1.5117409E0,1.97168E0,7.654679E1,3.9405906E0,1.0252475E0,7.5428214E0,1.4296051E1,8.379561E0,1.4927403E0],"tree_param":{"num_deleted":"0","num_feature":"13","num_nodes":"21","size_leaf_vector":"1"}},{"base_weights":[-6.9502094E-3,1.5510665E-1,-8.248551E-1,2.777735E-1,-5.2935827E-1,-1.4347994E0,6.939266E-1,1.2390615E-1,1.3070126E0,4.3766034E-1,-1.234562E0,-8.309425E-2,8.756822E-3,7.312573E-2,-5.7352748E-2,1.1772574E-2,-5.249527E-2,8.260189E-2,1.710037E-2,6.2866464E-2,-2.5211377E-2,7.572847E-3,-7.826172E-2],"categories":[],"categories_nodes":[],"categories_segments":[],"categories_sizes":[],"default_left":[0,0,0,0,0,0,0,0,0,0,0,0,0,0,0,0,0,0,0,0,0,0,0],"id":8,"left_children":[1,3,5,7,9,11,13,15,17,19,21,-1,-1,-1,-1,-1,-1,-1,-1,-1,-1,-1,-1],"loss_changes":[1.6454952E1,8.849657E0,2.0012632E1,1.3861972E1,1.1517467E1,5.7648697E0,1.0954095E1,1.047854E1,3.2346268E0,6.4447646E0,4.6232834E0,0E0,0E0,0E0,0E0,0E0,0E0,0E0,0E0,0E0,0E0,0E0,0E0],"parents":[2147483647,0,0,1,1,2,2,3,3,4,4,5,5,6,6,7,7,8,8,9,9,10,10],"right_children":[2,4,6,8,10,12,14,16,18,20,22,-1,-1,-1,-1,-1,-1,-1,-1,-1,-1,-1,-1],"split_conditions":[2.4E1,2.125E1,3.1E1,2.025E1,2E1,9.7094184E-1,2.1E1,2.3E1,2.1E1,1.5E1,1.9875E1,-8.309425E-2,8.756822E-3,7.312573E-2,-5.7352748E-2,1.1772574E-2,-5.249527E-2,8.260189E-2,1.710037E-2,6.2866464E-2,-2.5211377E-2,7.572847E-3,-7.826172E-2],"split_indices":[5,8,1,8,0,11,4,4,1,7,9,0,0,0,0,0,0,0,0,0,0,0,0],"split_type":[0,0,0,0,0,0,0,0,0,0,0,0,0,0,0,0,0,0,0,0,0,0,0],"sum_hessian":[1.2217895E2,1.0265049E2,1.9528454E1,8.755367E1,1.509682E1,1.3972414E1,5.556041E0,7.714167E1,1.0412003E1,6.526571E0,8.570249E0,1.2216919E1,1.7554952E0,4.0646687E0,1.491372E0,7.117723E1,5.964439E0,7.1453342E0,3.2666688E0,3.3106265E0,3.215944E0,1.7552136E0,6.8150353E0],"tree_param":{"num_deleted":"0","num_feature":"13","num_nodes":"23","size_leaf_vector":"1"}},{"base_weights":[4.157281E-2,9.671729E-2,-6.9638E-2,2.9716092E-1,-3.2592437E-1,-6.7011595E-2,3.695207E-1,4.275985E-1,-7.0597905E-1,3.674089E-2,1.9249242E-3,3.458807E-2,-5.285735E-2,-7.809052E-2,-1.3274564E-2],"categories":[],"categories_nodes":[],"categories_segments":[],"categories_sizes":[],"default_left":[0,0,0,0,0,0,0,0,0,0,0,0,0,0,0],"id":9,"left_children":[1,3,-1,5,7,-1,9,11,13,-1,-1,-1,-1,-1,-1],"loss_changes":[9.931209E0,1.0280218E1,0E0,1.0217763E1,1.1512699E1,0E0,9.569302E0,6.1232657E0,9.537401E0,0E0,0E0,0E0,0E0,0E0,0E0],"parents":[2147483647,0,0,1,1,3,3,4,4,6,6,7,7,8,8],"right_children":[2,4,-1,6,8,-1,10,12,14,-1,-1,-1,-1,-1,-1],"split_conditions":[3.2E1,2.22E2,-6.9638E-2,9E0,1.3E1,-6.7011595E-2,1.6E1,3.23E2,1.7E1,3.674089E-2,1.9249242E-3,3.458807E-2,-5.285735E-2,-7.809052E-2,-1.3274564E-2],"split_indices":[5,12,0,4,0,0,4,12,0,0,0,0,0,0,0],"split_type":[0,0,0,0,0,0,0,0,0,0,0,0,0,0,0],"sum_hessian":[1.2285661E2,1.1920618E2,3.6504412E0,8.105949E1,3.8146683E1,2.6890287E0,7.837046E1,1.2747502E1,2.5399181E1,3.6676517E1,4.1693943E1,1.1275479E1,1.4720225E0,7.765609E0,1.7633574E1],"tree_param":{"num_deleted":"0","num_feature":"13","num_nodes":"15","size_leaf_vector":"1"}},{"base_weights":[4.8578713E-2,3.11758E-1,-2.2127719E-1,5.612776E-1,-1.93901E-1,1.6595168E-1,-7.426451E-1,-4.9685117E-2,6.310559E-1,-7.6377675E-2,3.3162338E-1,4.1020608E-1,-7.057293E-2,-3.7305892E-1,-7.750964E-2,2.0047816E-2,4.809178E-2,-6.532306E-2,3.703679E-2,-1.3809711E-2,4.900657E-2,1.1058161E-2,-5.763165E-2],"categories":[],"categories_nodes":[],"categories_segments":[],"categories_sizes":[],"default_left":[0,0,0,0,0,0,0,0,0,0,0,0,0,0,0,0,0,0,0,0,0,0,0],"id":10,"left_children":[1,3,5,7,9,11,13,-1,15,-1,17,19,-1,21,-1,-1,-1,-1,-1,-1,-1,-1,-1],"loss_changes":[8.921551E0,8.123242E0,1.2666236E1,5.269842E0,1.5737043E1,1.4629559E1,7.37879E0,0E0,2.7777882E0,0E0,1.1965055E1,1.2926988E1,0E0,9.337629E0,0E0,0E0,0E0,0E0,0E0,0E0,0E0,0E0,0E0],"parents":[2147483647,0,0,1,1,2,2,3,3,4,4,5,5,6,6,8,8,10,10,11,11,13,13],"right_children":[2,4,6,8,10,12,14,-1,16,-1,18,20,-1,22,-1,-1,-1,-1,-1,-1,-1,-1,-1],"split_conditions":[1.7E1,1.7E1,1.85E2,8E0,1.5E1,8.2298386E-1,2.0625E1,-4.9685117E-2,1.475E1,-7.6377675E-2,-3.546049E-1,2.2E1,-7.057293E-2,-1.6081226E-16,-7.750964E-2,2.0047816E-2,4.809178E-2,-6.532306E-2,3.703679E-2,-1.3809711E-2,4.900657E-2,1.1058161E-2,-5.763165E-2],"split_indices":[4,3,12,4,1,10,9,0,8,0,10,3,0,11,0,0,0,0,0,0,0,0,0],"split_type":[0,0,0,0,0,0,0,0,0,0,0,0,0,0,0,0,0,0,0,0,0,0,0],"sum_hessian":[1.23648056E2,6.25198E1,6.1128254E1,4.17889E1,2.0730904E1,3.546758E1,2.5660677E1,1.2260491E0,4.0562847E1,5.3209386E0,1.5409964E1,3.135271E1,4.114867E0,1.8606913E1,7.053764E0,2.5226643E1,1.5336205E1,2.641201E0,1.2768764E1,1.4456789E1,1.6895922E1,1.0965147E1,7.6417656E0],"tree_param":{"num_deleted":"0","num_feature":"13","num_nodes":"23","size_leaf_vector":"1"}},{"base_weights":[6.405931E-2,3.9760903E-1,-2.0026308E-1,5.8257854E-1,-7.0112884E-1,-4.1344604E-1,3.7181512E-1,-1.6216548E-2,1.032807E0,-7.187707E-2,4.5973805E-1,7.0442386E-2,-9.4404E-1,1.3854946E0,-3.9332238E-1,3.7400413E-2,-1.6560825E-2,5.9368014E-2,2.821636E-3,4.611626E-2,-4.1168742E-4,2.1337554E-2,-7.4509546E-2,4.086965E-2,-5.931855E-2,1.7048074E-2,7.77485E-2,-4.982295E-2,1.5737308E-2],"categories":[],"categories_nodes":[],"categories_segments":[],"categories_sizes":[],"default_left":[0,0,0,0,0,0,0,0,0,0,0,0,0,0,0,0,0,0,0,0,0,0,0,0,0,0,0,0,0],"id":11,"left_children":[1,3,5,7,9,11,13,15,17,-1,19,21,23,25,27,-1,-1,-1,-1,-1,-1,-1,-1,-1,-1,-1,-1,-1,-1],"loss_changes":[1.09252615E1,1.1529546E1,8.604738E0,1.2790754E1,7.7893324E0,1.3149405E1,1.5544121E1,5.3802423E0,4.016674E0,0E0,8.722548E-1,1.5973171E1,1.1373995E1,9.814873E-1,5.3526497E0,0E0,0E0,0E0,0E0,0E0,0E0,0E0,0E0,0E0,0E0,0E0,0E0,0E0,0E0],"parents":[2147483647,0,0,1,1,2,2,3,3,4,4,5,5,6,6,7,7,8,8,10,10,11,11,12,12,13,13,14,14],"right_children":[2,4,6,8,10,12,14,16,18,-1,20,22,24,26,28,-1,-1,-1,-1,-1,-1,-1,-1,-1,-1,-1,-1,-1,-1],"split_conditions":[-3.546049E-1,2.175E1,2.4E1,1.6E1,2.9E1,1.7E1,1.7E1,-5.6806475E-1,1.9E1,-7.187707E-2,3.1E1,1.9E1,-9.9270886E-1,-9.350162E-1,2.525E1,3.7400413E-2,-1.6560825E-2,5.9368014E-2,2.821636E-3,4.611626E-2,-4.1168742E-4,2.1337554E-2,-7.4509546E-2,4.086965E-2,-5.931855E-2,1.7048074E-2,7.77485E-2,-4.982295E-2,1.5737308E-2],"split_indices":[11,8,1,2,1,4,7,10,1,0,1,3,10,10,8,0,0,0,0,0,0,0,0,0,0,0,0,0,0],"split_type":[0,0,0,0,0,0,0,0,0,0,0,0,0,0,0,0,0,0,0,0,0,0,0,0,0,0,0,0,0],"sum_hessian":[1.22015686E2,5.372084E1,6.8294846E1,4.6382282E1,7.3385563E0,4.995615E1,1.8338696E1,2.0320454E1,2.6061829E1,4.344332E0,2.9942238E0,2.6581617E1,2.337453E1,7.5394297E0,1.0799266E1,5.529834E0,1.4790621E1,2.2313643E1,3.7481856E0,1.0175163E0,1.9767076E0,2.2232306E1,4.3493123E0,2.5398753E0,2.0834656E1,1.4729584E0,6.0664716E0,5.611807E0,5.187459E0],"tree_param":{"num_deleted":"0","num_feature":"13","num_nodes":"29","size_leaf_vector":"1"}},{"base_weights":[6.5740305E-3,-6.6744804E-2,6.270455E-2,1.7042057E-1,-7.363775E-1,2.6391912E-1,-1.0235695E0,6.354159E-1,-1.1377681E0,1.6255498E-2,-6.2906764E-2,4.8134517E-2,-7.3969714E-2,6.5927445E-3,5.0126042E-2,2.0603646E-2,-7.1262784E-2],"categories":[],"categories_nodes":[],"categories_segments":[],"categories_sizes":[],"default_left":[0,0,0,0,0,0,0,0,0,0,0,0,0,0,0,0,0],"id":12,"left_children":[1,-1,3,5,7,9,11,13,15,-1,-1,-1,-1,-1,-1,-1,-1],"loss_changes":[8.998325E0,0E0,9.988912E0,1.1633863E1,8.321609E0,9.275103E0,8.302632E0,5.639076E-1,5.503848E0,0E0,0E0,0E0,0E0,0E0,0E0,0E0,0E0],"parents":[2147483647,0,0,2,2,3,3,4,4,5,5,6,6,7,7,8,8],"right_children":[2,-1,4,6,8,10,12,14,16,-1,-1,-1,-1,-1,-1,-1,-1],"split_conditions":[9E0,-6.6744804E-2,2.6E1,9.7094184E-1,1.3E1,3.32E2,1E1,2.3E1,1E1,1.6255498E-2,-6.2906764E-2,4.8134517E-2,-7.3969714E-2,6.5927445E-3,5.0126042E-2,2.0603646E-2,-7.1262784E-2],"split_indices":[2,0,2,10,7,12,4,4,3,0,0,0,0,0,0,0,0],"split_type":[0,0,0,0,0,0,0,0,0,0,0,0,0,0,0,0,0],"sum_hessian":[1.1739213E2,3.7997377E0,1.1359239E2,1.0079234E2,1.2800048E1,9.419511E1,6.5972366E0,2.7655306E0,1.0034517E1,9.131056E1,2.8845398E0,1.0238458E0,5.573391E0,1.7391284E0,1.0264024E0,1.5022969E0,8.532221E0],"tree_param":{"num_deleted":"0","num_feature":"13","num_nodes":"17","size_leaf_vector":"1"}},{"base_weights":[-2.8633593E-2,2.1709323E-1,-3.8133338E-1,-1.1899649E-1,7.797982E-1,5.4863036E-1,-6.916709E-1,3.5350373E-1,-6.025292E-1,1.0048386E0,-5.0416404E-1,8.4785163E-1,-5.169515E-2,-2.807068E-1,-1.1686128E0,3.55011E-2,-7.688849E-2,3.9742067E-2,-4.1113548E-2,5.535471E-2,1.8567588E-3,-5.6053486E-2,3.0926077E-2,-8.366321E-3,5.6029737E-2,-4.3134317E-2,4.073624E-2,-7.660907E-2,-2.5003958E-2],"categories":[],"categories_nodes":[],"categories_segments":[],"categories_sizes":[],"default_left":[0,0,0,0,0,0,0,0,0,0,0,0,0,0,0,0,0,0,0,0,0,0,0,0,0,0,0,0,0],"id":13,"left_children":[1,3,5,7,9,11,13,15,17,19,21,23,-1,25,27,-1,-1,-1,-1,-1,-1,-1,-1,-1,-1,-1,-1,-1,-1],"loss_changes":[1.0161091E1,1.3174949E1,1.4264881E1,1.0305663E1,8.018815E0,6.841139E0,6.8294296E0,1.6581734E1,7.4710712E0,2.1809578E0,3.8399596E0,3.2726717E0,0E0,1.404686E1,3.265005E0,0E0,0E0,0E0,0E0,0E0,0E0,0E0,0E0,0E0,0E0,0E0,0E0,0E0,0E0],"parents":[2147483647,0,0,1,1,2,2,3,3,4,4,5,5,6,6,7,7,8,8,9,9,10,10,11,11,13,13,14,14],"right_children":[2,4,6,8,10,12,14,16,18,20,22,24,-1,26,28,-1,-1,-1,-1,-1,-1,-1,-1,-1,-1,-1,-1,-1,-1],"split_conditions":[1.85E2,1.3E2,1.2E1,-2.3931566E-1,2.8E1,2.1E1,1.8625E1,1.9E1,1.25E1,3E1,3.2E1,1.5E1,-5.169515E-2,1.7625E1,2.4E1,3.55011E-2,-7.688849E-2,3.9742067E-2,-4.1113548E-2,5.535471E-2,1.8567588E-3,-5.6053486E-2,3.0926077E-2,-8.366321E-3,5.6029737E-2,-4.3134317E-2,4.073624E-2,-7.660907E-2,-2.5003958E-2],"split_indices":[12,12,3,11,7,4,9,1,9,2,1,7,0,9,6,0,0,0,0,0,0,0,0,0,0,0,0,0,0],"split_type":[0,0,0,0,0,0,0,0,0,0,0,0,0,0,0,0,0,0,0,0,0,0,0,0,0,0,0,0,0],"sum_hessian":[1.1528662E2,6.8174065E1,4.7112556E1,4.3175148E1,2.4998917E1,1.1595973E1,3.5516586E1,2.19727E1,2.1202446E1,2.1455755E1,3.5431628E0,1.01425E1,1.4534733E0,1.9931162E1,1.5585423E1,1.9013166E1,2.9595344E0,2.5254662E0,1.867698E1,1.9274958E1,2.180796E0,2.2875912E0,1.2555716E0,2.2297275E0,7.912772E0,1.3154777E1,6.7763844E0,9.258514E0,6.326909E0],"tree_param":{"num_deleted":"0","num_feature":"13","num_nodes":"29","size_leaf_vector":"1"}},{"base_weights":[1.422989E-2,7.26087E-2,-6.648968E-2,1.2675756E-1,-6.435738E-2,-6.394471E-2,1.7868681E-1,1.1342063E-2,-6.0666777E-2],"categories":[],"categories_nodes":[],"categories_segments":[],"categories_sizes":[],"default_left":[0,0,0,0,0,0,0,0,0],"id":14,"left_children":[1,3,-1,5,-1,-1,7,-1,-1],"loss_changes":[9.456628E0,8.650833E0,0E0,8.38722E0,0E0,0E0,7.5593934E0,0E0,0E0],"parents":[2147483647,0,0,1,1,3,3,6,6],"right_children":[2,4,-1,6,-1,-1,8,-1,-1],"split_conditions":[3.23E2,3.2E1,-6.648968E-2,9E0,-6.435738E-2,-6.394471E-2,3.2E1,1.1342063E-2,-6.0666777E-2],"split_indices":[12,5,0,2,0,0,7,0,0],"split_type":[0,0,0,0,0,0,0,0,0],"sum_hessian":[1.1829361E2,1.1427591E2,4.017696E0,1.107715E2,3.504416E0,3.1046758E0,1.07666824E2,1.0487588E2,2.790944E0],"tree_param":{"num_deleted":"0","num_feature":"13","num_nodes":"9","size_leaf_vector":"1"}},{"base_weights":[7.406608E-2,-6.337216E-2,1.2573217E-1,1.7622486E-1,-6.409299E-2,2.1946281E-1,-5.924815E-2,1.8396119E-2,-9.726498E-3],"categories":[],"categories_nodes":[],"categories_segments":[],"categories_sizes":[],"default_left":[0,0,0,0,0,0,0,0,0],"id":15,"left_children":[1,-1,3,5,-1,7,-1,-1,-1],"loss_changes":[8.755114E0,0E0,8.77802E0,7.148487E0,0E0,7.09543E0,0E0,0E0,0E0],"parents":[2147483647,0,0,2,2,3,3,5,5],"right_children":[2,-1,4,6,-1,8,-1,-1,-1],"split_conditions":[9E0,-6.337216E-2,3.2E1,3.2E1,-6.409299E-2,2.44E2,-5.924815E-2,1.8396119E-2,-9.726498E-3],"split_indices":[2,0,6,7,0,12,0,0,0],"split_type":[0,0,0,0,0,0,0,0,0],"sum_hessian":[1.23018036E2,3.6894734E0,1.1932856E2,1.1604079E2,3.287775E0,1.132812E2,2.7595904E0,8.346248E1,2.9818716E1],"tree_param":{"num_deleted":"0","num_feature":"13","num_nodes":"9","size_leaf_vector":"1"}},{"base_weights":[2.0321472E-2,-7.376568E-2,7.9814E-2,4.061766E-1,-1.7053801E-1,6.041841E-1,-6.491769E-1,-4.95282E-1,5.4649377E-1,3.7289497E-2,-5.6081057E-2,-6.718733E-2,1.32938875E-2,-7.868017E-2,-1.2016117E-2,-6.253706E-2,4.166854E-2],"categories":[],"categories_nodes":[],"categories_segments":[],"categories_sizes":[],"default_left":[0,0,0,0,0,0,0,0,0,0,0,0,0,0,0,0,0],"id":16,"left_children":[1,-1,3,5,7,9,11,13,15,-1,-1,-1,-1,-1,-1,-1,-1],"loss_changes":[1.0245801E1,0E0,9.091133E0,1.0470484E1,1.4984693E1,1.0887386E1,5.5062027E0,1.1723423E1,1.1443373E1,0E0,0E0,0E0,0E0,0E0,0E0,0E0,0E0],"parents":[2147483647,0,0,2,2,3,3,4,4,5,5,6,6,7,7,8,8],"right_children":[2,-1,4,6,8,10,12,14,16,-1,-1,-1,-1,-1,-1,-1,-1],"split_conditions":[9E0,-7.376568E-2,-3.546049E-1,2.15E1,8.85456E-1,3.32E2,2.5E1,1.4E1,1.01E2,3.7289497E-2,-5.6081057E-2,-6.718733E-2,1.32938875E-2,-7.868017E-2,-1.2016117E-2,-6.253706E-2,4.166854E-2],"split_indices":[5,0,11,8,11,12,8,5,12,0,0,0,0,0,0,0,0],"split_type":[0,0,0,0,0,0,0,0,0,0,0,0,0,0,0,0,0],"sum_hessian":[1.1282504E2,3.4057822E0,1.0941926E2,4.7228745E1,6.2190517E1,4.0127457E1,7.1012874E0,4.3017246E1,1.917327E1,3.760939E1,2.518066E0,3.7706769E0,3.3306105E0,7.2370486E0,3.57802E1,2.1767094E0,1.699656E1],"tree_param":{"num_deleted":"0","num_feature":"13","num_nodes":"17","size_leaf_vector":"1"}},{"base_weights":[3.0476809E-2,3.294338E-1,-1.9773775E-1,-2.0651802E-1,6.83027E-1,-4.9836195E-1,2.3901744E-1,1.6103363E-1,-1.0338161E0,9.9106467E-1,-4.8194793E-1,-3.1357932E-1,-7.0668064E-2,7.6304144E-1,-2.3295474E-1,3.0294705E-2,-3.4577496E-2,2.5543887E-2,-7.4449785E-2,5.7661362E-2,-1.6824571E-2,-6.382763E-2,3.1327814E-2,-8.136266E-3,-6.846406E-2,4.9522255E-2,-9.854688E-3,-6.7963846E-2,2.4756236E-2],"categories":[],"categories_nodes":[],"categories_segments":[],"categories_sizes":[],"default_left":[0,0,0,0,0,0,0,0,0,0,0,0,0,0,0,0,0,0,0,0,0,0,0,0,0,0,0,0,0],"id":17,"left_children":[1,3,5,7,9,11,13,15,17,19,21,23,-1,25,27,-1,-1,-1,-1,-1,-1,-1,-1,-1,-1,-1,-1,-1,-1],"loss_changes":[8.006421E0,9.761177E0,8.867936E0,6.5357027E0,1.1536572E1,6.2845316E0,7.063651E0,6.2478395E0,5.3858542E0,5.705433E0,7.0689354E0,5.254138E0,0E0,3.1268673E0,1.3313608E1,0E0,0E0,0E0,0E0,0E0,0E0,0E0,0E0,0E0,0E0,0E0,0E0,0E0,0E0],"parents":[2147483647,0,0,1,1,2,2,3,3,4,4,5,5,6,6,7,7,8,8,9,9,10,10,11,11,13,13,14,14],"right_children":[2,4,6,8,10,12,14,16,18,20,22,24,-1,26,28,-1,-1,-1,-1,-1,-1,-1,-1,-1,-1,-1,-1,-1,-1],"split_conditions":[-3.546049E-1,1.6E1,2.1E1,3.546049E-1,2.175E1,2.2E1,2.4E1,1.81E2,2.3E1,2.1E1,2.5E1,1.9E1,-7.0668064E-2,2.1E1,2.4E1,3.0294705E-2,-3.4577496E-2,2.5543887E-2,-7.4449785E-2,5.7661362E-2,-1.6824571E-2,-6.382763E-2,3.1327814E-2,-8.136266E-3,-6.846406E-2,4.9522255E-2,-9.854688E-3,-6.7963846E-2,2.4756236E-2],"split_indices":[11,2,5,10,8,2,5,12,12,1,8,5,0,3,1,0,0,0,0,0,0,0,0,0,0,0,0,0,0],"split_type":[0,0,0,0,0,0,0,0,0,0,0,0,0,0,0,0,0,0,0,0,0,0,0,0,0,0,0,0,0],"sum_hessian":[1.1539611E2,4.9763412E1,6.56327E1,1.9946241E1,2.981717E1,3.879118E1,2.684152E1,1.4368126E1,5.5781155E0,2.3699842E1,6.1173277E0,3.3390694E1,5.400486E0,1.2427137E1,1.4414383E1,9.631797E0,4.736329E0,1.2417514E0,4.336364E0,2.1237028E1,2.462813E0,3.4748592E0,2.6424685E0,3.022574E1,3.1649528E0,1.0021923E1,2.405215E0,5.3190303E0,9.095353E0],"tree_param":{"num_deleted":"0","num_feature":"13","num_nodes":"29","size_leaf_vector":"1"}},{"base_weights":[6.830251E-2,1.1336099E-1,-6.0734358E-2,-5.8321465E-2,1.5640344E-1,2.1159121E-1,-8.1706387E-1,4.8198845E-2,5.9855655E-3,-6.433412E-2,3.177079E-2],"categories":[],"categories_nodes":[],"categories_segments":[],"categories_sizes":[],"default_left":[0,0,0,0,0,0,0,0,0,0,0],"id":18,"left_children":[1,3,-1,-1,5,7,9,-1,-1,-1,-1],"loss_changes":[7.1362095E0,6.675267E0,0E0,0E0,6.346534E0,7.4573035E0,5.163274E0,0E0,0E0,0E0,0E0],"parents":[2147483647,0,0,1,1,4,4,5,5,6,6],"right_children":[2,4,-1,-1,6,8,10,-1,-1,-1,-1],"split_conditions":[3.2E1,9E0,-6.0734358E-2,-5.8321465E-2,3.23E2,1.2E1,2E1,4.8198845E-2,5.9855655E-3,-6.433412E-2,3.177079E-2],"split_indices":[5,2,0,0,12,8,5,0,0,0,0],"split_type":[0,0,0,0,0,0,0,0,0,0,0],"sum_hessian":[1.20061485E2,1.1686871E2,3.1927757E0,2.953456E0,1.1391526E2,1.0854431E2,5.370949E0,1.0779716E1,9.7764595E1,4.1449456E0,1.2260036E0],"tree_param":{"num_deleted":"0","num_feature":"13","num_nodes":"11","size_leaf_vector":"1"}},{"base_weights":[-7.905961E-2,-5.8180787E-2,-3.6405124E-2,8.77531E-2,-4.870297E-1,3.3138153E-1,-2.0930173E-1,-1.0659603E0,3.1644037E-1,2.3581391E-2,-4.0085483E-2,-2.156649E-2,2.4849994E-2,-7.4789666E-2,9.686698E-3,4.6085175E-2,-2.8706837E-2],"categories":[],"categories_nodes":[],"categories_segments":[],"categories_sizes":[],"default_left":[0,0,0,0,0,0,0,0,0,0,0,0,0,0,0,0,0],"id":19,"left_children":[1,-1,3,5,7,9,11,13,15,-1,-1,-1,-1,-1,-1,-1,-1],"loss_changes":[5.2439137E0,0E0,6.2518425E0,6.427399E0,1.1559141E1,8.109859E0,6.518342E0,8.005941E0,6.3908057E0,0E0,0E0,0E0,0E0,0E0,0E0,0E0,0E0],"parents":[2147483647,0,0,2,2,3,3,4,4,5,5,6,6,7,7,8,8],"right_children":[2,-1,4,6,8,10,12,14,16,-1,-1,-1,-1,-1,-1,-1,-1],"split_conditions":[9E0,-5.8180787E-2,2.1375E1,6.4324905E-16,2.5E1,2.125E1,2.1E1,7.485108E-1,2.6E1,2.3581391E-2,-4.0085483E-2,-2.156649E-2,2.4849994E-2,-7.4789666E-2,9.686698E-3,4.6085175E-2,-2.8706837E-2],"split_indices":[2,0,9,10,8,8,2,10,2,0,0,0,0,0,0,0,0],"split_type":[0,0,0,0,0,0,0,0,0,0,0,0,0,0,0,0,0],"sum_hessian":[1.1327021E2,3.2917733E0,1.0997843E2,8.685343E1,2.3125006E1,4.765434E1,3.919909E1,1.3250689E1,9.874318E0,4.292513E1,4.729211E0,3.0120066E1,9.079023E0,9.739835E0,3.5108535E0,5.8580556E0,4.016262E0],"tree_param":{"num_deleted":"0","num_feature":"13","num_nodes":"17","size_leaf_vector":"1"}},{"base_weights":[-6.271388E-2,8.184794E-2,-4.7462186E-1,-6.559279E-2,1.4164697E-1,3.7423345E-1,-8.772724E-1,-8.756199E-1,2.1690841E-1,5.6151714E-2,-3.0177215E-1,-7.133188E-2,-5.2170324E-1,-7.1396336E-2,2.2289878E-2,1.3757095E-2,-5.5127796E-2,-5.9826214E-2,3.2229185E-2,3.778012E-2,-5.777625E-2],"categories":[],"categories_nodes":[],"categories_segments":[],"categories_sizes":[],"default_left":[0,0,0,0,0,0,0,0,0,0,0,0,0,0,0,0,0,0,0,0,0],"id":20,"left_children":[1,3,5,-1,7,9,11,13,15,-1,17,-1,19,-1,-1,-1,-1,-1,-1,-1,-1],"loss_changes":[6.7944074E0,7.2558184E0,1.0452105E1,0E0,6.486575E0,5.517576E0,3.2384777E0,4.916335E0,6.2489643E0,0E0,5.9913807E0,0E0,1.2170292E1,0E0,0E0,0E0,0E0,0E0,0E0,0E0,0E0],"parents":[2147483647,0,0,1,1,2,2,4,4,5,5,6,6,7,7,8,8,10,10,12,12],"right_children":[2,4,6,-1,8,10,12,14,16,-1,18,-1,20,-1,-1,-1,-1,-1,-1,-1,-1],"split_conditions":[2.44E2,9E0,1.3E1,-6.559279E-2,-9.350162E-1,3.02E2,1.7E1,2.5E1,3.2E1,5.6151714E-2,1.2E1,-7.133188E-2,1.8E1,-7.1396336E-2,2.2289878E-2,1.3757095E-2,-5.5127796E-2,-5.9826214E-2,3.2229185E-2,3.778012E-2,-5.777625E-2],"split_indices":[12,4,0,0,10,12,0,6,5,0,0,0,0,0,0,0,0,0,0,0,0],"split_type":[0,0,0,0,0,0,0,0,0,0,0,0,0,0,0,0,0,0,0,0,0],"sum_hessian":[1.12450806E2,8.383105E1,2.8619762E1,2.5875132E0,8.124353E1,9.230624E0,1.9389137E1,4.864082E0,7.637945E1,4.065763E0,5.164861E0,6.4348435E0,1.2954294E1,3.3734813E0,1.4906008E0,7.390901E1,2.47044E0,2.5189333E0,2.645928E0,4.232545E0,8.721749E0],"tree_param":{"num_deleted":"0","num_feature":"13","num_nodes":"21","size_leaf_vector":"1"}},{"base_weights":[-1.0621822E-1,2.008409E-1,-3.438245E-1,3.528454E-1,-6.3020475E-2,4.6400127E-1,-4.3682733E-1,4.6595323E-1,-5.410936E-2,9.622981E-1,-4.5903288E-2,-8.116998E-2,-2.476101E-1,3.2587085E-4,3.8339693E-2,2.3527828E-3,6.611491E-2,6.4426856E-3,-2.9504677E-2],"categories":[],"categories_nodes":[],"categories_segments":[],"categories_sizes":[],"default_left":[0,0,0,0,0,0,0,0,0,0,0,0,0,0,0,0,0,0,0],"id":21,"left_children":[1,3,5,7,-1,9,11,13,-1,15,-1,-1,17,-1,-1,-1,-1,-1,-1],"loss_changes":[8.214208E0,1.1402484E1,4.9589143E0,7.884044E0,0E0,5.7185173E0,1.2459825E1,5.916708E0,0E0,1.7988896E0,0E0,0E0,6.5983553E0,0E0,0E0,0E0,0E0,0E0,0E0],"parents":[2147483647,0,0,1,1,2,2,3,3,5,5,6,6,7,7,9,9,12,12],"right_children":[2,4,6,8,-1,10,12,14,-1,16,-1,-1,18,-1,-1,-1,-1,-1,-1],"split_conditions":[-3.546049E-1,2.3E1,1.2E1,3.32E2,-6.3020475E-2,1.275E1,1.3E1,1.6E1,-5.410936E-2,1E1,-4.5903288E-2,-8.116998E-2,1.8625E1,3.2587085E-4,3.8339693E-2,2.3527828E-3,6.611491E-2,6.4426856E-3,-2.9504677E-2],"split_indices":[11,9,8,12,0,9,0,2,0,3,0,0,9,0,0,0,0,0,0],"split_type":[0,0,0,0,0,0,0,0,0,0,0,0,0,0,0,0,0,0,0],"sum_hessian":[1.10639885E2,4.8333336E1,6.2306545E1,4.4466324E1,3.8670146E0,6.020775E0,5.628577E1,4.1843555E1,2.6227658E0,4.648506E0,1.3722686E0,6.69874E0,4.958703E1,1.6961725E1,2.4881832E1,1.6314688E0,3.0170374E0,2.3918816E1,2.5668213E1],"tree_param":{"num_deleted":"0","num_feature":"13","num_nodes":"19","size_leaf_vector":"1"}},{"base_weights":[4.764251E-2,2.810311E-1,-2.0401584E-1,5.473095E-1,-2.3799993E-1,-7.234939E-1,3.5766643E-1,-4.640229E-2,6.1312443E-1,-1.0052333E0,6.1616963E-1,-2.3615304E-1,-1.3040234E0,7.3934597E-1,-6.2720984E-1,1.3572608E-4,4.07695E-2,-7.781527E-2,4.0091645E-2,5.698159E-2,-2.1143397E-2,-4.798616E-2,3.906241E-2,-7.679138E-2,1.1528618E-2,4.5310955E-2,-4.356754E-2,1.8021852E-2,-6.624197E-2],"categories":[],"categories_nodes":[],"categories_segments":[],"categories_sizes":[],"default_left":[0,0,0,0,0,0,0,0,0,0,0,0,0,0,0,0,0,0,0,0,0,0,0,0,0,0,0,0,0],"id":22,"left_children":[1,3,5,7,9,11,13,-1,15,17,19,21,23,25,27,-1,-1,-1,-1,-1,-1,-1,-1,-1,-1,-1,-1,-1,-1],"loss_changes":[7.0479546E0,8.722962E0,1.7137905E1,4.5884447E0,1.4891645E1,8.288209E0,1.1163679E1,0E0,4.9646654E0,1.3051344E1,6.4240966E0,1.3808532E1,5.208067E0,6.426858E0,6.3280115E0,0E0,0E0,0E0,0E0,0E0,0E0,0E0,0E0,0E0,0E0,0E0,0E0,0E0,0E0],"parents":[2147483647,0,0,1,1,2,2,3,3,4,4,5,5,6,6,8,8,9,9,10,10,11,11,12,12,13,13,14,14],"right_children":[2,4,6,8,10,12,14,-1,16,18,20,22,24,26,28,-1,-1,-1,-1,-1,-1,-1,-1,-1,-1,-1,-1,-1,-1],"split_conditions":[1.7E1,1.7E1,2.2E1,8E0,2.1E1,1.8625E1,1.85E2,-4.640229E-2,1.1E1,9.350162E-1,2.4E1,1.725E1,3.2E1,9.350162E-1,-6.6312265E-1,1.3572608E-4,4.07695E-2,-7.781527E-2,4.0091645E-2,5.698159E-2,-2.1143397E-2,-4.798616E-2,3.906241E-2,-7.679138E-2,1.1528618E-2,4.5310955E-2,-4.356754E-2,1.8021852E-2,-6.624197E-2],"split_indices":[4,3,3,4,2,9,12,0,3,11,2,9,1,10,11,0,0,0,0,0,0,0,0,0,0,0,0,0,0],"split_type":[0,0,0,0,0,0,0,0,0,0,0,0,0,0,0,0,0,0,0,0,0,0,0,0,0,0,0,0,0],"sum_hessian":[1.18021324E2,6.1172802E1,5.6848526E1,4.0394653E1,2.0778149E1,2.9384169E1,2.7464357E1,1.1655685E0,3.9229084E1,1.0852946E1,9.925202E0,1.673898E1,1.264519E1,1.9973225E1,7.4911337E0,1.0015892E1,2.9213192E1,8.423065E0,2.4298809E0,6.535722E0,3.3894804E0,9.815173E0,6.9238057E0,1.0985067E1,1.6601231E0,1.849451E1,1.4787135E0,3.3010783E0,4.190056E0],"tree_param":{"num_deleted":"0","num_feature":"13","num_nodes":"29","size_leaf_vector":"1"}},{"base_weights":[4.0732242E-2,-5.4997414E-2,8.1432685E-2,1.6999814E-1,-5.2557725E-1,2.2446416E-2,6.364941E-1,6.1487496E-1,-8.368716E-1,4.8441924E-3,-6.334076E-2,-3.415603E-2,4.591649E-2,9.497001E-3,4.4362545E-2,8.197325E-3,-5.1591504E-2],"categories":[],"categories_nodes":[],"categories_segments":[],"categories_sizes":[],"default_left":[0,0,0,0,0,0,0,0,0,0,0,0,0,0,0,0,0],"id":23,"left_children":[1,-1,3,5,7,9,11,13,15,-1,-1,-1,-1,-1,-1,-1,-1],"loss_changes":[5.529416E0,0E0,6.221557E0,6.8894596E0,5.757485E0,7.5347943E0,9.577239E0,2.6471436E-1,2.5154476E0,0E0,0E0,0E0,0E0,0E0,0E0,0E0,0E0],"parents":[2147483647,0,0,2,2,3,3,4,4,5,5,6,6,7,7,8,8],"right_children":[2,-1,4,6,8,10,12,14,16,-1,-1,-1,-1,-1,-1,-1,-1],"split_conditions":[9E0,-5.4997414E-2,2.6E1,2.1E1,1.3E1,2.2625E1,-4.6472317E-1,1.7E1,-8.2298386E-1,4.8441924E-3,-6.334076E-2,-3.415603E-2,4.591649E-2,9.497001E-3,4.4362545E-2,8.197325E-3,-5.1591504E-2],"split_indices":[2,0,2,2,7,9,10,1,10,0,0,0,0,0,0,0,0],"split_type":[0,0,0,0,0,0,0,0,0,0,0,0,0,0,0,0,0],"sum_hessian":[1.1617185E2,3.105686E0,1.1306616E2,9.929807E1,1.3768089E1,7.623364E1,2.3064428E1,2.7431426E0,1.1024946E1,7.294681E1,3.2868388E0,3.8084815E0,1.9255947E1,1.7344944E0,1.0086483E0,1.8234332E0,9.201513E0],"tree_param":{"num_deleted":"0","num_feature":"13","num_nodes":"17","size_leaf_vector":"1"}},{"base_weights":[4.4850454E-2,1.2670653E-1,-5.253642E-1,-3.7482977E-1,2.4248692E-1,-8.473331E-1,6.007836E-1,1.4949697E-1,-1.051342E0,2.9207286E-1,-5.4329205E-2,-1.0772796E0,3.4603838E-2,6.694892E-3,4.8594438E-2,2.2822384E-2,-5.0917443E-2,-6.979584E-2,1.2560469E-2,1.6889794E-2,-5.451672E-2,1.54696945E-2,-6.623547E-2],"categories":[],"categories_nodes":[],"categories_segments":[],"categories_sizes":[],"default_left":[0,0,0,0,0,0,0,0,0,0,0,0,0,0,0,0,0,0,0,0,0,0,0],"id":24,"left_children":[1,3,5,7,9,11,13,15,17,19,-1,21,-1,-1,-1,-1,-1,-1,-1,-1,-1,-1,-1],"loss_changes":[5.5728593E0,6.128009E0,5.9490376E0,7.213175E0,5.9240193E0,5.0225153E0,5.492177E-1,4.795891E0,4.3048553E0,5.602068E0,0E0,4.150835E0,0E0,0E0,0E0,0E0,0E0,0E0,0E0,0E0,0E0,0E0,0E0],"parents":[2147483647,0,0,1,1,2,2,3,3,4,4,5,5,6,6,7,7,8,8,9,9,11,11],"right_children":[2,4,6,8,10,12,14,16,18,20,-1,22,-1,-1,-1,-1,-1,-1,-1,-1,-1,-1,-1],"split_conditions":[2.6E1,1.3E1,3.3E1,-3.2162452E-16,9.9270886E-1,1E0,2.7E1,2.1E1,9.9270886E-1,3.1E1,-5.4329205E-2,1E1,3.4603838E-2,6.694892E-3,4.8594438E-2,2.2822384E-2,-5.0917443E-2,-6.979584E-2,1.2560469E-2,1.6889794E-2,-5.451672E-2,1.54696945E-2,-6.623547E-2],"split_indices":[2,2,4,10,10,10,1,6,10,4,0,3,0,0,0,0,0,0,0,0,0,0,0],"split_type":[0,0,0,0,0,0,0,0,0,0,0,0,0,0,0,0,0,0,0,0,0,0,0],"sum_hessian":[1.1696955E2,1.02966225E2,1.4003327E1,1.8892118E1,8.4074104E1,1.1082416E1,2.920911E0,1.1082056E1,7.810063E0,8.180241E1,2.2716997E0,9.903325E0,1.1790911E0,1.896164E0,1.0247471E0,9.257908E0,1.8241477E0,6.119533E0,1.6905293E0,7.991488E1,1.8875307E0,1.4616048E0,8.44172E0],"tree_param":{"num_deleted":"0","num_feature":"13","num_nodes":"23","size_leaf_vector":"1"}},{"base_weights":[-5.1399297E-4,3.9177354E-2,-5.5505883E-2,-4.0461716E-1,1.369048E-1,4.776108E-1,-8.2000935E-1,2.2698738E-1,-4.0234128E-1,-4.387257E-2,4.9935162E-2,-7.155534E-2,-6.6098124E-3,1.34701645E-2,-5.4317303E-2,-3.668829E-2,2.9256508E-2],"categories":[],"categories_nodes":[],"categories_segments":[],"categories_sizes":[],"default_left":[0,0,0,0,0,0,0,0,0,0,0,0,0,0,0,0,0],"id":25,"left_children":[1,3,-1,5,7,9,11,13,15,-1,-1,-1,-1,-1,-1,-1,-1],"loss_changes":[5.021365E0,4.830053E0,0E0,7.765167E0,4.5102787E0,5.8705306E0,5.7152834E0,4.670427E0,4.8089037E0,0E0,0E0,0E0,0E0,0E0,0E0,0E0,0E0],"parents":[2147483647,0,0,1,1,3,3,4,4,5,5,6,6,7,7,8,8],"right_children":[2,4,-1,6,8,10,12,14,16,-1,-1,-1,-1,-1,-1,-1,-1],"split_conditions":[3.2E1,1.3E1,-5.5505883E-2,1.2E1,2.6E1,9E0,1.7E1,3.1E1,3.3E1,-4.387257E-2,4.9935162E-2,-7.155534E-2,-6.6098124E-3,1.34701645E-2,-5.4317303E-2,-3.668829E-2,2.9256508E-2],"split_indices":[5,2,0,8,2,2,0,3,4,0,0,0,0,0,0,0,0],"split_type":[0,0,0,0,0,0,0,0,0,0,0,0,0,0,0,0,0],"sum_hessian":[1.12026474E2,1.09088974E2,2.9375007E0,1.9120365E1,8.9968605E1,6.072834E0,1.3047531E1,7.758661E1,1.2381995E1,1.4967577E0,4.576076E0,6.3368254E0,6.7107053E0,7.5929245E1,1.6573675E0,9.462894E0,2.9191012E0],"tree_param":{"num_deleted":"0","num_feature":"13","num_nodes":"17","size_leaf_vector":"1"}},{"base_weights":[-6.4981324E-3,-6.3424873E-1,9.2172235E-2,-7.842731E-1,3.1131655E-2,2.5228807E-1,-4.2880067E-1,1.1181525E-1,-1.1364994E0,-6.32054E-2,3.0888802E-1,-9.7254634E-1,3.1948102E-1,-4.4317108E-2,3.5430863E-2,2.8039498E-2,-7.118314E-2,2.6189601E-2,-7.116756E-3,2.4482685E-3,-5.7923507E-2,4.3482054E-2,-2.4462912E-2],"categories":[],"categories_nodes":[],"categories_segments":[],"categories_sizes":[],"default_left":[0,0,0,0,0,0,0,0,0,0,0,0,0,0,0,0,0,0,0,0,0,0,0],"id":26,"left_children":[1,3,5,7,-1,9,11,13,15,-1,17,19,21,-1,-1,-1,-1,-1,-1,-1,-1,-1,-1],"loss_changes":[7.071068E0,3.4119883E0,8.34221E0,4.6387043E0,0E0,6.924922E0,9.903215E0,3.5730543E0,5.8432083E0,0E0,7.269558E0,2.696929E0,5.17501E0,0E0,0E0,0E0,0E0,0E0,0E0,0E0,0E0,0E0,0E0],"parents":[2147483647,0,0,1,1,2,2,3,3,5,5,6,6,7,7,8,8,10,10,11,11,12,12],"right_children":[2,4,6,8,-1,10,12,14,16,-1,18,20,22,-1,-1,-1,-1,-1,-1,-1,-1,-1,-1],"split_conditions":[1.2E1,3.1E1,2.1375E1,1.1E1,3.1131655E-2,9E0,2.5E1,1.5E1,-9.7094184E-1,-6.32054E-2,2.44E2,1.6E1,2.6E1,-4.4317108E-2,3.5430863E-2,2.8039498E-2,-7.118314E-2,2.6189601E-2,-7.116756E-3,2.4482685E-3,-5.7923507E-2,4.3482054E-2,-2.4462912E-2],"split_indices":[2,3,9,5,0,5,8,4,11,0,12,5,2,0,0,0,0,0,0,0,0,0,0],"split_type":[0,0,0,0,0,0,0,0,0,0,0,0,0,0,0,0,0,0,0,0,0,0,0],"sum_hessian":[1.1221544E2,1.45050335E1,9.77104E1,1.3294221E1,1.2108123E0,7.5134346E1,2.2576057E1,3.9437056E0,9.350515E0,1.9358555E0,7.3198494E1,1.2901419E1,9.674639E0,1.2941216E0,2.649584E0,1.2151959E0,8.13532E0,4.9474464E1,2.3724028E1,2.1000204E0,1.0801398E1,5.7129755E0,3.9616632E0],"tree_param":{"num_deleted":"0","num_feature":"13","num_nodes":"23","size_leaf_vector":"1"}},{"base_weights":[-2.5102621E-2,1.051313E-1,-6.135301E-1,2.809132E-1,-2.7440086E-1,-6.8832114E-2,2.554717E-1,6.8588905E-2,1.0728109E0,1.225288E-1,-1.1333746E0,9.1019833E-1,-5.394582E-2,2.2833327E-2,-1.8338477E-2,1.2265262E-3,6.1833955E-2,-2.0620951E-2,5.929164E-2,-7.277228E-2,5.708135E-3,5.68566E-2,3.6400922E-3],"categories":[],"categories_nodes":[],"categories_segments":[],"categories_sizes":[],"default_left":[0,0,0,0,0,0,0,0,0,0,0,0,0,0,0,0,0,0,0,0,0,0,0],"id":27,"left_children":[1,3,5,7,9,-1,11,13,15,17,19,21,-1,-1,-1,-1,-1,-1,-1,-1,-1,-1,-1],"loss_changes":[8.67508E0,6.2717533E0,1.3951515E1,1.0679739E1,1.0332654E1,0E0,1.0096238E1,8.868753E0,2.280755E0,1.2633842E1,4.002042E0,1.3502221E0,0E0,0E0,0E0,0E0,0E0,0E0,0E0,0E0,0E0,0E0,0E0],"parents":[2147483647,0,0,1,1,2,2,3,3,4,4,6,6,7,7,8,8,9,9,10,10,11,11],"right_children":[2,4,6,8,10,-1,12,14,16,18,20,22,-1,-1,-1,-1,-1,-1,-1,-1,-1,-1,-1],"split_conditions":[2.1375E1,2.44E2,2.5E1,2.03E2,1.775E1,-6.8832114E-2,2.6E1,-2.3931566E-1,1.5E1,2.1E1,9.7094184E-1,4.6472317E-1,-5.394582E-2,2.2833327E-2,-1.8338477E-2,1.2265262E-3,6.1833955E-2,-2.0620951E-2,5.929164E-2,-7.277228E-2,5.708135E-3,5.68566E-2,3.6400922E-3],"split_indices":[9,12,8,12,8,0,2,11,2,7,11,10,0,0,0,0,0,0,0,0,0,0,0],"split_type":[0,0,0,0,0,0,0,0,0,0,0,0,0,0,0,0,0,0,0,0,0,0,0],"sum_hessian":[1.1136094E2,9.18529E1,1.9508041E1,6.295491E1,2.889799E1,1.0075817E1,9.432223E0,5.0501118E1,1.2453793E1,2.0351135E1,8.546855E0,6.5408177E0,2.8914058E0,2.6674543E1,2.3826574E1,1.8390316E0,1.061476E1,1.3946692E1,6.404442E0,6.6606507E0,1.8862048E0,4.864583E0,1.6762345E0],"tree_param":{"num_deleted":"0","num_feature":"13","num_nodes":"23","size_leaf_vector":"1"}},{"base_weights":[-1.9969251E-2,-9.3956515E-2,6.11638E-1,2.5960172E-2,-9.3318367E-1,-3.281077E-1,8.715146E-1,-8.0781E-2,7.726782E-1,-6.757935E-2,4.4205302E-1,-4.4375565E-2,2.0533068E-2,1.0611724E0,2.5465353E-3,8.964579E-3,-2.6544875E-2,3.3272502E-3,5.2860864E-2,8.814087E-3,2.7388787E-2,6.357827E-2,6.293084E-3],"categories":[],"categories_nodes":[],"categories_segments":[],"categories_sizes":[],"default_left":[0,0,0,0,0,0,0,0,0,0,0,0,0,0,0,0,0,0,0,0,0,0,0],"id":28,"left_children":[1,3,5,7,9,11,13,15,17,-1,19,-1,-1,21,-1,-1,-1,-1,-1,-1,-1,-1,-1],"loss_changes":[5.221343E0,1.0066038E1,3.148241E0,7.0988135E0,7.7913465E0,1.7139864E0,1.417398E0,9.2429695E0,2.1670623E0,0E0,6.556034E-3,0E0,0E0,1.3412848E0,0E0,0E0,0E0,0E0,0E0,0E0,0E0,0E0,0E0],"parents":[2147483647,0,0,1,1,2,2,3,3,4,4,5,5,6,6,7,7,8,8,10,10,13,13],"right_children":[2,4,6,8,10,12,14,16,18,-1,20,-1,-1,22,-1,-1,-1,-1,-1,-1,-1,-1,-1],"split_conditions":[2.9E1,2.4E1,1.9E1,2.2E1,2.5E1,2.7E1,2.7E1,1.2053668E-1,3.546049E-1,-6.757935E-2,2.7E1,-4.4375565E-2,2.0533068E-2,2.5E1,2.5465353E-3,8.964579E-3,-2.6544875E-2,3.3272502E-3,5.2860864E-2,8.814087E-3,2.7388787E-2,6.357827E-2,6.293084E-3],"split_indices":[1,5,2,5,8,5,5,11,11,0,0,0,0,6,0,0,0,0,0,0,0,0,0],"split_type":[0,0,0,0,0,0,0,0,0,0,0,0,0,0,0,0,0,0,0,0,0,0,0],"sum_hessian":[1.09502396E2,9.878217E1,1.0720225E1,8.727987E1,1.1502304E1,2.2654672E0,8.454758E0,7.714415E1,1.0135714E1,8.83234E0,2.6699634E0,1.1746625E0,1.0908047E0,6.6293545E0,1.8254036E0,4.927516E1,2.7868994E1,3.2655501E0,6.8701634E0,1.5189484E0,1.1510149E0,5.1184707E0,1.5108836E0],"tree_param":{"num_deleted":"0","num_feature":"13","num_nodes":"23","size_leaf_vector":"1"}},{"base_weights":[-2.8304895E-2,1.18218996E-1,-3.5569108E-1,1.7694227E-1,-5.2474942E-2,-7.446272E-1,2.3637608E-1,9.1138445E-2,9.8946875E-1,-1.1449739E0,-1.3549787E-1,5.528951E-1,-5.2134093E-2,1.4198794E-2,-4.3768812E-2,8.865201E-3,5.7223357E-2,1.2751612E-2,-6.710347E-2,2.290064E-2,-5.9486803E-2,3.980065E-2,-4.813796E-2],"categories":[],"categories_nodes":[],"categories_segments":[],"categories_sizes":[],"default_left":[0,0,0,0,0,0,0,0,0,0,0,0,0,0,0,0,0,0,0,0,0,0,0],"id":29,"left_children":[1,3,5,7,-1,9,11,13,15,17,19,21,-1,-1,-1,-1,-1,-1,-1,-1,-1,-1,-1],"loss_changes":[5.460928E0,5.588393E0,8.276163E0,5.199429E0,0E0,5.080762E0,6.529803E0,1.3244168E1,6.9657516E-1,3.880148E0,6.5824676E0,5.3508463E0,0E0,0E0,0E0,0E0,0E0,0E0,0E0,0E0,0E0,0E0,0E0],"parents":[2147483647,0,0,1,1,2,2,3,3,5,5,6,6,7,7,8,8,9,9,10,10,11,11],"right_children":[2,4,6,8,-1,10,12,14,16,18,20,22,-1,-1,-1,-1,-1,-1,-1,-1,-1,-1,-1],"split_conditions":[5.6806475E-1,3E1,2E1,2.5E1,-5.2474942E-2,1.8E1,2.7E1,2.125E1,1.58E2,1.05E1,1.775E1,2.68E2,-5.2134093E-2,1.4198794E-2,-4.3768812E-2,8.865201E-3,5.7223357E-2,1.2751612E-2,-6.710347E-2,2.290064E-2,-5.9486803E-2,3.980065E-2,-4.813796E-2],"split_indices":[10,2,2,8,0,5,6,8,12,8,8,12,0,0,0,0,0,0,0,0,0,0,0],"split_type":[0,0,0,0,0,0,0,0,0,0,0,0,0,0,0,0,0,0,0,0,0,0,0],"sum_hessian":[1.1196414E2,7.7788345E1,3.4175797E1,7.4871605E1,2.9167416E0,2.0470684E1,1.3705113E1,6.87262E1,6.1454077E0,1.1821428E1,8.649255E0,1.1441502E1,2.2636116E0,5.7883553E1,1.0842647E1,1.3284526E0,4.816955E0,1.4225849E0,1.0398844E1,5.89568E0,2.7535746E0,1.0269097E1,1.1724045E0],"tree_param":{"num_deleted":"0","num_feature":"13","num_nodes":"23","size_leaf_vector":"1"}},{"base_weights":[1.3796697E-2,-5.18129E-1,9.2917465E-2,-8.142889E-1,3.3376244E-1,-6.35125E-2,1.3678934E-1,8.5348144E-2,-6.417063E-2,5.1289435E-2,-4.02249E-2,2.739338E-1,-3.449229E-1,-5.18527E-2,5.555829E-2,2.4014546E-2,-1.0094043E-2,-4.4235874E-2,2.2928955E-2],"categories":[],"categories_nodes":[],"categories_segments":[],"categories_sizes":[],"default_left":[0,0,0,0,0,0,0,0,0,0,0,0,0,0,0,0,0,0,0],"id":30,"left_children":[1,3,5,7,9,-1,11,13,-1,-1,-1,15,17,-1,-1,-1,-1,-1,-1],"loss_changes":[4.754678E0,3.9634547E0,6.046462E0,4.8146076E0,4.357272E0,0E0,6.439224E0,6.631289E0,0E0,0E0,0E0,7.491796E0,9.828755E0,0E0,0E0,0E0,0E0,0E0,0E0],"parents":[2147483647,0,0,1,1,2,2,3,3,4,4,6,6,7,7,11,11,12,12],"right_children":[2,4,6,8,10,-1,12,14,-1,-1,-1,16,18,-1,-1,-1,-1,-1,-1],"split_conditions":[1.2E1,1.625E1,9E0,1.2E1,1.825E1,-6.35125E-2,2.1375E1,1.1E1,-6.417063E-2,5.1289435E-2,-4.02249E-2,2.44E2,2.9E1,-5.18527E-2,5.555829E-2,2.4014546E-2,-1.0094043E-2,-4.4235874E-2,2.2928955E-2],"split_indices":[2,8,5,6,9,0,9,6,0,0,0,12,1,0,0,0,0,0,0],"split_type":[0,0,0,0,0,0,0,0,0,0,0,0,0,0,0,0,0,0,0],"sum_hessian":[1.1083038E2,1.3632313E1,9.719807E1,1.0148373E1,3.4839406E0,2.159061E0,9.503901E1,3.758595E0,6.3897777E0,2.2281227E0,1.2558178E0,7.431322E1,2.0725792E1,1.7895732E0,1.9690217E0,5.182689E1,2.2486326E1,1.2336814E1,8.388978E0],"tree_param":{"num_deleted":"0","num_feature":"13","num_nodes":"19","size_leaf_vector":"1"}},{"base_weights":[1.9461203E-2,5.5812694E-2,-5.419268E-2,-5.1301647E-2,9.514239E-2,7.4932843E-1,1.6026232E-2,5.7543464E-2,-4.0312405E-3,-4.9945127E-2,6.374029E-3],"categories":[],"categories_nodes":[],"categories_segments":[],"categories_sizes":[],"default_left":[0,0,0,0,0,0,0,0,0,0,0],"id":31,"left_children":[1,3,-1,-1,5,7,9,-1,-1,-1,-1],"loss_changes":[4.6411366E0,4.8425727E0,0E0,0E0,5.6047034E0,3.9874525E0,1.1194253E1,0E0,0E0,0E0,0E0],"parents":[2147483647,0,0,1,1,4,4,5,5,6,6],"right_children":[2,4,-1,-1,6,8,10,-1,-1,-1,-1],"split_conditions":[3.3E1,9E0,-5.419268E-2,-5.1301647E-2,1.2E1,1.25E1,1.375E1,5.7543464E-2,-4.0312405E-3,-4.9945127E-2,6.374029E-3],"split_indices":[6,2,0,0,8,9,9,0,0,0,0],"split_type":[0,0,0,0,0,0,0,0,0,0,0],"sum_hessian":[1.1321019E2,1.10518295E2,2.6918907E0,2.996808E0,1.0752149E2,1.0686555E1,9.683493E1,6.941507E0,3.745048E0,8.793834E0,8.80411E1],"tree_param":{"num_deleted":"0","num_feature":"13","num_nodes":"11","size_leaf_vector":"1"}},{"base_weights":[-1.656305E-2,2.5333065E-1,-2.3171325E-1,-1.7763883E-1,5.3176403E-1,1.0633239E-1,-5.778603E-1,1.8695398E-1,-8.6053723E-1,8.923345E-1,-3.2411563E-1,-3.284182E-1,5.4292506E-1,-7.6709044E-1,4.087084E-1,-4.772274E-2,2.0878313E-2,2.5406612E-2,-6.486933E-2,5.079745E-2,-3.6027398E-2,-4.947677E-2,3.6002237E-2,1.3650744E-2,-5.2184593E-2,6.033584E-2,3.303241E-3,-5.2264668E-2,6.4629647E-3,-4.17168E-2,4.774436E-2],"categories":[],"categories_nodes":[],"categories_segments":[],"categories_sizes":[],"default_left":[0,0,0,0,0,0,0,0,0,0,0,0,0,0,0,0,0,0,0,0,0,0,0,0,0,0,0,0,0,0,0],"id":32,"left_children":[1,3,5,7,9,11,13,15,17,19,21,23,25,27,29,-1,-1,-1,-1,-1,-1,-1,-1,-1,-1,-1,-1,-1,-1,-1,-1],"loss_changes":[6.482792E0,6.0403013E0,7.3257504E0,5.1896605E0,9.656195E0,6.300135E0,6.0688105E0,4.0807853E0,4.969218E0,5.042982E0,7.473272E0,7.5050144E0,5.1333437E0,6.672145E0,4.608065E0,0E0,0E0,0E0,0E0,0E0,0E0,0E0,0E0,0E0,0E0,0E0,0E0,0E0,0E0,0E0,0E0],"parents":[2147483647,0,0,1,1,2,2,3,3,4,4,5,5,6,6,7,7,8,8,9,9,10,10,11,11,12,12,13,13,14,14],"right_children":[2,4,6,8,10,12,14,16,18,20,22,24,26,28,30,-1,-1,-1,-1,-1,-1,-1,-1,-1,-1,-1,-1,-1,-1,-1,-1],"split_conditions":[-3.546049E-1,1.6E1,1.7E1,1.81E2,1.9E1,2.03E2,3E1,1E1,-6.6312265E-1,2.175E1,2.9E1,1.5E1,2.22E2,2.65E2,6.6312265E-1,-4.772274E-2,2.0878313E-2,2.5406612E-2,-6.486933E-2,5.079745E-2,-3.6027398E-2,-4.947677E-2,3.6002237E-2,1.3650744E-2,-5.2184593E-2,6.033584E-2,3.303241E-3,-5.2264668E-2,6.4629647E-3,-4.17168E-2,4.774436E-2],"split_indices":[11,2,4,12,1,12,3,2,10,8,1,3,12,12,11,0,0,0,0,0,0,0,0,0,0,0,0,0,0,0,0],"split_type":[0,0,0,0,0,0,0,0,0,0,0,0,0,0,0,0,0,0,0,0,0,0,0,0,0,0,0,0,0,0,0],"sum_hessian":[1.09631096E2,4.8550186E1,6.108091E1,1.9197538E1,2.935265E1,3.1252588E1,2.9828321E1,1.2989047E1,6.208491E0,2.0622204E1,8.730447E0,1.5783476E1,1.5469111E1,2.5214489E1,4.613833E0,1.6556535E0,1.1333394E1,1.4626774E0,4.7458134E0,1.9497946E1,1.1242582E0,5.3642473E0,3.366199E0,8.909929E0,6.873547E0,5.827148E0,9.641963E0,1.9115412E1,6.0990777E0,1.2473683E0,3.3664644E0],"tree_param":{"num_deleted":"0","num_feature":"13","num_nodes":"31","size_leaf_vector":"1"}},{"base_weights":[7.6334425E-3,6.918894E-2,-8.5765564E-1,1.0871012E-1,-5.1061373E-2,-6.156027E-2,3.0368282E-2,-4.313985E-1,1.8437126E-1,4.726238E-3,-5.9965532E-2,1.3455087E-2,-1.775075E-2],"categories":[],"categories_nodes":[],"categories_segments":[],"categories_sizes":[],"default_left":[0,0,0,0,0,0,0,0,0,0,0,0,0],"id":33,"left_children":[1,3,5,7,-1,-1,-1,9,11,-1,-1,-1,-1],"loss_changes":[5.900694E0,4.563165E0,4.774647E0,4.1906424E0,0E0,0E0,0E0,5.2264977E0,4.1603537E0,0E0,0E0,0E0,0E0],"parents":[2147483647,0,0,1,1,2,2,3,3,7,7,8,8],"right_children":[2,4,6,8,-1,-1,-1,10,12,-1,-1,-1,-1],"split_conditions":[3.16E2,3.2E1,2E1,1.2E1,-5.1061373E-2,-6.156027E-2,3.0368282E-2,1.6E1,2.6E1,4.726238E-3,-5.9965532E-2,1.3455087E-2,-1.775075E-2],"split_indices":[12,5,5,2,0,0,0,1,2,0,0,0,0],"split_type":[0,0,0,0,0,0,0,0,0,0,0,0,0],"sum_hessian":[1.086694E2,1.02311165E2,6.3582377E0,9.9601494E1,2.7096643E0,5.193582E0,1.1646553E0,1.1660569E1,8.7940926E1,7.441194E0,4.2193756E0,7.643508E1,1.1505847E1],"tree_param":{"num_deleted":"0","num_feature":"13","num_nodes":"13","size_leaf_vector":"1"}},{"base_weights":[-8.35312E-2,2.5674513E-1,-3.584628E-1,-6.0388763E-2,3.58162E-1,1.1218286E-1,-7.734291E-1,-5.7000875E-1,4.791462E-1,-3.3625787E-1,5.5208087E-1,-1.01728E0,5.674895E-1,3.1725854E-2,-6.990495E-2,2.867108E-2,-4.7117636E-2,-7.254513E-2,-2.3008834E-3,5.8278978E-2,1.1055507E-3,-6.0028046E-2,-3.5108891E-3,5.5144157E-2,-3.730708E-2],"categories":[],"categories_nodes":[],"categories_segments":[],"categories_sizes":[],"default_left":[0,0,0,0,0,0,0,0,0,0,0,0,0,0,0,0,0,0,0,0,0,0,0,0,0],"id":34,"left_children":[1,3,5,-1,7,9,11,13,15,17,19,21,23,-1,-1,-1,-1,-1,-1,-1,-1,-1,-1,-1,-1],"loss_changes":[9.801439E0,7.407937E0,1.137949E1,0E0,5.2919025E0,5.702559E0,1.0666479E1,6.4833846E0,5.911948E0,4.614588E0,4.6874895E0,4.509554E0,4.613503E0,0E0,0E0,0E0,0E0,0E0,0E0,0E0,0E0,0E0,0E0,0E0,0E0],"parents":[2147483647,0,0,1,1,2,2,4,4,5,5,6,6,7,7,8,8,9,9,10,10,11,11,12,12],"right_children":[2,4,6,-1,8,10,12,14,16,18,20,22,24,-1,-1,-1,-1,-1,-1,-1,-1,-1,-1,-1,-1],"split_conditions":[-3.546049E-1,1E1,1.6E1,-6.0388763E-2,1.1E1,2E2,3E1,9E0,2.7E1,1.2E1,2.22E2,3E1,1.64E2,3.1725854E-2,-6.990495E-2,2.867108E-2,-4.7117636E-2,-7.254513E-2,-2.3008834E-3,5.8278978E-2,1.1055507E-3,-6.0028046E-2,-3.5108891E-3,5.5144157E-2,-3.730708E-2],"split_indices":[11,5,4,0,4,12,3,3,5,3,12,4,12,0,0,0,0,0,0,0,0,0,0,0,0],"split_type":[0,0,0,0,0,0,0,0,0,0,0,0,0,0,0,0,0,0,0,0,0,0,0,0,0],"sum_hessian":[1.02785385E2,4.5963547E1,5.6821842E1,2.2702827E0,4.3693264E1,2.6966585E1,2.9855255E1,4.6105394E0,3.9082726E1,1.3470298E1,1.3496287E1,2.54656E1,4.3896556E0,1.973573E0,2.6369667E0,3.721143E1,1.871296E0,1.9567147E0,1.1513583E1,5.6993403E0,7.7969475E0,2.111218E1,4.3534193E0,3.2325888E0,1.1570671E0],"tree_param":{"num_deleted":"0","num_feature":"13","num_nodes":"25","size_leaf_vector":"1"}},{"base_weights":[8.2479715E-2,1.5906864E-1,-5.5891466E-1,9.541364E-2,1.0319302E0,2.875929E-2,-9.277598E-1,1.4693365E-1,-5.3221382E-2,6.097665E-3,6.118929E-2,-6.0742643E-2,1.1152768E-2,-1.8327365E-2,1.2187458E-2],"categories":[],"categories_nodes":[],"categories_segments":[],"categories_sizes":[],"default_left":[0,0,0,0,0,0,0,0,0,0,0,0,0,0,0],"id":35,"left_children":[1,3,5,7,9,-1,11,13,-1,-1,-1,-1,-1,-1,-1],"loss_changes":[5.6407237E0,5.5544024E0,5.6693373E0,5.888484E0,1.0402617E0,0E0,3.4582615E0,4.698988E0,0E0,0E0,0E0,0E0,0E0,0E0,0E0],"parents":[2147483647,0,0,1,1,2,2,3,3,4,4,6,6,7,7],"right_children":[2,4,6,8,10,-1,12,14,-1,-1,-1,-1,-1,-1,-1],"split_conditions":[2.6E1,2.475E1,1.3E1,2.2625E1,1.6E1,2.875929E-2,3.2E1,1.2E1,-5.3221382E-2,6.097665E-3,6.118929E-2,-6.0742643E-2,1.1152768E-2,-1.8327365E-2,1.2187458E-2],"split_indices":[2,8,7,9,4,0,3,2,0,0,0,0,0,0,0],"split_type":[0,0,0,0,0,0,0,0,0,0,0,0,0,0,0],"sum_hessian":[1.12017075E2,1.0073974E2,1.127734E1,9.492637E1,5.813366E0,2.6303358E0,8.647004E0,9.172526E1,3.20111E0,1.2970535E0,4.516312E0,6.8760066E0,1.770997E0,1.41090355E1,7.761623E1],"tree_param":{"num_deleted":"0","num_feature":"13","num_nodes":"15","size_leaf_vector":"1"}},{"base_weights":[1.074885E-2,2.6745293E-1,-1.9358541E-1,-5.884325E-2,3.6225802E-1,-4.0455392E-1,2.332076E-1,5.216829E-1,-5.827383E-1,3.7449986E-1,-5.6082314E-1,-8.4276587E-1,5.7970047E-1,3.0454649E-2,-4.4752564E-2,-5.716901E-2,1.6417686E-2,3.8390514E-2,-4.2660862E-2,-1.413395E-2,-5.7373263E-2,4.3274652E-2,-7.0776716E-2,4.2800155E-2,-2.6524618E-2],"categories":[],"categories_nodes":[],"categories_segments":[],"categories_sizes":[],"default_left":[0,0,0,0,0,0,0,0,0,0,0,0,0,0,0,0,0,0,0,0,0,0,0,0,0],"id":36,"left_children":[1,3,5,-1,7,9,11,13,15,17,19,21,23,-1,-1,-1,-1,-1,-1,-1,-1,-1,-1,-1,-1],"loss_changes":[5.7694893E0,7.0990877E0,5.6114397E0,0E0,7.3086834E0,5.2465553E0,8.281715E0,5.5371094E0,4.0449514E0,4.282254E0,5.363595E0,6.605871E0,5.4860578E0,0E0,0E0,0E0,0E0,0E0,0E0,0E0,0E0,0E0,0E0,0E0,0E0],"parents":[2147483647,0,0,1,1,2,2,4,4,5,5,6,6,7,7,8,8,9,9,10,10,11,11,12,12],"right_children":[2,4,6,-1,8,10,12,14,16,18,20,22,24,-1,-1,-1,-1,-1,-1,-1,-1,-1,-1,-1,-1],"split_conditions":[-3.546049E-1,1E1,8.85456E-1,-5.884325E-2,2.175E1,5.7E1,1.09E2,3.32E2,2.9E1,2.0875E1,2.1E1,1E1,9.9270886E-1,3.0454649E-2,-4.4752564E-2,-5.716901E-2,1.6417686E-2,3.8390514E-2,-4.2660862E-2,-1.413395E-2,-5.7373263E-2,4.3274652E-2,-7.0776716E-2,4.2800155E-2,-2.6524618E-2],"split_indices":[11,5,11,0,8,12,12,12,1,9,6,6,11,0,0,0,0,0,0,0,0,0,0,0,0],"split_type":[0,0,0,0,0,0,0,0,0,0,0,0,0,0,0,0,0,0,0,0,0,0,0,0,0],"sum_hessian":[1.0800552E2,4.773163E1,6.02739E1,2.2370806E0,4.549455E1,4.0370445E1,1.990345E1,3.931063E1,6.1839175E0,6.511578E0,3.3858868E1,4.4993196E0,1.5404131E1,3.756312E1,1.7475076E0,3.670385E0,2.5135326E0,5.215385E0,1.2961931E0,2.397397E1,9.884899E0,1.0014538E0,3.4978657E0,1.2517708E1,2.886423E0],"tree_param":{"num_deleted":"0","num_feature":"13","num_nodes":"25","size_leaf_vector":"1"}},{"base_weights":[2.6895562E-2,-5.5053604E-1,1.1562474E-1,-1.13678165E-1,-5.990233E-2,2.011129E-1,-5.088775E-1,-5.5791687E-2,4.989776E-1,2.4036215E-1,-4.6789702E-2,-8.575013E-1,1.9594051E-1,4.8317116E-2,-1.1771064E-2,1.3972697E-2,-4.9418297E-2,6.0001886E-3,-5.643167E-2,3.8749177E-2,-3.8788125E-2],"categories":[],"categories_nodes":[],"categories_segments":[],"categories_sizes":[],"default_left":[0,0,0,0,0,0,0,0,0,0,0,0,0,0,0,0,0,0,0,0,0],"id":37,"left_children":[1,3,5,7,-1,9,11,-1,13,15,-1,17,19,-1,-1,-1,-1,-1,-1,-1,-1],"loss_changes":[5.6052847E0,3.9880676E0,5.1517825E0,6.5805225E0,0E0,3.969197E0,3.0358994E0,0E0,2.5545263E0,4.210356E0,0E0,2.2543693E0,3.2324972E0,0E0,0E0,0E0,0E0,0E0,0E0,0E0,0E0],"parents":[2147483647,0,0,1,1,2,2,3,3,5,5,6,6,8,8,9,9,11,11,12,12],"right_children":[2,4,6,8,-1,10,12,-1,14,16,-1,18,20,-1,-1,-1,-1,-1,-1,-1,-1],"split_conditions":[1.2E1,1.6E1,2.6E1,1.4E1,-5.990233E-2,3.32E2,3.3E1,-5.5791687E-2,1.5E1,3.1E1,-4.6789702E-2,1E1,2.4E1,4.8317116E-2,-1.1771064E-2,1.3972697E-2,-4.9418297E-2,6.0001886E-3,-5.643167E-2,3.8749177E-2,-3.8788125E-2],"split_indices":[2,1,2,4,0,12,2,0,7,4,0,3,0,0,0,0,0,0,0,0,0],"split_type":[0,0,0,0,0,0,0,0,0,0,0,0,0,0,0,0,0,0,0,0,0],"sum_hessian":[1.07160934E2,1.3580048E1,9.358089E1,8.81104E0,4.769008E0,8.290938E1,1.0671507E1,3.031287E0,5.7797527E0,8.090489E1,2.0044847E0,6.9949627E0,3.6765437E0,3.3390098E0,2.440743E0,7.915903E1,1.7458661E0,1.6399375E0,5.3550253E0,2.4305902E0,1.2459536E0],"tree_param":{"num_deleted":"0","num_feature":"13","num_nodes":"21","size_leaf_vector":"1"}},{"base_weights":[3.675018E-3,8.770948E-2,-5.776123E-1,-6.9931406E-3,5.705389E-1,-6.229348E-2,5.7554764E-1,2.1985053E-1,-3.5059926E-1,3.5064563E-2,9.457848E-1,5.254239E-2,-1.4531246E-1,-5.777839E-2,1.603103E-2,-5.6067104E-3,-6.62389E-2,-3.367126E-2,3.972582E-2,6.398512E-2,-4.1984012E-3,-3.7698224E-2,2.5145456E-2],"categories":[],"categories_nodes":[],"categories_segments":[],"categories_sizes":[],"default_left":[0,0,0,0,0,0,0,0,0,0,0,0,0,0,0,0,0,0,0,0,0,0,0],"id":38,"left_children":[1,3,5,7,9,-1,11,13,15,17,19,-1,21,-1,-1,-1,-1,-1,-1,-1,-1,-1,-1],"loss_changes":[5.3434463E0,4.372319E0,1.1364819E1,6.379446E0,3.1170201E0,0E0,2.1239743E0,7.206028E0,7.41043E0,4.569558E0,3.263834E0,0E0,1.6277714E0,0E0,0E0,0E0,0E0,0E0,0E0,0E0,0E0,0E0,0E0],"parents":[2147483647,0,0,1,1,2,2,3,3,4,4,6,6,7,7,8,8,9,9,10,10,12,12],"right_children":[2,4,6,8,10,-1,12,14,16,18,20,-1,22,-1,-1,-1,-1,-1,-1,-1,-1,-1,-1],"split_conditions":[2.5E1,2.2E1,3.1E1,1.2053668E-1,3.546049E-1,-6.229348E-2,2.1E1,1E1,1.9E1,2.1E1,2.1E1,5.254239E-2,3.3E1,-5.777839E-2,1.603103E-2,-5.6067104E-3,-6.62389E-2,-3.367126E-2,3.972582E-2,6.398512E-2,-4.1984012E-3,-3.7698224E-2,2.5145456E-2],"split_indices":[5,5,1,11,11,0,4,5,5,3,3,0,0,0,0,0,0,0,0,0,0,0,0],"split_type":[0,0,0,0,0,0,0,0,0,0,0,0,0,0,0,0,0,0,0,0,0,0,0],"sum_hessian":[1.07351746E2,9.4534386E1,1.2817359E1,7.985673E1,1.4677659E1,8.063915E0,4.7534432E0,4.831804E1,3.1538687E1,6.4982004E0,8.179459E0,2.5887668E0,2.1646764E0,2.5838265E0,4.573421E1,2.6232462E1,5.3062253E0,3.420502E0,3.0776982E0,5.9932895E0,2.1861691E0,1.0322813E0,1.1323951E0],"tree_param":{"num_deleted":"0","num_feature":"13","num_nodes":"23","size_leaf_vector":"1"}},{"base_weights":[7.799698E-2,1.10091366E-1,-4.8917465E-2,1.5554921E-1,-6.8901885E-1,9.8007955E-2,7.7077436E-1,-5.542933E-2,2.8342709E-2,9.818534E-3,-2.1996925E-2,5.607679E-2,8.96621E-3],"categories":[],"categories_nodes":[],"categories_segments":[],"categories_sizes":[],"default_left":[0,0,0,0,0,0,0,0,0,0,0,0,0],"id":39,"left_children":[1,3,-1,5,7,9,11,-1,-1,-1,-1,-1,-1],"loss_changes":[3.7471673E0,3.9244153E0,0E0,3.4731493E0,3.7057257E0,4.997599E0,1.5473471E0,0E0,0E0,0E0,0E0,0E0,0E0],"parents":[2147483647,0,0,1,1,3,3,4,4,5,5,6,6],"right_children":[2,4,-1,6,8,10,12,-1,-1,-1,-1,-1,-1],"split_conditions":[3.3E1,3.23E2,-4.8917465E-2,2.8E1,2E1,2.175E1,2.3E1,-5.542933E-2,2.8342709E-2,9.818534E-3,-2.1996925E-2,5.607679E-2,8.96621E-3],"split_indices":[6,12,0,6,5,8,9,0,0,0,0,0,0],"split_type":[0,0,0,0,0,0,0,0,0,0,0,0,0],"sum_hessian":[1.0634986E2,1.04083336E2,2.2665257E0,9.924318E1,4.8401585E0,9.1815125E1,7.4280515E0,3.7159839E0,1.1241746E0,7.815885E1,1.365627E1,4.1001797E0,3.3278718E0],"tree_param":{"num_deleted":"0","num_feature":"13","num_nodes":"13","size_leaf_vector":"1"}},{"base_weights":[5.02717E-2,7.930123E-2,-4.7115233E-2,-7.1414024E-1,1.1755914E-1,1.4361273E-2,-6.0989827E-2,1.4627674E-1,-4.5362536E-2,4.2446195E-3,4.2871118E-2],"categories":[],"categories_nodes":[],"categories_segments":[],"categories_sizes":[],"default_left":[0,0,0,0,0,0,0,0,0,0,0],"id":40,"left_children":[1,3,-1,5,7,-1,-1,9,-1,-1,-1],"loss_changes":[3.2105923E0,3.3216953E0,0E0,2.9062564E0,3.1526308E0,0E0,0E0,4.3221054E0,0E0,0E0,0E0],"parents":[2147483647,0,0,1,1,3,3,4,4,7,7],"right_children":[2,4,-1,6,8,-1,-1,10,-1,-1,-1],"split_conditions":[3.3E1,9E0,-4.7115233E-2,1.2E1,3.2E1,1.4361273E-2,-6.0989827E-2,2.8E1,-4.5362536E-2,4.2446195E-3,4.2871118E-2],"split_indices":[6,5,0,8,7,0,0,6,0,0,0],"split_type":[0,0,0,0,0,0,0,0,0,0,0],"sum_hessian":[1.0783124E2,1.0566111E2,2.1701276E0,4.0477257E0,1.0161339E2,1.5030894E0,2.5446362E0,9.967745E1,1.9359347E0,9.278763E1,6.8898273E0],"tree_param":{"num_deleted":"0","num_feature":"13","num_nodes":"11","size_leaf_vector":"1"}},{"base_weights":[-1.6573563E-3,6.728373E-2,-8.71408E-1,7.5204957E-1,-3.903493E-3,2.8822318E-2,-6.174291E-2,1.0447025E0,-1.5166203E-2,-3.616427E-1,1.514234E-1,5.6904282E-2,1.2319235E-2,1.8244023E-3,-4.03943E-2,3.0201633E-2,-4.532994E-3],"categories":[],"categories_nodes":[],"categories_segments":[],"categories_sizes":[],"default_left":[0,0,0,0,0,0,0,0,0,0,0,0,0,0,0,0,0],"id":41,"left_children":[1,3,5,7,9,-1,-1,11,-1,13,15,-1,-1,-1,-1,-1,-1],"loss_changes":[6.2935534E0,4.7446837E0,4.7682233E0,3.1476603E0,5.0061927E0,0E0,0E0,2.7130032E-1,0E0,4.874702E0,6.939671E0,0E0,0E0,0E0,0E0,0E0,0E0],"parents":[2147483647,0,0,1,1,2,2,3,3,4,4,7,7,9,9,10,10],"right_children":[2,4,6,8,10,-1,-1,12,-1,14,16,-1,-1,-1,-1,-1,-1],"split_conditions":[9.7094184E-1,3.1E1,1.2375E1,1.9E1,1.3E2,2.8822318E-2,-6.174291E-2,2E1,-1.5166203E-2,1.5E1,1.85E2,5.6904282E-2,1.2319235E-2,1.8244023E-3,-4.03943E-2,3.0201633E-2,-4.532994E-3],"split_indices":[10,12,9,5,12,0,0,0,0,0,12,0,0,0,0,0,0],"split_type":[0,0,0,0,0,0,0,0,0,0,0,0,0,0,0,0,0],"sum_hessian":[1.0298199E2,9.627348E1,6.70851E0,8.165295E0,8.8108185E1,1.2285141E0,5.479996E0,6.400547E0,1.7647475E0,2.6271965E1,6.183622E1,5.349218E0,1.0513289E0,1.4369749E1,1.1902216E1,2.1027382E1,4.0808838E1],"tree_param":{"num_deleted":"0","num_feature":"13","num_nodes":"17","size_leaf_vector":"1"}},{"base_weights":[1.506704E-2,4.721681E-2,-4.713698E-2,1.5994848E-1,-2.5064617E-1,-5.675918E-2,2.0748395E-1,-6.617848E-1,4.905669E-1,2.4987124E-3,2.561195E-2,-7.875301E-3,-6.609091E-2,4.231554E-2,-4.8481423E-2],"categories":[],"categories_nodes":[],"categories_segments":[],"categories_sizes":[],"default_left":[0,0,0,0,0,0,0,0,0,0,0,0,0,0,0],"id":42,"left_children":[1,3,-1,5,7,-1,9,11,13,-1,-1,-1,-1,-1,-1],"loss_changes":[3.2811985E0,3.486897E0,0E0,4.857587E0,9.031887E0,0E0,3.4912045E0,6.0505705E0,6.4143476E0,0E0,0E0,0E0,0E0,0E0,0E0],"parents":[2147483647,0,0,1,1,3,3,4,4,6,6,7,7,8,8],"right_children":[2,4,-1,6,8,-1,10,12,14,-1,-1,-1,-1,-1,-1],"split_conditions":[3.2E1,2.44E2,-4.713698E-2,9E0,2.1E1,-5.675918E-2,2.2E1,1.6E1,2.1E1,2.4987124E-3,2.561195E-2,-7.875301E-3,-6.609091E-2,4.231554E-2,-4.8481423E-2],"split_indices":[7,12,0,4,7,0,3,3,3,0,0,0,0,0,0],"split_type":[0,0,0,0,0,0,0,0,0,0,0,0,0,0,0],"sum_hessian":[1.0411017E2,1.0164892E2,2.461248E0,7.407638E1,2.7572544E1,1.8125163E0,7.226386E1,1.7804075E1,9.768467E0,4.8408417E1,2.3855444E1,1.0795063E1,7.0090127E0,8.19287E0,1.5755968E0],"tree_param":{"num_deleted":"0","num_feature":"13","num_nodes":"15","size_leaf_vector":"1"}},{"base_weights":[-4.280624E-2,8.062599E-3,-5.416819E-2,9.3136385E-2,-5.750148E-1,1.3985226E-1,-5.0798852E-2,-1.0343676E0,4.0332076E-1,-5.7643615E-3,1.6600532E-2,5.508833E-4,-6.4445674E-2,-4.0197786E-2,5.137896E-2],"categories":[],"categories_nodes":[],"categories_segments":[],"categories_sizes":[],"default_left":[0,0,0,0,0,0,0,0,0,0,0,0,0,0,0],"id":43,"left_children":[1,3,-1,5,7,9,-1,11,13,-1,-1,-1,-1,-1,-1],"loss_changes":[5.388818E0,4.9096885E0,0E0,4.6131787E0,6.0815783E0,4.141057E0,0E0,2.371213E0,4.403449E0,0E0,0E0,0E0,0E0,0E0,0E0],"parents":[2147483647,0,0,1,1,3,3,4,4,5,5,7,7,8,8],"right_children":[2,4,-1,6,8,10,-1,12,14,-1,-1,-1,-1,-1,-1],"split_conditions":[3.23E2,2.6E1,-5.416819E-2,2.9E1,8.85456E-1,1.3E2,-5.0798852E-2,1.3E1,2.1E1,-5.7643615E-3,1.6600532E-2,5.508833E-4,-6.4445674E-2,-4.0197786E-2,5.137896E-2],"split_indices":[12,0,0,6,11,12,0,4,5,0,0,0,0,0,0],"split_type":[0,0,0,0,0,0,0,0,0,0,0,0,0,0,0],"sum_hessian":[1.00641495E2,9.6896835E1,3.7446609E0,8.529252E1,1.1604318E1,8.268378E1,2.6087358E0,7.857673E0,3.7466447E0,3.569266E1,4.699112E1,1.725989E0,6.1316843E0,1.1788895E0,2.5677552E0],"tree_param":{"num_deleted":"0","num_feature":"13","num_nodes":"15","size_leaf_vector":"1"}},{"base_weights":[-7.1986606E-3,2.0642142E-1,-2.3874557E-1,3.809781E-1,-4.4422218E-1,-7.821203E-1,3.162505E-1,-1.9678341E-1,5.613796E-1,-7.1335725E-2,6.0764027E-1,-1.2392272E0,-1.1166451E-1,-3.7329558E-1,5.892693E-1,3.212162E-2,-4.104035E-2,1.2879168E-2,5.6274023E-2,5.4034004E-3,5.0420422E-2,-7.188135E-2,2.0903004E-2,2.2304136E-2,-5.7119098E-2,2.579295E-2,-4.5000523E-2,3.5967674E-2,-3.8125064E-2],"categories":[],"categories_nodes":[],"categories_segments":[],"categories_sizes":[],"default_left":[0,0,0,0,0,0,0,0,0,0,0,0,0,0,0,0,0,0,0,0,0,0,0,0,0,0,0,0,0],"id":44,"left_children":[1,3,5,7,9,11,13,15,17,-1,19,21,23,25,27,-1,-1,-1,-1,-1,-1,-1,-1,-1,-1,-1,-1,-1,-1],"loss_changes":[5.166502E0,6.341662E0,1.5358551E1,4.632887E0,1.322473E1,7.709449E0,5.020792E0,6.3218E0,5.42097E0,0E0,1.1876721E0,5.5749073E0,7.109226E0,4.138451E0,3.8290348E0,0E0,0E0,0E0,0E0,0E0,0E0,0E0,0E0,0E0,0E0,0E0,0E0,0E0,0E0],"parents":[2147483647,0,0,1,1,2,2,3,3,4,4,5,5,6,6,7,7,8,8,10,10,11,11,12,12,13,13,14,14],"right_children":[2,4,6,8,10,12,14,16,18,-1,20,22,24,26,28,-1,-1,-1,-1,-1,-1,-1,-1,-1,-1,-1,-1,-1,-1],"split_conditions":[1.7E1,1.9E1,2.2E1,-6.6312265E-1,1.5E1,2.1E1,1.9E1,-9.7094184E-1,1.8E1,-7.1335725E-2,2.7E1,3.3E1,2.3E1,1.7E1,2.875E1,3.212162E-2,-4.104035E-2,1.2879168E-2,5.6274023E-2,5.4034004E-3,5.0420422E-2,-7.188135E-2,2.0903004E-2,2.2304136E-2,-5.7119098E-2,2.579295E-2,-4.5000523E-2,3.5967674E-2,-3.8125064E-2],"split_indices":[4,3,3,11,4,7,0,11,5,0,1,4,4,7,9,0,0,0,0,0,0,0,0,0,0,0,0,0,0],"split_type":[0,0,0,0,0,0,0,0,0,0,0,0,0,0,0,0,0,0,0,0,0,0,0,0,0,0,0,0,0],"sum_hessian":[1.0245537E2,5.334706E1,4.910831E1,4.238921E1,1.09578495E1,2.4607168E1,2.4501143E1,1.0064717E1,3.2324493E1,5.4814916E0,5.476358E0,1.4127151E1,1.0480018E1,6.845248E0,1.7655895E1,4.2796907E0,5.785026E0,2.195647E1,1.0368023E1,3.0028489E0,2.4735093E0,1.2735125E1,1.392026E0,7.1682873E0,3.31173E0,2.5541549E0,4.291093E0,1.6532751E1,1.1231437E0],"tree_param":{"num_deleted":"0","num_feature":"13","num_nodes":"29","size_leaf_vector":"1"}},{"base_weights":[2.772075E-2,-6.3376015E-1,1.168074E-1,2.421458E-1,-9.752224E-1,2.3945537E-1,-2.5522652E-1,-4.1224893E-2,5.191496E-2,2.412418E-2,-6.2164944E-2,2.8179342E-1,-4.3302E-2,-6.5682195E-2,1.12862796E-1,1.6192531E-2,-4.3852314E-2,2.8434975E-2,-1.1961154E-2],"categories":[],"categories_nodes":[],"categories_segments":[],"categories_sizes":[],"default_left":[0,0,0,0,0,0,0,0,0,0,0,0,0,0,0,0,0,0,0],"id":45,"left_children":[1,3,5,7,9,11,13,-1,-1,-1,-1,15,-1,-1,17,-1,-1,-1,-1],"loss_changes":[6.1957984E0,3.9705148E0,4.277154E0,4.51046E0,4.1882E0,3.520608E0,9.261804E0,0E0,0E0,0E0,0E0,3.606843E0,0E0,0E0,3.069437E0,0E0,0E0,0E0,0E0],"parents":[2147483647,0,0,1,1,2,2,3,3,4,4,5,5,6,6,11,11,14,14],"right_children":[2,4,6,8,10,12,14,-1,-1,-1,-1,16,-1,-1,18,-1,-1,-1,-1],"split_conditions":[1.2E1,1.2E1,2.2E1,1.1E1,-9.7094184E-1,3.32E2,1.8E1,-4.1224893E-2,5.191496E-2,2.412418E-2,-6.2164944E-2,3.1E1,-4.3302E-2,-6.5682195E-2,1.9E1,1.6192531E-2,-4.3852314E-2,2.8434975E-2,-1.1961154E-2],"split_indices":[2,6,0,6,11,12,6,0,0,0,0,7,0,0,1,0,0,0,0],"split_type":[0,0,0,0,0,0,0,0,0,0,0,0,0,0,0,0,0,0,0],"sum_hessian":[1.0288362E2,1.148582E1,9.13978E1,3.3032658E0,8.182554E0,6.900527E1,2.2392523E1,1.3965889E0,1.9066768E0,1.1468093E0,7.035745E0,6.717762E1,1.8276582E0,5.115219E0,1.7277304E1,6.552026E1,1.6573564E0,7.2611923E0,1.0016111E1],"tree_param":{"num_deleted":"0","num_feature":"13","num_nodes":"19","size_leaf_vector":"1"}},{"base_weights":[-1.2920171E-2,1.8510314E-2,-4.8100974E-2,-4.6500453E-1,8.709932E-2,4.795203E-4,-5.6570776E-2,-5.3179927E-2,1.2238484E-1,1.8737502E-2,-4.4789422E-2,1.8913547E-2,-1.3522858E-3],"categories":[],"categories_nodes":[],"categories_segments":[],"categories_sizes":[],"default_left":[0,0,0,0,0,0,0,0,0,0,0,0,0],"id":46,"left_children":[1,3,-1,5,7,9,-1,-1,11,-1,-1,-1,-1],"loss_changes":[3.1780488E0,3.473774E0,0E0,4.039036E0,3.8455772E0,3.2421782E0,0E0,0E0,3.4393492E0,0E0,0E0,0E0,0E0],"parents":[2147483647,0,0,1,1,3,3,4,4,5,5,8,8],"right_children":[2,4,-1,6,8,10,-1,-1,12,-1,-1,-1,-1],"split_conditions":[3.1E1,1.2E1,-4.8100974E-2,1.6E1,9E0,-3.2162452E-16,-5.6570776E-2,-5.3179927E-2,1.5E1,1.8737502E-2,-4.4789422E-2,1.8913547E-2,-1.3522858E-3],"split_indices":[7,2,0,1,5,10,0,0,3,0,0,0,0],"split_type":[0,0,0,0,0,0,0,0,0,0,0,0,0],"sum_hessian":[1.0493941E2,1.0252469E2,2.4147227E0,1.2018846E1,9.050584E1,7.664511E0,4.3543344E0,1.8256851E0,8.868015E1,5.817198E0,1.8473134E0,3.2129654E1,5.65505E1],"tree_param":{"num_deleted":"0","num_feature":"13","num_nodes":"13","size_leaf_vector":"1"}},{"base_weights":[1.3595394E-2,2.9160705E-1,-1.6112748E-1,5.356128E-1,-1.4860989E-1,-7.791383E-1,5.370431E-2,8.042091E-1,8.478808E-2,4.1680264E-1,-8.589427E-1,4.5604005E-1,-1.0233846E0,6.818092E-1,-9.5810555E-2,-5.230445E-3,4.540724E-2,-6.250461E-2,2.558741E-2,5.1066477E-2,-1.2051549E-2,-6.2330402E-2,2.6771132E-2,8.296767E-3,2.7991012E-2,-6.233684E-2,3.3060353E-2,-1.7531862E-2,5.8943074E-2,1.622963E-2,-2.9586388E-2],"categories":[],"categories_nodes":[],"categories_segments":[],"categories_sizes":[],"default_left":[0,0,0,0,0,0,0,0,0,0,0,0,0,0,0,0,0,0,0,0,0,0,0,0,0,0,0,0,0,0,0],"id":47,"left_children":[1,3,5,7,9,11,13,15,17,19,21,23,25,27,29,-1,-1,-1,-1,-1,-1,-1,-1,-1,-1,-1,-1,-1,-1,-1,-1],"loss_changes":[4.9519715E0,4.3038144E0,8.359999E0,3.0218844E0,6.305014E0,5.3617287E0,4.519163E0,1.594389E0,6.7069373E0,3.792614E0,4.3914294E0,8.581996E-3,6.037389E0,5.1561375E0,8.361395E0,0E0,0E0,0E0,0E0,0E0,0E0,0E0,0E0,0E0,0E0,0E0,0E0,0E0,0E0,0E0,0E0],"parents":[2147483647,0,0,1,1,2,2,3,3,4,4,5,5,6,6,7,7,8,8,9,9,10,10,11,11,12,12,13,13,14,14],"right_children":[2,4,6,8,10,12,14,16,18,20,22,24,26,28,30,-1,-1,-1,-1,-1,-1,-1,-1,-1,-1,-1,-1,-1,-1,-1,-1],"split_conditions":[1.5E1,1.6E1,1.7625E1,1.5E1,-2.3931566E-1,1.8E1,1.5E1,7.3E1,1.3625E1,-4.6472317E-1,3.2E1,1.7E1,2.3E1,2.3E1,2.1E1,-5.230445E-3,4.540724E-2,-6.250461E-2,2.558741E-2,5.1066477E-2,-1.2051549E-2,-6.2330402E-2,2.6771132E-2,8.296767E-3,2.7991012E-2,-6.233684E-2,3.3060353E-2,-1.7531862E-2,5.8943074E-2,1.622963E-2,-2.9586388E-2],"split_indices":[3,4,9,0,11,12,7,12,9,10,4,1,1,1,1,0,0,0,0,0,0,0,0,0,0,0,0,0,0,0,0],"split_type":[0,0,0,0,0,0,0,0,0,0,0,0,0,0,0,0,0,0,0,0,0,0,0,0,0,0,0,0,0,0,0],"sum_hessian":[9.997759E1,3.8325962E1,6.1651627E1,2.4518833E1,1.3807131E1,1.52254715E1,4.6426155E1,1.4873505E1,9.645328E0,7.917872E0,5.889259E0,2.3704958E0,1.2854976E1,8.241954E0,3.81842E1,1.5257553E0,1.334775E1,1.8702252E0,7.7751026E0,3.8381636E0,4.079708E0,4.691017E0,1.198242E0,1.3093318E0,1.061164E0,1.1579606E1,1.2753692E0,2.7741752E0,5.4677787E0,2.0852453E1,1.7331749E1],"tree_param":{"num_deleted":"0","num_feature":"13","num_nodes":"31","size_leaf_vector":"1"}},{"base_weights":[-5.5655424E-2,8.647738E-2,-4.7211E-1,-6.197953E-2,1.4116314E-1,5.821361E-1,-8.1703407E-1,2.225583E-1,-7.550916E-1,-2.8243256E-1,5.455054E-2,-1.0962198E0,6.04572E-1,3.975399E-2,5.2940473E-3,2.664472E-2,-5.782892E-2,1.9789118E-2,-3.6959704E-2,-7.114848E-2,-2.0566694E-2,4.9447484E-2,6.2340745E-3],"categories":[],"categories_nodes":[],"categories_segments":[],"categories_sizes":[],"default_left":[0,0,0,0,0,0,0,0,0,0,0,0,0,0,0,0,0,0,0,0,0,0,0],"id":48,"left_children":[1,3,5,-1,7,9,11,13,15,17,-1,19,21,-1,-1,-1,-1,-1,-1,-1,-1,-1,-1],"loss_changes":[6.015131E0,5.693124E0,9.870785E0,0E0,5.564834E0,3.3672652E0,8.554372E0,4.497754E0,3.9190006E0,1.3367153E0,0E0,3.2134838E0,5.976418E-1,0E0,0E0,0E0,0E0,0E0,0E0,0E0,0E0,0E0,0E0],"parents":[2147483647,0,0,1,1,2,2,4,4,5,5,6,6,7,7,8,8,9,9,11,11,12,12],"right_children":[2,4,6,-1,8,10,12,14,16,18,-1,20,22,-1,-1,-1,-1,-1,-1,-1,-1,-1,-1],"split_conditions":[2.44E2,9E0,1.325E1,-6.197953E-2,9.7094184E-1,1.5E1,2.6E1,1.1E1,1.2375E1,6E0,5.455054E-2,7.485108E-1,1.3E1,3.975399E-2,5.2940473E-3,2.664472E-2,-5.782892E-2,1.9789118E-2,-3.6959704E-2,-7.114848E-2,-2.0566694E-2,4.9447484E-2,6.2340745E-3],"split_indices":[12,4,8,0,10,2,1,7,9,3,0,10,7,0,0,0,0,0,0,0,0,0,0],"split_type":[0,0,0,0,0,0,0,0,0,0,0,0,0,0,0,0,0,0,0,0,0,0,0],"sum_hessian":[9.993118E1,7.509439E1,2.4836798E1,2.1160107E0,7.297838E1,5.953241E0,1.8883556E1,6.759159E1,5.386785E0,2.370608E0,3.5826325E0,1.5975126E1,2.9084296E0,1.04585285E1,5.7133064E1,1.2023371E0,4.1844482E0,1.0077581E0,1.36285E0,1.0085703E1,5.889424E0,1.0259184E0,1.8825111E0],"tree_param":{"num_deleted":"0","num_feature":"13","num_nodes":"23","size_leaf_vector":"1"}},{"base_weights":[-8.795003E-3,4.9628064E-2,-5.3925663E-2,8.200199E-2,-4.5774624E-2,9.087089E-3,6.3311815E-1,5.71021E-3,-4.7232877E-2,-4.2100817E-2,4.340314E-2],"categories":[],"categories_nodes":[],"categories_segments":[],"categories_sizes":[],"default_left":[0,0,0,0,0,0,0,0,0,0,0],"id":49,"left_children":[1,3,-1,5,-1,7,9,-1,-1,-1,-1],"loss_changes":[6.4763722E0,3.1497288E0,0E0,3.8571734E0,0E0,8.720968E0,4.6186953E0,0E0,0E0,0E0,0E0],"parents":[2147483647,0,0,1,1,3,3,5,5,6,6],"right_children":[2,4,-1,6,-1,8,10,-1,-1,-1,-1],"split_conditions":[3.16E2,3.2E1,-5.3925663E-2,2.9E1,-4.5774624E-2,2.4E1,1.6E1,5.71021E-3,-4.7232877E-2,-4.2100817E-2,4.340314E-2],"split_indices":[12,5,0,1,0,5,5,0,0,0,0],"split_type":[0,0,0,0,0,0,0,0,0,0,0],"sum_hessian":[1.0177179E2,9.7405556E1,4.366235E0,9.512957E1,2.2759845E0,8.491187E1,1.0217697E1,7.727523E1,7.6366434E0,1.0487943E0,9.168902E0],"tree_param":{"num_deleted":"0","num_feature":"13","num_nodes":"11","size_leaf_vector":"1"}},{"base_weights":[8.127168E-2,-4.1249853E-1,1.5139654E-1,1.7486654E-1,-8.4588426E-1,1.8644856E-1,-4.4716023E-2,6.9430494E-1,-4.520019E-2,-5.4776676E-2,-1.6289945E-1,2.1552004E-1,-4.1103747E-2,6.207404E-3,4.9345005E-2,2.7168293E-2,-3.913898E-2,3.354947E-2,6.524273E-3],"categories":[],"categories_nodes":[],"categories_segments":[],"categories_sizes":[],"default_left":[0,0,0,0,0,0,0,0,0,0,0,0,0,0,0,0,0,0,0],"id":50,"left_children":[1,3,5,7,9,11,-1,13,-1,-1,15,17,-1,-1,-1,-1,-1,-1,-1],"loss_changes":[3.6532695E0,3.4991264E0,3.522071E0,4.224455E0,1.1424074E0,2.798256E0,0E0,6.94576E-1,0E0,0E0,1.8474529E0,3.3085604E0,0E0,0E0,0E0,0E0,0E0,0E0,0E0],"parents":[2147483647,0,0,1,1,2,2,3,3,4,4,5,5,7,7,10,10,11,11],"right_children":[2,4,6,8,10,12,-1,14,-1,-1,16,18,-1,-1,-1,-1,-1,-1,-1],"split_conditions":[1.2E1,-5.6806475E-1,3.2E1,1.7E1,1.9E1,3.32E2,-4.4716023E-2,-8.2298386E-1,-4.520019E-2,-5.4776676E-2,1.4E1,1.325E1,-4.1103747E-2,6.207404E-3,4.9345005E-2,2.7168293E-2,-3.913898E-2,3.354947E-2,6.524273E-3],"split_indices":[2,10,5,5,0,12,0,10,0,0,8,8,0,0,0,0,0,0,0],"split_type":[0,0,0,0,0,0,0,0,0,0,0,0,0,0,0,0,0,0,0],"sum_hessian":[1.0270424E2,1.2164937E1,9.053931E1,5.418197E0,6.7467394E0,8.839794E1,2.1413603E0,3.8979313E0,1.5202659E0,4.498412E0,2.2483275E0,8.668547E1,1.7124753E0,1.8049903E0,2.092941E0,1.1086324E0,1.139695E0,1.2553671E1,7.41318E1],"tree_param":{"num_deleted":"0","num_feature":"13","num_nodes":"19","size_leaf_vector":"1"}},{"base_weights":[2.1300446E-2,-5.7564218E-2,6.751974E-2,1.7087428E-1,-2.8163514E-1,2.5095928E-1,-7.845292E-1,-6.0507637E-2,1.4834343E-2,1.5851486E-3,3.5554457E-2,-5.6494113E-2,1.6598698E-2,1.4121505E-2,-5.057594E-2],"categories":[],"categories_nodes":[],"categories_segments":[],"categories_sizes":[],"default_left":[0,0,0,0,0,0,0,0,0,0,0,0,0,0,0],"id":51,"left_children":[1,-1,3,5,7,9,11,-1,13,-1,-1,-1,-1,-1,-1],"loss_changes":[5.6318593E0,0E0,3.6402133E0,6.121128E0,6.3804183E0,7.2611327E0,2.7775428E0,0E0,5.3686113E0,0E0,0E0,0E0,0E0,0E0,0E0],"parents":[2147483647,0,0,2,2,3,3,4,4,5,5,6,6,8,8],"right_children":[2,-1,4,6,8,10,12,-1,14,-1,-1,-1,-1,-1,-1],"split_conditions":[9E0,-5.7564218E-2,2.125E1,2.4E1,1.52E2,1.9E1,2.075E1,-6.0507637E-2,2.32E2,1.5851486E-3,3.5554457E-2,-5.6494113E-2,1.6598698E-2,1.4121505E-2,-5.057594E-2],"split_indices":[5,0,8,5,12,0,8,0,12,0,0,0,0,0,0],"split_type":[0,0,0,0,0,0,0,0,0,0,0,0,0,0,0],"sum_hessian":[1.0148212E2,2.9417086E0,9.8540405E1,7.642745E1,2.211295E1,7.119684E1,5.230621E0,4.60587E0,1.750708E1,4.8943626E1,2.2253208E1,3.9857721E0,1.2448488E0,1.4461444E1,3.045636E0],"tree_param":{"num_deleted":"0","num_feature":"13","num_nodes":"15","size_leaf_vector":"1"}},{"base_weights":[-3.588547E-2,4.0760022E-1,-1.118388E-1,6.6029984E-1,-4.3924242E-2,-9.3947357E-1,-4.4096384E-2,-4.0279306E-2,8.830096E-1,1.5784854E-2,-6.327404E-2,1.3176566E-1,-2.4837825E-1,1.0237626E-2,5.9225816E-2,1.03880735E-2,-4.931555E-2,-6.5889634E-2,1.221139E-4],"categories":[],"categories_nodes":[],"categories_segments":[],"categories_sizes":[],"default_left":[0,0,0,0,0,0,0,0,0,0,0,0,0,0,0,0,0,0,0],"id":52,"left_children":[1,3,5,7,-1,9,11,-1,13,-1,-1,15,17,-1,-1,-1,-1,-1,-1],"loss_changes":[3.3859048E0,5.3625007E0,4.749422E0,4.912911E0,0E0,3.024795E0,2.9080007E0,0E0,2.1397753E0,0E0,0E0,3.9148674E0,1.0027588E1,0E0,0E0,0E0,0E0,0E0,0E0],"parents":[2147483647,0,0,1,1,2,2,3,3,5,5,6,6,8,8,11,11,12,12],"right_children":[2,4,6,8,-1,10,12,-1,14,-1,-1,16,18,-1,-1,-1,-1,-1,-1],"split_conditions":[4.3E1,2.1375E1,6.9E1,1.5E1,-4.3924242E-2,1.2E1,1.6E1,-4.0279306E-2,1.9E1,1.5784854E-2,-6.327404E-2,2.7E1,1.7E1,1.0237626E-2,5.9225816E-2,1.03880735E-2,-4.931555E-2,-6.5889634E-2,1.221139E-4],"split_indices":[12,9,12,12,0,4,3,0,3,0,0,6,8,0,0,0,0,0,0],"split_type":[0,0,0,0,0,0,0,0,0,0,0,0,0,0,0,0,0,0,0],"sum_hessian":[9.816571E1,1.37155E1,8.445021E1,1.1869812E1,1.8456877E0,5.4157405E0,7.903447E1,1.2203317E0,1.064948E1,1.1231377E0,4.292603E0,4.266233E1,3.637214E1,3.7939239E0,6.855556E0,4.070948E1,1.9528487E0,6.1018744E0,3.0270266E1],"tree_param":{"num_deleted":"0","num_feature":"13","num_nodes":"19","size_leaf_vector":"1"}},{"base_weights":[-1.9629821E-2,-2.8538764E-1,1.2674232E-1,3.3653596E-1,-6.0575914E-1,6.5075326E-1,-3.978164E-2,6.663854E-1,-4.8257865E-2,3.262161E-1,-1.0629449E0,-1.677001E-2,8.008282E-1,3.14329E-1,-4.1089582E-1,-4.1388627E-2,4.8803296E-2,3.7570737E-2,-5.2066088E-2,-1.6668795E-2,-7.7977784E-2,4.8900522E-2,-8.42728E-3,3.7602603E-2,1.580351E-3,-4.36665E-2,1.4762585E-3],"categories":[],"categories_nodes":[],"categories_segments":[],"categories_sizes":[],"default_left":[0,0,0,0,0,0,0,0,0,0,0,0,0,0,0,0,0,0,0,0,0,0,0,0,0,0,0],"id":53,"left_children":[1,3,5,7,9,11,13,15,-1,17,19,-1,21,23,25,-1,-1,-1,-1,-1,-1,-1,-1,-1,-1,-1,-1],"loss_changes":[3.875777E0,7.2499895E0,5.6403813E0,6.081578E0,1.044397E1,2.5734696E0,6.66945E0,5.7576137E0,0E0,5.7623796E0,5.325382E0,0E0,2.5371237E0,3.198044E0,5.0632577E0,0E0,0E0,0E0,0E0,0E0,0E0,0E0,0E0,0E0,0E0,0E0,0E0],"parents":[2147483647,0,0,1,1,2,2,3,3,4,4,5,5,6,6,7,7,9,9,10,10,12,12,13,13,14,14],"right_children":[2,4,6,8,10,12,14,16,-1,18,20,-1,22,24,26,-1,-1,-1,-1,-1,-1,-1,-1,-1,-1,-1,-1],"split_conditions":[1.3E2,4.3E1,1.64E2,2.125E1,1.25E1,1.2E1,1.7E1,1.5E1,-4.8257865E-2,1.3E1,1.4E1,-1.677001E-2,2.9E1,2.31E2,2.1E1,-4.1388627E-2,4.8803296E-2,3.7570737E-2,-5.2066088E-2,-1.6668795E-2,-7.7977784E-2,4.8900522E-2,-8.42728E-3,3.7602603E-2,1.580351E-3,-4.36665E-2,1.4762585E-3],"split_indices":[12,12,12,8,9,0,4,12,0,0,7,0,0,12,7,0,0,0,0,0,0,0,0,0,0,0,0],"split_type":[0,0,0,0,0,0,0,0,0,0,0,0,0,0,0,0,0,0,0,0,0,0,0,0,0,0,0],"sum_hessian":[9.7705696E1,3.436386E1,6.3341835E1,1.1666237E1,2.2697624E1,1.457378E1,4.8768055E1,9.697062E0,1.9691757E0,7.564278E0,1.5133347E1,1.7618234E0,1.2811957E1,2.5034033E1,2.3734022E1,1.3775615E0,8.3195E0,6.113871E0,1.4504068E0,6.8059916E0,8.327355E0,1.0824537E1,1.9874194E0,9.172582E0,1.586145E1,1.1098184E1,1.26358385E1],"tree_param":{"num_deleted":"0","num_feature":"13","num_nodes":"27","size_leaf_vector":"1"}},{"base_weights":[-1.1408311E-2,7.8254026E-1,-4.7775146E-2,4.6163853E-2,9.177552E-3,4.5749322E-1,-1.0763754E-1,7.4273026E-1,-4.4595815E-2,-6.607709E-1,-1.0152677E-2,3.1331137E-3,4.947735E-2,-6.828453E-2,-4.572577E-4,-6.1617084E-2,1.2813708E-3],"categories":[],"categories_nodes":[],"categories_segments":[],"categories_sizes":[],"default_left":[0,0,0,0,0,0,0,0,0,0,0,0,0,0,0,0,0],"id":54,"left_children":[1,3,5,-1,-1,7,9,11,-1,13,15,-1,-1,-1,-1,-1,-1],"loss_changes":[2.8640966E0,1.9685197E-1,2.9091992E0,0E0,0E0,4.590885E0,4.595458E0,1.4437971E0,0E0,5.85448E0,3.249058E0,0E0,0E0,0E0,0E0,0E0,0E0],"parents":[2147483647,0,0,1,1,2,2,5,5,6,6,7,7,9,9,10,10],"right_children":[2,4,6,-1,-1,8,10,12,-1,14,16,-1,-1,-1,-1,-1,-1],"split_conditions":[-9.9270886E-1,1.6E1,1.25E1,4.6163853E-2,9.177552E-3,1.5E1,1.3E1,1.15E1,-4.4595815E-2,1.5125E1,9E0,3.1331137E-3,4.947735E-2,-6.828453E-2,-4.572577E-4,-6.1617084E-2,1.2813708E-3],"split_indices":[11,7,9,0,0,0,5,9,0,9,3,0,0,0,0,0,0],"split_type":[0,0,0,0,0,0,0,0,0,0,0,0,0,0,0,0,0],"sum_hessian":[9.690018E1,3.3454506E0,9.3554726E1,2.2705722E0,1.0748787E0,9.206327E0,8.43484E1,7.97101E0,1.2353169E0,1.1772505E1,7.257589E1,2.456463E0,5.5145473E0,5.128618E0,6.643887E0,1.1130723E0,7.146282E1],"tree_param":{"num_deleted":"0","num_feature":"13","num_nodes":"17","size_leaf_vector":"1"}},{"base_weights":[-2.0616543E-2,-8.314198E-2,4.6175107E-1,1.0402584E-2,-7.675994E-1,-4.290464E-2,6.809119E-1,1.0291551E-1,-8.7126464E-1,-5.8202725E-2,2.4003312E-2,-8.835622E-3,8.5019016E-1,-7.7072467E-4,3.5301436E-2,-5.9128236E-2,3.0120417E-2,5.6149215E-2,-1.1132754E-3],"categories":[],"categories_nodes":[],"categories_segments":[],"categories_sizes":[],"default_left":[0,0,0,0,0,0,0,0,0,0,0,0,0,0,0,0,0,0,0],"id":55,"left_children":[1,3,5,7,9,-1,11,13,15,-1,-1,-1,17,-1,-1,-1,-1,-1,-1],"loss_changes":[3.063646E0,5.7476163E0,3.9577613E0,6.60282E0,5.896932E0,0E0,1.6832061E0,5.2322583E0,4.239638E0,0E0,0E0,0E0,2.1648064E0,0E0,0E0,0E0,0E0,0E0,0E0],"parents":[2147483647,0,0,1,1,2,2,3,3,4,4,6,6,7,7,8,8,12,12],"right_children":[2,4,6,8,10,-1,12,14,16,-1,-1,-1,18,-1,-1,-1,-1,-1,-1],"split_conditions":[2.9E1,2.4E1,1.6E1,2.175E1,2.5E1,-4.290464E-2,1.9E1,2.2E1,3.5E1,-5.8202725E-2,2.4003312E-2,-8.835622E-3,2.6E1,-7.7072467E-4,3.5301436E-2,-5.9128236E-2,3.0120417E-2,5.6149215E-2,-1.1132754E-3],"split_indices":[1,5,5,8,8,0,2,5,2,0,0,0,2,0,0,0,0,0,0],"split_type":[0,0,0,0,0,0,0,0,0,0,0,0,0,0,0,0,0,0,0],"sum_hessian":[9.9306046E1,8.864353E1,1.0662512E1,7.88517E1,9.791834E0,1.1032279E0,9.559284E0,7.216295E1,6.6887527E0,7.4815345E0,2.3102992E0,1.5685472E0,7.990737E0,6.114151E1,1.10214405E1,5.6853194E0,1.0034332E0,5.8686194E0,2.1221173E0],"tree_param":{"num_deleted":"0","num_feature":"13","num_nodes":"19","size_leaf_vector":"1"}},{"base_weights":[3.2959897E-2,1.251005E-1,-7.147755E-1,2.0866935E-1,-6.5728635E-1,-1.0291018E0,1.8244554E-1,3.314898E-1,-1.8485633E-1,-5.726823E-2,3.074202E-1,6.813814E-3,-6.1644446E-2,-3.2613304E-2,4.046325E-2,-5.0025523E-2,1.8974897E-2,-3.1828534E-2,2.4653142E-2,-2.2239762E-3,3.0126074E-2],"categories":[],"categories_nodes":[],"categories_segments":[],"categories_sizes":[],"default_left":[0,0,0,0,0,0,0,0,0,0,0,0,0,0,0,0,0,0,0,0,0],"id":56,"left_children":[1,3,5,7,9,11,13,15,17,-1,19,-1,-1,-1,-1,-1,-1,-1,-1,-1,-1],"loss_changes":[6.7483997E0,5.818901E0,3.2201328E0,3.892734E0,4.4142256E0,2.0948381E0,2.4318407E0,4.266E0,6.284662E0,0E0,4.09657E-1,0E0,0E0,0E0,0E0,0E0,0E0,0E0,0E0,0E0,0E0],"parents":[2147483647,0,0,1,1,2,2,3,3,4,4,5,5,6,6,7,7,8,8,10,10],"right_children":[2,4,6,8,10,12,14,16,18,-1,20,-1,-1,-1,-1,-1,-1,-1,-1,-1,-1],"split_conditions":[2.6E1,3.02E2,3E1,2.1E1,1.9E1,3.2E1,7.485108E-1,9E0,2.5E1,-5.726823E-2,2E1,6.813814E-3,-6.1644446E-2,-3.2613304E-2,4.046325E-2,-5.0025523E-2,1.8974897E-2,-3.1828534E-2,2.4653142E-2,-2.2239762E-3,3.0126074E-2],"split_indices":[0,12,5,4,7,12,11,4,3,0,5,0,0,0,0,0,0,0,0,0,0],"split_type":[0,0,0,0,0,0,0,0,0,0,0,0,0,0,0,0,0,0,0,0,0],"sum_hessian":[9.565155E1,8.589921E1,9.752339E0,7.827205E1,7.627158E0,7.1133184E0,2.6390207E0,5.9774048E1,1.8498003E1,4.9403815E0,2.6867764E0,1.1080569E0,6.0052614E0,1.1144086E0,1.524612E0,1.3892219E0,5.8384827E1,1.1137682E1,7.3603206E0,1.612815E0,1.0739614E0],"tree_param":{"num_deleted":"0","num_feature":"13","num_nodes":"21","size_leaf_vector":"1"}},{"base_weights":[1.71665E-2,8.447389E-2,-5.0532675E-1,1.4482237E-1,-4.3215686E-1,-5.8233917E-2,4.7417894E-2,3.9008334E-1,-1.11790664E-1,-5.8592975E-2,4.05409E-1,7.350247E-1,-6.184465E-1,2.5356127E-2,-2.2295784E-2,-1.6612086E-2,1.7481161E-2,-3.58157E-2,4.526897E-2,4.724114E-2,9.108877E-3,1.0352793E-2,-4.689696E-2],"categories":[],"categories_nodes":[],"categories_segments":[],"categories_sizes":[],"default_left":[0,0,0,0,0,0,0,0,0,0,0,0,0,0,0,0,0,0,0,0,0,0,0],"id":57,"left_children":[1,3,5,7,9,-1,11,13,15,-1,17,19,21,-1,-1,-1,-1,-1,-1,-1,-1,-1,-1],"loss_changes":[3.5808418E0,2.8680868E0,4.2918186E0,5.1617174E0,6.461631E0,0E0,3.7897308E0,4.3163247E0,4.2376175E0,0E0,3.6066647E0,2.965281E-1,1.3134595E0,0E0,0E0,0E0,0E0,0E0,0E0,0E0,0E0,0E0,0E0],"parents":[2147483647,0,0,1,1,2,2,3,3,4,4,6,6,7,7,8,8,10,10,11,11,12,12],"right_children":[2,4,6,8,10,-1,12,14,16,-1,18,20,22,-1,-1,-1,-1,-1,-1,-1,-1,-1,-1],"split_conditions":[2.6E1,2.5E1,2.2E1,6.4324905E-16,2.3E1,-5.8233917E-2,2.5E1,2.4E1,2E1,-5.8592975E-2,2.1E1,2.3E1,1.6E1,2.5356127E-2,-2.2295784E-2,-1.6612086E-2,1.7481161E-2,-3.58157E-2,4.526897E-2,4.724114E-2,9.108877E-3,1.0352793E-2,-4.689696E-2],"split_indices":[0,4,3,10,7,0,3,5,2,0,0,3,2,0,0,0,0,0,0,0,0,0,0],"split_type":[0,0,0,0,0,0,0,0,0,0,0,0,0,0,0,0,0,0,0,0,0,0,0],"sum_hessian":[9.96082E1,8.898368E1,1.0624521E1,8.032094E1,8.662742E0,4.340178E0,6.284343E0,4.080293E1,3.951801E1,4.3881702E0,4.2745714E0,3.0405967E0,3.2437463E0,3.6137154E1,4.6657767E0,2.6931038E1,1.2586972E1,1.1844505E0,3.0901208E0,1.6901826E0,1.3504142E0,1.0033141E0,2.240432E0],"tree_param":{"num_deleted":"0","num_feature":"13","num_nodes":"23","size_leaf_vector":"1"}},{"base_weights":[-1.6469471E-2,3.877303E-2,-5.179712E-2,1.5487255E-1,-2.3354623E-1,2.0987436E-1,-4.5289855E-2,-5.753434E-1,3.003451E-1,-7.358113E-3,1.8665858E-2,-7.288261E-2,-1.0434031E-2,4.2800944E-2,-8.2338005E-3],"categories":[],"categories_nodes":[],"categories_segments":[],"categories_sizes":[],"default_left":[0,0,0,0,0,0,0,0,0,0,0,0,0,0,0],"id":58,"left_children":[1,3,-1,5,7,9,-1,11,13,-1,-1,-1,-1,-1,-1],"loss_changes":[5.251377E0,2.8417578E0,0E0,3.85471E0,5.085798E0,3.587235E0,0E0,5.117034E0,3.026157E0,0E0,0E0,0E0,0E0,0E0,0E0],"parents":[2147483647,0,0,1,1,3,3,4,4,5,5,7,7,8,8],"right_children":[2,4,-1,6,8,10,-1,12,14,-1,-1,-1,-1,-1,-1],"split_conditions":[3.16E2,5.6806475E-1,-5.179712E-2,3E1,2E1,-6.6312265E-1,-4.5289855E-2,8.2298386E-1,2.2E1,-7.358113E-3,1.8665858E-2,-7.288261E-2,-1.0434031E-2,4.2800944E-2,-8.2338005E-3],"split_indices":[12,10,0,2,2,10,0,10,2,0,0,0,0,0,0],"split_type":[0,0,0,0,0,0,0,0,0,0,0,0,0,0,0],"sum_hessian":[9.153149E1,8.7739105E1,3.7923787E0,6.1815998E1,2.5923107E1,5.95311E1,2.2848992E0,1.575751E1,1.0165596E1,1.8725447E1,4.0805653E1,3.75245E0,1.200506E1,4.2483006E0,5.9172955E0],"tree_param":{"num_deleted":"0","num_feature":"13","num_nodes":"15","size_leaf_vector":"1"}},{"base_weights":[-3.3696424E-2,1.7659745E-1,-1.968853E-1,-5.3058207E-2,2.450761E-1,-8.310136E-1,-1.0178609E-1,3.572488E-1,-4.9979085E-1,-6.862869E-2,1.9742467E-1,1.17244974E-1,-5.281446E-1,7.2941235E-3,4.458404E-2,-4.92486E-2,1.1723754E-2,1.1705908E-3,1.4878524E-2,2.0973967E-2,-9.409821E-3,-6.144468E-2,-3.8100176E-3],"categories":[],"categories_nodes":[],"categories_segments":[],"categories_sizes":[],"default_left":[0,0,0,0,0,0,0,0,0,0,0,0,0,0,0,0,0,0,0,0,0,0,0],"id":59,"left_children":[1,3,5,-1,7,9,11,13,15,-1,17,19,21,-1,-1,-1,-1,-1,-1,-1,-1,-1,-1],"loss_changes":[3.3788567E0,3.91363E0,3.2527292E0,0E0,3.6591756E0,4.2128305E0,4.6623926E0,4.0255513E0,2.3218353E0,0E0,5.0812468E-2,3.1588094E0,5.258729E0,0E0,0E0,0E0,0E0,0E0,0E0,0E0,0E0,0E0,0E0],"parents":[2147483647,0,0,1,1,2,2,4,4,5,5,6,6,7,7,8,8,10,10,11,11,12,12],"right_children":[2,4,6,-1,8,10,12,14,16,-1,18,20,22,-1,-1,-1,-1,-1,-1,-1,-1,-1,-1],"split_conditions":[-3.546049E-1,9E0,1.1E1,-5.3058207E-2,2.175E1,8.85456E-1,2E1,1.925E1,2.9E1,-6.862869E-2,1.7E1,-1.2053668E-1,2.3931566E-1,7.2941235E-3,4.458404E-2,-4.92486E-2,1.1723754E-2,1.1705908E-3,1.4878524E-2,2.0973967E-2,-9.409821E-3,-6.144468E-2,-3.8100176E-3],"split_indices":[11,4,3,0,8,11,7,8,1,0,1,10,10,0,0,0,0,0,0,0,0,0,0],"split_type":[0,0,0,0,0,0,0,0,0,0,0,0,0,0,0,0,0,0,0,0,0,0,0],"sum_hessian":[9.644518E1,4.2104683E1,5.43405E1,1.4473498E0,4.0657333E1,6.0774236E0,4.8263077E1,3.578822E1,4.8691163E0,3.7618632E0,2.3155606E0,3.2362606E1,1.5900474E1,2.6557692E1,9.230526E0,2.726252E0,2.142864E0,1.2965168E0,1.0190438E0,1.6079037E1,1.6283567E1,5.5601764E0,1.0340297E1],"tree_param":{"num_deleted":"0","num_feature":"13","num_nodes":"23","size_leaf_vector":"1"}},{"base_weights":[4.064071E-2,-5.053909E-1,8.657866E-2,3.9834615E-2,-9.345811E-1,5.6544006E-1,1.3246991E-2,-6.7950845E-2,2.6673097E-2,8.157694E-1,-4.728645E-2,-5.5574287E-2,6.19859E-2,-7.779988E-3,5.054132E-2,5.7196203E-3,-3.995512E-2],"categories":[],"categories_nodes":[],"categories_segments":[],"categories_sizes":[],"default_left":[0,0,0,0,0,0,0,0,0,0,0,0,0,0,0,0,0],"id":60,"left_children":[1,3,5,-1,7,9,11,-1,-1,13,-1,-1,15,-1,-1,-1,-1],"loss_changes":[2.5459588E0,5.15238E0,3.253608E0,0E0,4.707937E0,5.4278116E0,4.5397835E0,0E0,0E0,2.2597651E0,0E0,0E0,3.6617455E0,0E0,0E0,0E0,0E0],"parents":[2147483647,0,0,1,1,2,2,4,4,5,5,6,6,9,9,12,12],"right_children":[2,4,6,-1,8,10,12,-1,-1,14,-1,-1,16,-1,-1,-1,-1],"split_conditions":[1E1,8E0,1.2E1,3.9834615E-2,2.8E1,1.8E1,1.3E1,-6.7950845E-2,2.6673097E-2,1E1,-4.728645E-2,-5.5574287E-2,9.9270886E-1,-7.779988E-3,5.054132E-2,5.7196203E-3,-3.995512E-2],"split_indices":[1,0,1,0,4,3,1,0,0,0,0,0,11,0,0,0,0],"split_type":[0,0,0,0,0,0,0,0,0,0,0,0,0,0,0,0,0],"sum_hessian":[9.875464E1,6.887403E0,9.186723E1,1.4951446E0,5.3922586E0,1.1308852E1,8.055838E1,4.24052E0,1.1517386E0,1.0096511E1,1.2123414E0,2.4402645E0,7.811812E1,1.722228E0,8.374283E0,7.445395E1,3.6641717E0],"tree_param":{"num_deleted":"0","num_feature":"13","num_nodes":"17","size_leaf_vector":"1"}},{"base_weights":[-1.4050005E-2,-3.608935E-1,9.59242E-2,4.0250203E-1,-5.882871E-1,1.350699E-1,-4.2108078E-2,-3.19358E-2,7.497282E-1,-7.042207E-2,-4.7335967E-2,1.7419957E-1,-4.181402E-2,-4.6584412E-4,5.131737E-2,1.7067512E-2,-3.2320347E-2,1.4619634E-2,-6.614999E-3],"categories":[],"categories_nodes":[],"categories_segments":[],"categories_sizes":[],"default_left":[0,0,0,0,0,0,0,0,0,0,0,0,0,0,0,0,0,0,0],"id":61,"left_children":[1,3,5,7,9,11,-1,-1,13,-1,15,17,-1,-1,-1,-1,-1,-1,-1],"loss_changes":[3.631011E0,4.213441E0,2.7715762E0,2.594349E0,7.944467E0,2.8191829E0,0E0,0E0,1.0274901E0,0E0,2.9951048E0,2.518116E0,0E0,0E0,0E0,0E0,0E0,0E0,0E0],"parents":[2147483647,0,0,1,1,2,2,3,3,4,4,5,5,8,8,10,10,11,11],"right_children":[2,4,6,8,10,12,-1,-1,14,-1,16,18,-1,-1,-1,-1,-1,-1,-1],"split_conditions":[1.4E1,1.2E1,3.2E1,9E0,1.425E1,3.2E1,-4.2108078E-2,-3.19358E-2,9E0,-7.042207E-2,1.6375E1,2.44E2,-4.181402E-2,-4.6584412E-4,5.131737E-2,1.7067512E-2,-3.2320347E-2,1.4619634E-2,-6.614999E-3],"split_indices":[5,8,7,2,9,5,0,0,3,0,9,12,0,0,0,0,0,0,0],"split_type":[0,0,0,0,0,0,0,0,0,0,0,0,0,0,0,0,0,0,0],"sum_hessian":[9.328503E1,2.1908144E1,7.1376884E1,4.851349E0,1.7056795E1,6.933941E1,2.0374725E0,1.0032995E0,3.8480496E0,6.1416283E0,1.0915167E1,6.744321E1,1.896205E0,1.2858866E0,2.5621629E0,6.8809223E0,4.0342445E0,4.87068E1,1.8736408E1],"tree_param":{"num_deleted":"0","num_feature":"13","num_nodes":"19","size_leaf_vector":"1"}},{"base_weights":[-4.669536E-2,-9.383772E-2,5.502546E-1,2.6586458E-2,-4.2462692E-1,4.8613388E-2,5.897754E-2,-6.161663E-2,7.820905E-1,-8.255506E-2,-6.255618E-2,-3.721113E-2,3.2557197E-2,8.46617E-3,-1.5574167E-2,-6.6101374E-3,5.594902E-2,-5.399486E-2,8.25258E-3],"categories":[],"categories_nodes":[],"categories_segments":[],"categories_sizes":[],"default_left":[0,0,0,0,0,0,0,0,0,0,0,0,0,0,0,0,0,0,0],"id":62,"left_children":[1,3,5,7,9,-1,11,13,15,17,-1,-1,-1,-1,-1,-1,-1,-1,-1],"loss_changes":[2.6868973E0,3.5025597E0,1.3938506E0,4.3925242E0,6.5265255E0,0E0,2.5292969E0,3.4748776E0,2.2696972E0,4.5384097E0,0E0,0E0,0E0,0E0,0E0,0E0,0E0,0E0,0E0],"parents":[2147483647,0,0,1,1,2,2,3,3,4,4,6,6,7,7,8,8,9,9],"right_children":[2,4,6,8,10,-1,12,14,16,18,-1,-1,-1,-1,-1,-1,-1,-1,-1],"split_conditions":[2.65E1,2E1,2.4E1,1.9E1,2.32E2,4.8613388E-2,3.2E1,1.5E1,1.6E1,1.6E1,-6.255618E-2,-3.721113E-2,3.2557197E-2,8.46617E-3,-1.5574167E-2,-6.6101374E-3,5.594902E-2,-5.399486E-2,8.25258E-3],"split_indices":[8,0,0,0,12,0,0,3,4,3,0,0,0,0,0,0,0,0,0],"split_type":[0,0,0,0,0,0,0,0,0,0,0,0,0,0,0,0,0,0,0],"sum_hessian":[9.2642845E1,8.664326E1,5.9995914E0,6.419325E1,2.245E1,2.7006428E0,3.2989485E0,5.830477E1,5.8884845E0,1.6656193E1,5.7938085E0,1.2910372E0,2.0079114E0,3.046747E1,2.7837301E1,1.7491113E0,4.1393733E0,2.6442E0,1.40119915E1],"tree_param":{"num_deleted":"0","num_feature":"13","num_nodes":"19","size_leaf_vector":"1"}},{"base_weights":[-8.042869E-2,-6.103187E-1,-1.2128276E-2,6.245604E-3,-6.459935E-2,1.8242703E-1,-2.84245E-1,-5.029408E-2,3.9596263E-1,5.4118335E-3,5.924612E-1,1.2276363E-1,-5.711636E-1,-4.8019238E-2,4.694858E-2,1.6402334E-2,-1.6765052E-2,3.772117E-2,-3.6061134E-2,-2.3721626E-2,3.0931244E-2,2.7968446E-2,-3.734434E-2],"categories":[],"categories_nodes":[],"categories_segments":[],"categories_sizes":[],"default_left":[0,0,0,0,0,0,0,0,0,0,0,0,0,0,0,0,0,0,0,0,0,0,0],"id":63,"left_children":[1,3,5,7,-1,9,11,-1,13,15,17,19,21,-1,-1,-1,-1,-1,-1,-1,-1,-1,-1],"loss_changes":[3.320282E0,4.4118805E0,4.417858E0,2.9609497E0,0E0,3.5312798E0,4.1307106E0,0E0,4.8850226E0,3.9598079E0,3.6663237E0,4.7946787E0,4.5045533E0,0E0,0E0,0E0,0E0,0E0,0E0,0E0,0E0,0E0,0E0],"parents":[2147483647,0,0,1,1,2,2,3,3,5,5,6,6,8,8,9,9,10,10,11,11,12,12],"right_children":[2,4,6,8,-1,10,12,-1,14,16,18,20,22,-1,-1,-1,-1,-1,-1,-1,-1,-1,-1],"split_conditions":[1.1E1,1.3E1,1.85E2,-4.6472317E-1,-6.459935E-2,1.43E2,1.6E1,-5.029408E-2,1.4E1,-2.3931566E-1,2.875E1,3.546049E-1,1E1,-4.8019238E-2,4.694858E-2,1.6402334E-2,-1.6765052E-2,3.772117E-2,-3.6061134E-2,-2.3721626E-2,3.0931244E-2,2.7968446E-2,-3.734434E-2],"split_indices":[3,6,12,10,0,12,6,0,7,11,9,10,0,0,0,0,0,0,0,0,0,0,0],"split_type":[0,0,0,0,0,0,0,0,0,0,0,0,0,0,0,0,0,0,0,0,0,0,0],"sum_hessian":[9.094603E1,9.477973E0,8.1468056E1,5.496901E0,3.9810722E0,4.769626E1,3.3771797E1,1.088617E0,4.408284E0,3.402191E1,1.3674346E1,1.4200209E1,1.9571589E1,1.0405431E0,3.367741E0,1.7493647E1,1.6528267E1,1.2552488E1,1.121858E0,6.461474E0,7.7387342E0,2.3391562E0,1.7232431E1],"tree_param":{"num_deleted":"0","num_feature":"13","num_nodes":"23","size_leaf_vector":"1"}},{"base_weights":[3.0514976E-2,-5.6832146E-2,7.369124E-2,1.034205E-1,-4.2193804E-2,-9.1588266E-2,2.2356813E-1,3.081297E-2,-1.5828392E-2,3.268489E-2,9.004894E-4],"categories":[],"categories_nodes":[],"categories_segments":[],"categories_sizes":[],"default_left":[0,0,0,0,0,0,0,0,0,0,0],"id":64,"left_children":[1,-1,3,5,-1,7,9,-1,-1,-1,-1],"loss_changes":[4.9655495E0,0E0,2.661193E0,2.1827297E0,0E0,5.9109106E0,5.0628557E0,0E0,0E0,0E0,0E0],"parents":[2147483647,0,0,2,2,3,3,5,5,6,6],"right_children":[2,-1,4,6,-1,8,10,-1,-1,-1,-1],"split_conditions":[9E0,-5.6832146E-2,3.2E1,1.35E2,-4.2193804E-2,1.2625E1,1.85E2,3.081297E-2,-1.5828392E-2,3.268489E-2,9.004894E-4],"split_indices":[4,0,5,12,0,9,12,0,0,0,0],"split_type":[0,0,0,0,0,0,0,0,0,0,0],"sum_hessian":[9.5873344E1,2.5166488E0,9.33567E1,9.12863E1,2.0703962E0,3.4891853E1,5.6394444E1,7.9957724E0,2.6896082E1,1.7530943E1,3.8863503E1],"tree_param":{"num_deleted":"0","num_feature":"13","num_nodes":"11","size_leaf_vector":"1"}},{"base_weights":[-2.3719788E-2,-4.116355E-1,4.8801806E-2,3.4520784E-1,-9.439053E-1,-6.071137E-1,1.10239275E-1,6.5132934E-1,-3.3691954E-2,-5.7472892E-2,-1.6922879E-1,-8.9648616E-1,2.711748E-2,2.6336914E-1,-2.4532208E-1,-4.1592526E-3,4.759753E-2,2.396801E-2,-3.652928E-2,1.48837855E-2,-6.0468536E-2,1.8218061E-2,-4.985035E-2,-4.488089E-2,1.2923758E-2],"categories":[],"categories_nodes":[],"categories_segments":[],"categories_sizes":[],"default_left":[0,0,0,0,0,0,0,0,0,0,0,0,0,0,0,0,0,0,0,0,0,0,0,0,0],"id":65,"left_children":[1,3,5,7,9,11,13,15,-1,-1,17,19,-1,21,23,-1,-1,-1,-1,-1,-1,-1,-1,-1,-1],"loss_changes":[2.601096E0,6.18983E0,3.2177722E0,2.5422325E0,1.2089796E0,2.7647257E0,4.003249E0,1.3363612E0,0E0,0E0,1.450096E0,2.5455446E0,0E0,6.8607078E0,7.558274E0,0E0,0E0,0E0,0E0,0E0,0E0,0E0,0E0,0E0,0E0],"parents":[2147483647,0,0,1,1,2,2,3,3,4,4,5,5,6,6,7,7,10,10,11,11,13,13,14,14],"right_children":[2,4,6,8,10,12,14,16,-1,-1,18,20,-1,22,24,-1,-1,-1,-1,-1,-1,-1,-1,-1,-1],"split_conditions":[1.3E1,-5.6806475E-1,1.1E1,1.9E1,