{"learner":{"attributes":{"scikit_learn":"{\"_estimator_type\": \"classifier\"}"},"feature_names":[],"feature_types":[],"gradient_booster":{"model":{"gbtree_model_param":{"num_parallel_tree":"1","num_trees":"400"},"iteration_indptr":[0,1,2,3,4,5,6,7,8,9,10,11,12,13,14,15,16,17,18,19,20,21,22,23,24,25,26,27,28,29,30,31,32,33,34,35,36,37,38,39,40,41,42,43,44,45,46,47,48,49,50,51,52,53,54,55,56,57,58,59,60,61,62,63,64,65,66,67,68,69,70,71,72,73,74,75,76,77,78,79,80,81,82,83,84,85,86,87,88,89,90,91,92,93,94,95,96,97,98,99,100,101,102,103,104,105,106,107,108,109,110,111,112,113,114,115,116,117,118,119,120,121,122,123,124,125,126,127,128,129,130,131,132,133,134,135,136,137,138,139,140,141,142,143,144,145,146,147,148,149,150,151,152,153,154,155,156,157,158,159,160,161,162,163,164,165,166,167,168,169,170,171,172,173,174,175,176,177,178,179,180,181,182,183,184,185,186,187,188,189,190,191,192,193,194,195,196,197,198,199,200,201,202,203,204,205,206,207,208,209,210,211,212,213,214,215,216,217,218,219,220,221,222,223,224,225,226,227,228,229,230,231,232,233,234,235,236,237,238,239,240,241,242,243,244,245,246,247,248,249,250,251,252,253,254,255,256,257,258,259,260,261,262,263,264,265,266,267,268,269,270,271,272,273,274,275,276,277,278,279,280,281,282,283,284,285,286,287,288,289,290,291,292,293,294,295,296,297,298,299,300,301,302,303,304,305,306,307,308,309,310,311,312,313,314,315,316,317,318,319,320,321,322,323,324,325,326,327,328,329,330,331,332,333,334,335,336,337,338,339,340,341,342,343,344,345,346,347,348,349,350,351,352,353,354,355,356,357,358,359,360,361,362,363,364,365,366,367,368,369,370,371,372,373,374,375,376,377,378,379,380,381,382,383,384,385,386,387,388,389,390,391,392,393,394,395,396,397,398,399,400],"tree_info":[0,0,0,0,0,0,0,0,0,0,0,0,0,0,0,0,0,0,0,0,0,0,0,0,0,0,0,0,0,0,0,0,0,0,0,0,0,0,0,0,0,0,0,0,0,0,0,0,0,0,0,0,0,0,0,0,0,0,0,0,0,0,0,0,0,0,0,0,0,0,0,0,0,0,0,0,0,0,0,0,0,0,0,0,0,0,0,0,0,0,0,0,0,0,0,0,0,0,0,0,0,0,0,0,0,0,0,0,0,0,0,0,0,0,0,0,0,0,0,0,0,0,0,0,0,0,0,0,0,0,0,0,0,0,0,0,0,0,0,0,0,0,0,0,0,0,0,0,0,0,0,0,0,0,0,0,0,0,0,0,0,0,0,0,0,0,0,0,0,0,0,0,0,0,0,0,0,0,0,0,0,0,0,0,0,0,0,0,0,0,0,0,0,0,0,0,0,0,0,0,0,0,0,0,0,0,0,0,0,0,0,0,0,0,0,0,0,0,0,0,0,0,0,0,0,0,0,0,0,0,0,0,0,0,0,0,0,0,0,0,0,0,0,0,0,0,0,0,0,0,0,0,0,0,0,0,0,0,0,0,0,0,0,0,0,0,0,0,0,0,0,0,0,0,0,0,0,0,0,0,0,0,0,0,0,0,0,0,0,0,0,0,0,0,0,0,0,0,0,0,0,0,0,0,0,0,0,0,0,0,0,0,0,0,0,0,0,0,0,0,0,0,0,0,0,0,0,0,0,0,0,0,0,0,0,0,0,0,0,0,0,0,0,0,0,0,0,0,0,0,0,0,0,0,0,0,0,0,0,0,0,0,0,0,0,0,0,0,0,0,0,0,0,0,0,0,0,0,0,0,0,0,0,0,0,0,0,0,0,0,0,0,0,0,0,0,0,0,0,0],"trees":[{"base_weights":[2.407367E-2,1.0569906E0,-3.874653E-1,7.531384E-2,1.238188E0,-1.0138246E-1,-1.5211726E0,5.6466877E-2,-6.363636E-2,8.526822E-2,4.5982146E-1,-1.3340883E0,1.6000003E-1,5.2331608E-2,-9.1836736E-2,-6.0000002E-2,4.5382585E-2,-1.1178247E-2,-8.571429E-2,5.074947E-2,-1.29712885E-2],"categories":[],"categories_nodes":[],"categories_segments":[],"categories_sizes":[],"default_left":[0,0,0,0,0,0,0,0,0,0,0,0,0,0,0,0,0,0,0,0,0],"id":0,"left_children":[1,3,5,7,9,11,13,-1,-1,-1,15,17,19,-1,-1,-1,-1,-1,-1,-1,-1],"loss_changes":[3.9563625E1,4.622429E0,2.1445736E1,8.819672E0,7.3304214E0,1.7693222E1,1.2738153E1,0E0,0E0,0E0,8.328457E0,3.6691227E0,1.6634394E1,0E0,0E0,0E0,0E0,0E0,0E0,0E0,0E0],"parents":[2147483647,0,0,1,1,2,2,3,3,4,4,5,5,6,6,10,10,11,11,12,12],"right_children":[2,4,6,8,10,12,14,-1,-1,-1,16,18,20,-1,-1,-1,-1,-1,-1,-1,-1],"split_conditions":[2E0,3.2E1,4E0,-9.350162E-1,2.02E2,7.4E1,2E0,5.6466877E-2,-6.363636E-2,8.526822E-2,2.34E2,2E0,1.12E2,5.2331608E-2,-9.1836736E-2,-6.0000002E-2,4.5382585E-2,-1.1178247E-2,-8.571429E-2,5.074947E-2,-1.29712885E-2],"split_indices":[9,12,1,10,12,12,8,0,0,0,12,8,12,0,0,0,0,0,0,0,0],"split_type":[0,0,0,0,0,0,0,0,0,0,0,0,0,0,0,0,0,0,0,0,0],"sum_hessian":[9.1108696E1,2.551087E1,6.5597824E1,4.195652E0,2.1315218E1,5.325E1,1.2347826E1,2.4456522E0,1.75E0,1.2576087E1,8.739131E0,8.597826E0,4.4652176E1,1.0978261E0,1.125E1,1.5E0,7.2391305E0,2.597826E0,6E0,1.4228261E1,3.0423914E1],"tree_param":{"num_deleted":"0","num_feature":"13","num_nodes":"21","size_leaf_vector":"1"}},{"base_weights":[-1.2376785E-2,9.852923E-1,-4.3144298E-1,1.1602328E0,-3.57534E-1,-8.757977E-1,6.87699E-2,6.359344E-1,1.3832812E0,5.0875712E-2,-6.3827954E-2,-1.5617812E0,-2.7259094E-1,4.1386914E-1,-7.993043E-2,5.760431E-2,-5.819692E-2,7.796315E-2,2.5963563E-2,-9.124956E-2,3.5004612E-2,3.093043E-2,-6.384982E-2,4.0453598E-2,-3.025055E-2],"categories":[],"categories_nodes":[],"categories_segments":[],"categories_sizes":[],"default_left":[0,0,0,0,0,0,0,0,0,0,0,0,0,0,0,0,0,0,0,0,0,0,0,0,0],"id":1,"left_children":[1,3,5,7,9,11,13,15,17,-1,-1,19,21,23,-1,-1,-1,-1,-1,-1,-1,-1,-1,-1,-1],"loss_changes":[3.7775723E1,6.6940937E0,1.4198162E1,1.9134827E0,6.158339E0,1.3542475E1,1.8412874E1,9.682864E0,1.6087132E0,0E0,0E0,1.0555084E1,1.79527E1,1.1101292E1,0E0,0E0,0E0,0E0,0E0,0E0,0E0,0E0,0E0,0E0,0E0],"parents":[2147483647,0,0,1,1,2,2,3,3,4,4,5,5,6,6,7,7,8,8,11,11,12,12,13,13],"right_children":[2,4,6,8,10,12,14,16,18,-1,-1,20,22,24,-1,-1,-1,-1,-1,-1,-1,-1,-1,-1,-1],"split_conditions":[2E0,3E0,3E0,-3.546049E-1,1.625E0,3E0,3.125E0,5.6806475E-1,3E0,5.0875712E-2,-6.3827954E-2,1E0,4E0,3E0,-7.993043E-2,5.760431E-2,-5.819692E-2,7.796315E-2,2.5963563E-2,-9.124956E-2,3.5004612E-2,3.093043E-2,-6.384982E-2,4.0453598E-2,-3.025055E-2],"split_indices":[9,1,7,10,9,4,9,11,2,0,0,10,4,1,0,0,0,0,0,0,0,0,0,0,0],"split_type":[0,0,0,0,0,0,0,0,0,0,0,0,0,0,0,0,0,0,0,0,0,0,0,0,0],"sum_hessian":[8.833646E1,2.5729998E1,6.2606457E1,2.2884617E1,2.8453808E0,3.2756756E1,2.98497E1,7.9793763E0,1.4905241E1,1.0969515E0,1.7484293E0,1.4583202E1,1.8173555E1,2.5353949E1,4.4957514E0,6.480782E0,1.4985946E0,1.1714539E1,3.190702E0,1.32360935E1,1.3471091E0,9.832963E0,8.340591E0,1.8416489E1,6.93746E0],"tree_param":{"num_deleted":"0","num_feature":"13","num_nodes":"25","size_leaf_vector":"1"}},{"base_weights":[3.280692E-2,9.661297E-1,-4.1746208E-1,1.2649429E0,2.822924E-1,-8.551616E-2,-1.2775131E0,3.0121866E-1,8.04634E-2,-6.100443E-2,7.3615956E-1,5.7116044E-1,-7.3688287E-1,4.4034876E-2,-8.755567E-2,4.858378E-2,-5.8586206E-2,5.440832E-2,-6.4245923E-3,-3.4027725E-2,4.3885358E-2,-1.1790699E-2,-8.4859125E-2,-5.711794E-2,3.919288E-2],"categories":[],"categories_nodes":[],"categories_segments":[],"categories_sizes":[],"default_left":[0,0,0,0,0,0,0,0,0,0,0,0,0,0,0,0,0,0,0,0,0,0,0,0,0],"id":2,"left_children":[1,3,5,7,9,11,13,15,-1,-1,17,19,21,23,-1,-1,-1,-1,-1,-1,-1,-1,-1,-1,-1],"loss_changes":[3.7912712E1,5.640007E0,1.727914E1,6.1973343E0,7.8614674E0,1.9676535E1,1.064806E1,7.588186E0,0E0,0E0,2.7166557E0,9.415239E0,1.06845255E1,5.6626306E0,0E0,0E0,0E0,0E0,0E0,0E0,0E0,0E0,0E0,0E0,0E0],"parents":[2147483647,0,0,1,1,2,2,3,3,4,4,5,5,6,6,7,7,10,10,11,11,12,12,13,13],"right_children":[2,4,6,8,10,12,14,16,-1,-1,18,20,22,24,-1,-1,-1,-1,-1,-1,-1,-1,-1,-1,-1],"split_conditions":[2E0,2.02E2,2.75E0,3.2E1,2.34E2,-2.3931566E-1,2E0,2E0,8.04634E-2,-6.100443E-2,2E0,8.8E1,1.62E2,1.43E2,-8.755567E-2,4.858378E-2,-5.8586206E-2,5.440832E-2,-6.4245923E-3,-3.4027725E-2,4.3885358E-2,-1.1790699E-2,-8.4859125E-2,-5.711794E-2,3.919288E-2],"split_indices":[9,12,9,12,12,11,5,5,0,0,8,12,12,12,0,0,0,0,0,0,0,0,0,0,0],"split_type":[0,0,0,0,0,0,0,0,0,0,0,0,0,0,0,0,0,0,0,0,0,0,0,0,0],"sum_hessian":[8.825573E1,2.8348648E1,5.9907078E1,1.9136772E1,9.211875E0,4.401749E1,1.5889589E1,5.530996E0,1.3605777E1,1.7455589E0,7.466316E0,2.198072E1,2.203677E1,4.4313207E0,1.1458268E1,4.034762E0,1.4962339E0,5.1224294E0,2.3438869E0,4.0841084E0,1.789661E1,1.5299368E1,6.7374015E0,1.4930079E0,2.938313E0],"tree_param":{"num_deleted":"0","num_feature":"13","num_nodes":"25","size_leaf_vector":"1"}},{"base_weights":[7.174455E-2,9.982972E-1,-3.1508934E-1,1.29382E0,3.1689808E-1,-2.0207819E-2,-1.0723872E0,3.6890915E-1,8.049315E-2,-3.1717134E-1,1.0692581E0,-1.0230763E0,2.9996014E-1,-8.371969E-2,-2.0561726E-1,4.6704277E-2,-5.3063013E-2,-6.824671E-2,3.1355802E-2,2.1234639E-2,6.295689E-2,-8.1674844E-2,3.012329E-3,3.815594E-2,-2.8410217E-2,2.5630957E-2,-6.7785636E-2],"categories":[],"categories_nodes":[],"categories_segments":[],"categories_sizes":[],"default_left":[0,0,0,0,0,0,0,0,0,0,0,0,0,0,0,0,0,0,0,0,0,0,0,0,0,0,0],"id":3,"left_children":[1,3,5,7,9,11,13,15,-1,17,19,21,23,-1,25,-1,-1,-1,-1,-1,-1,-1,-1,-1,-1,-1,-1],"loss_changes":[3.4671783E1,5.323532E0,1.5249401E1,5.116493E0,5.0798173E0,1.6437664E1,9.646114E0,6.0613375E0,0E0,6.9544964E0,4.949236E-2,8.287799E0,1.6056738E1,0E0,8.118874E0,0E0,0E0,0E0,0E0,0E0,0E0,0E0,0E0,0E0,0E0,0E0,0E0],"parents":[2147483647,0,0,1,1,2,2,3,3,4,4,5,5,6,6,7,7,9,9,10,10,11,11,12,12,14,14],"right_children":[2,4,6,8,10,12,14,16,-1,18,20,22,24,-1,26,-1,-1,-1,-1,-1,-1,-1,-1,-1,-1,-1,-1],"split_conditions":[2E0,2.02E2,2.75E0,3.2E1,2.51E2,7.5E1,1.71E2,2E0,8.049315E-2,9.350162E-1,2E0,5.6806475E-1,1.62E2,-8.371969E-2,1.83E2,4.6704277E-2,-5.3063013E-2,-6.824671E-2,3.1355802E-2,2.1234639E-2,6.295689E-2,-8.1674844E-2,3.012329E-3,3.815594E-2,-2.8410217E-2,2.5630957E-2,-6.7785636E-2],"split_indices":[9,12,9,12,12,12,12,5,0,11,6,10,12,0,12,0,0,0,0,0,0,0,0,0,0,0,0],"split_type":[0,0,0,0,0,0,0,0,0,0,0,0,0,0,0,0,0,0,0,0,0,0,0,0,0,0,0],"sum_hessian":[9.485693E1,2.7472803E1,6.7384125E1,1.8535282E1,8.937521E0,4.9238144E1,1.8145983E1,5.2724752E0,1.3262808E1,5.1639285E0,3.773593E0,1.1384092E1,3.7854053E1,1.0158637E1,7.987345E0,4.027681E0,1.2447942E0,2.2366834E0,2.927245E0,1.5951936E0,2.1783993E0,6.9564686E0,4.4276237E0,2.4763779E1,1.3090275E1,5.257998E0,2.7293472E0],"tree_param":{"num_deleted":"0","num_feature":"13","num_nodes":"27","size_leaf_vector":"1"}},{"base_weights":[2.1130873E-3,7.884097E-1,-3.095094E-1,1.0864526E0,2.0508686E-1,-1.3680878E0,-4.9660962E-2,-3.9954975E-2,7.3181145E-2,-5.726379E-2,6.061658E-1,-3.972681E-1,-8.096927E-2,1.5285872E-1,-7.57037E-2,3.2333434E-2,-5.5443186E-2,5.119831E-2,-1.3519471E-2,-6.0896404E-2,3.6589835E-2,2.749504E-2,-4.3166947E-2],"categories":[],"categories_nodes":[],"categories_segments":[],"categories_sizes":[],"default_left":[0,0,0,0,0,0,0,0,0,0,0,0,0,0,0,0,0,0,0,0,0,0,0],"id":4,"left_children":[1,3,5,7,9,11,13,15,-1,-1,17,19,-1,21,-1,-1,-1,-1,-1,-1,-1,-1,-1],"loss_changes":[2.3415468E1,4.4926167E0,1.8758911E1,7.5860233E0,6.3293433E0,2.638462E0,1.6837112E1,4.693557E0,0E0,0E0,3.4541686E0,4.682011E0,0E0,2.0687813E1,0E0,0E0,0E0,0E0,0E0,0E0,0E0,0E0,0E0],"parents":[2147483647,0,0,1,1,2,2,3,3,4,4,5,5,6,6,7,7,10,10,11,11,13,13],"right_children":[2,4,6,8,10,12,14,16,-1,-1,18,20,-1,22,-1,-1,-1,-1,-1,-1,-1,-1,-1],"split_conditions":[2E0,2.02E2,7.5E1,3.2E1,2.34E2,2E0,3.25E0,2E0,7.3181145E-2,-5.726379E-2,2E0,-2.3931566E-1,-8.096927E-2,1.83E2,-7.57037E-2,3.2333434E-2,-5.5443186E-2,5.119831E-2,-1.3519471E-2,-6.0896404E-2,3.6589835E-2,2.749504E-2,-4.3166947E-2],"split_indices":[9,12,12,12,12,8,9,5,0,0,8,11,0,12,0,0,0,0,0,0,0,0,0],"split_type":[0,0,0,0,0,0,0,0,0,0,0,0,0,0,0,0,0,0,0,0,0,0,0],"sum_hessian":[9.3566635E1,2.6122763E1,6.744387E1,1.671823E1,9.404533E0,1.24519205E1,5.4991955E1,4.418018E0,1.2300212E1,1.7287264E0,7.6758065E0,3.0911114E0,9.360808E0,4.9097656E1,5.894298E0,2.9305627E0,1.4874551E0,5.084273E0,2.5915337E0,1.7444522E0,1.3466593E0,3.5633884E1,1.3463773E1],"tree_param":{"num_deleted":"0","num_feature":"13","num_nodes":"23","size_leaf_vector":"1"}},{"base_weights":[-1.0714374E-1,8.123598E-1,-4.9121287E-1,1.1403404E0,1.9374883E-1,-8.8227195E-1,7.164261E-2,3.5346732E-1,7.293011E-2,-5.5699687E-2,5.8221954E-1,-1.2249406E-1,-1.263812E0,-1.0249413E0,9.145117E-1,5.1303662E-2,-5.3957343E-2,4.930681E-2,-1.3027969E-2,-6.9521844E-2,2.448349E-2,-2.9456785E-2,-8.396856E-2,-8.2904905E-2,2.868922E-2,5.80804E-2,-5.4021306E-2],"categories":[],"categories_nodes":[],"categories_segments":[],"categories_sizes":[],"default_left":[0,0,0,0,0,0,0,0,0,0,0,0,0,0,0,0,0,0,0,0,0,0,0,0,0,0,0],"id":5,"left_children":[1,3,5,7,9,11,13,15,-1,-1,17,19,21,23,25,-1,-1,-1,-1,-1,-1,-1,-1,-1,-1,-1,-1],"loss_changes":[3.1632519E1,5.142372E0,1.3931782E1,3.7594185E0,5.913593E0,1.0644178E1,2.5666307E1,7.1160784E0,0E0,0E0,3.2004924E0,1.120658E1,5.9334106E0,1.3198527E1,8.972507E0,0E0,0E0,0E0,0E0,0E0,0E0,0E0,0E0,0E0,0E0,0E0,0E0],"parents":[2147483647,0,0,1,1,2,2,3,3,4,4,5,5,6,6,7,7,10,10,11,11,12,12,13,13,14,14],"right_children":[2,4,6,8,10,12,14,16,-1,-1,18,20,22,24,26,-1,-1,-1,-1,-1,-1,-1,-1,-1,-1,-1,-1],"split_conditions":[2E0,2E2,5.6806475E-1,3.1E1,2.34E2,-7.485108E-1,3E0,2E0,7.293011E-2,-5.5699687E-2,2E0,2E0,2.5E0,6.6312265E-1,4E0,5.1303662E-2,-5.3957343E-2,4.930681E-2,-1.3027969E-2,-6.9521844E-2,2.448349E-2,-2.9456785E-2,-8.396856E-2,-8.2904905E-2,2.868922E-2,5.80804E-2,-5.4021306E-2],"split_indices":[9,12,10,12,12,10,3,5,0,0,8,0,8,11,0,0,0,0,0,0,0,0,0,0,0,0,0],"split_type":[0,0,0,0,0,0,0,0,0,0,0,0,0,0,0,0,0,0,0,0,0,0,0,0,0,0,0],"sum_hessian":[8.74418E1,2.5434261E1,6.200754E1,1.607048E1,9.36378E0,3.6252583E1,2.5754957E1,5.235875E0,1.0834606E1,1.7167835E0,7.646996E0,1.2560781E1,2.3691803E1,1.1098998E1,1.4655959E1,3.7561536E0,1.4797215E0,5.054457E0,2.5925386E0,3.675846E0,8.884934E0,9.952017E0,1.3739786E1,7.923751E0,3.1752467E0,1.3412399E1,1.24356E0],"tree_param":{"num_deleted":"0","num_feature":"13","num_nodes":"27","size_leaf_vector":"1"}},{"base_weights":[1.189183E-2,3.316309E-1,-6.6063315E-1,5.332424E-1,-6.552694E-1,4.4687125E-1,-9.056275E-1,7.18262E-1,-5.987314E-1,-1.2088677E0,8.477351E-1,1.1023972E0,-5.0125457E-2,-2.2597246E-1,-1.3906164E0,4.003728E-2,-5.379448E-2,4.3206043E-3,-6.702468E-2,-7.949805E-2,2.767528E-2,1.5517819E-2,5.465428E-2,2.1648664E-2,6.4631E-2,1.42906355E-2,-6.572808E-2,-8.074398E-2,-2.4156919E-2],"categories":[],"categories_nodes":[],"categories_segments":[],"categories_sizes":[],"default_left":[0,0,0,0,0,0,0,0,0,0,0,0,0,0,0,0,0,0,0,0,0,0,0,0,0,0,0,0,0],"id":6,"left_children":[1,3,5,7,9,11,13,15,17,19,21,23,-1,25,27,-1,-1,-1,-1,-1,-1,-1,-1,-1,-1,-1,-1,-1,-1],"loss_changes":[2.0307386E1,1.3080099E1,8.663256E0,1.1672739E1,1.0428994E1,6.9796963E0,8.010124E0,7.756834E0,4.2256327E0,6.704504E0,1.393764E-1,4.3121815E-2,0E0,6.8999066E0,2.1796036E0,0E0,0E0,0E0,0E0,0E0,0E0,0E0,0E0,0E0,0E0,0E0,0E0,0E0,0E0],"parents":[2147483647,0,0,1,1,2,2,3,3,4,4,5,5,6,6,7,7,8,8,9,9,10,10,11,11,13,13,14,14],"right_children":[2,4,6,8,10,12,14,16,18,20,22,24,-1,26,28,-1,-1,-1,-1,-1,-1,-1,-1,-1,-1,-1,-1,-1,-1],"split_conditions":[3E0,4E0,-8.85456E-1,4E0,1.79E2,2E0,-5.6806475E-1,6E0,1.12E2,9.7094184E-1,6E0,2E0,-5.0125457E-2,1.41E2,1.99E2,4.003728E-2,-5.379448E-2,4.3206043E-3,-6.702468E-2,-7.949805E-2,2.767528E-2,1.5517819E-2,5.465428E-2,2.1648664E-2,6.4631E-2,1.42906355E-2,-6.572808E-2,-8.074398E-2,-2.4156919E-2],"split_indices":[1,0,10,4,12,7,11,6,12,11,0,0,0,12,12,0,0,0,0,0,0,0,0,0,0,0,0,0,0],"split_type":[0,0,0,0,0,0,0,0,0,0,0,0,0,0,0,0,0,0,0,0,0,0,0,0,0,0,0,0,0],"sum_hessian":[9.241982E1,6.2982765E1,2.9437057E1,5.2680473E1,1.0302292E1,5.183026E0,2.425403E1,4.5593723E1,7.0867534E0,7.6721315E0,2.63016E0,3.7337332E0,1.4492924E0,1.0710482E1,1.354355E1,4.41191E1,1.4746228E0,4.143256E0,2.9434972E0,6.3885164E0,1.2836152E0,1.5343978E0,1.0957624E0,1.551145E0,2.182588E0,7.7869854E0,2.9234967E0,1.0234736E1,3.3088129E0],"tree_param":{"num_deleted":"0","num_feature":"13","num_nodes":"29","size_leaf_vector":"1"}},{"base_weights":[5.5625197E-2,5.1263833E-1,-3.1500852E-1,6.5688694E-1,-6.290164E-2,-1.0489261E0,1.8419717E-1,7.531955E-1,-5.2983087E-2,-4.5942012E-2,-8.008974E-2,-4.17155E-1,1.0250763E0,4.188626E-2,-4.791429E-2,-6.333377E-2,3.3209004E-2,1.38318455E-2,-5.6129504E-2,7.0037358E-3,6.901652E-2],"categories":[],"categories_nodes":[],"categories_segments":[],"categories_sizes":[],"default_left":[0,0,0,0,0,0,0,0,0,0,0,0,0,0,0,0,0,0,0,0,0],"id":7,"left_children":[1,3,5,7,-1,9,11,13,-1,15,-1,17,19,-1,-1,-1,-1,-1,-1,-1,-1],"loss_changes":[1.5580251E1,1.1335384E1,1.8835766E1,7.1963043E0,0E0,1.1431908E1,1.6171505E1,6.188961E0,0E0,8.125179E0,0E0,9.542945E0,3.9791555E0,0E0,0E0,0E0,0E0,0E0,0E0,0E0,0E0],"parents":[2147483647,0,0,1,1,2,2,3,3,5,5,6,6,7,7,9,9,11,11,12,12],"right_children":[2,4,6,8,-1,10,12,14,-1,16,-1,18,20,-1,-1,-1,-1,-1,-1,-1,-1],"split_conditions":[2.25E0,5E0,3E0,9.350162E-1,-6.290164E-2,-5.6806475E-1,6.6312265E-1,7E0,-5.2983087E-2,1.09E2,-8.008974E-2,2.75E0,3E0,4.188626E-2,-4.791429E-2,-6.333377E-2,3.3209004E-2,1.38318455E-2,-5.6129504E-2,7.0037358E-3,6.901652E-2],"split_indices":[8,6,3,10,0,10,10,5,0,12,0,8,7,0,0,0,0,0,0,0,0],"split_type":[0,0,0,0,0,0,0,0,0,0,0,0,0,0,0,0,0,0,0,0,0],"sum_hessian":[9.0028206E1,4.0144516E1,4.988369E1,3.7702114E1,2.4424024E0,1.9748634E1,3.0135054E1,3.623058E1,1.4715364E0,7.4025073E0,1.23461275E1,1.7863752E1,1.2271302E1,3.5011875E1,1.2187009E0,2.434222E0,4.9682856E0,9.312654E0,8.551098E0,3.9143224E0,8.35698E0],"tree_param":{"num_deleted":"0","num_feature":"13","num_nodes":"21","size_leaf_vector":"1"}},{"base_weights":[-5.63906E-3,1.9947216E-1,-1.2234495E0,7.0643467E-1,-1.0016428E-1,-7.604313E-2,3.0743007E-2,9.952195E-1,9.201455E-2,-1.1160356E0,1.3389187E-1,4.997027E-3,6.0323335E-2,-2.6510114E-2,4.871724E-2,-7.218899E-2,-1.1861174E-2,1.3905878E-2,-6.620081E-2],"categories":[],"categories_nodes":[],"categories_segments":[],"categories_sizes":[],"default_left":[0,0,0,0,0,0,0,0,0,0,0,0,0,0,0,0,0,0,0],"id":8,"left_children":[1,3,5,7,9,-1,-1,11,13,15,17,-1,-1,-1,-1,-1,-1,-1,-1],"loss_changes":[2.2961737E1,1.2025366E1,8.179506E0,5.1177635E0,1.2118604E1,0E0,0E0,3.6373672E0,6.275047E0,2.4033651E0,9.158626E0,0E0,0E0,0E0,0E0,0E0,0E0,0E0,0E0],"parents":[2147483647,0,0,1,1,2,2,3,3,4,4,7,7,8,8,9,9,10,10],"right_children":[2,4,6,8,10,-1,-1,12,14,16,18,-1,-1,-1,-1,-1,-1,-1,-1],"split_conditions":[4E0,2.125E0,8E0,2.02E2,7.4E1,-7.604313E-2,3.0743007E-2,3.2E1,2.51E2,4E0,2.19E2,4.997027E-3,6.0323335E-2,-2.6510114E-2,4.871724E-2,-7.218899E-2,-1.1861174E-2,1.3905878E-2,-6.620081E-2],"split_indices":[1,9,3,12,12,0,0,12,12,5,12,0,0,0,0,0,0,0,0],"split_type":[0,0,0,0,0,0,0,0,0,0,0,0,0,0,0,0,0,0,0],"sum_hessian":[8.994842E1,7.7698204E1,1.2250212E1,2.8359095E1,4.933911E1,1.0692927E1,1.5572839E0,1.8870132E1,9.488961E0,8.533409E0,4.0805702E1,3.8837306E0,1.4986402E1,5.7987723E0,3.6901891E0,5.74718E0,2.7862298E0,3.7868717E1,2.9369838E0],"tree_param":{"num_deleted":"0","num_feature":"13","num_nodes":"19","size_leaf_vector":"1"}},{"base_weights":[4.531087E-2,7.307189E-1,-2.933017E-1,8.3391935E-1,-4.8268404E-2,-4.950383E-2,-1.2462121E0,1.1567822E0,3.0918956E-1,7.5401984E-2,-6.285899E-2,-7.758372E-2,2.5912276E-2,1.464538E-2,6.7030475E-2,-5.329528E-2,2.9565508E-2,-3.52263E-2,1.4511998E-2],"categories":[],"categories_nodes":[],"categories_segments":[],"categories_sizes":[],"default_left":[0,0,0,0,0,0,0,0,0,0,0,0,0,0,0,0,0,0,0],"id":9,"left_children":[1,3,5,7,-1,9,11,13,15,17,-1,-1,-1,-1,-1,-1,-1,-1,-1],"loss_changes":[2.1184185E1,6.0847626E0,1.4153746E1,4.550297E0,0E0,7.6016726E0,7.5006065E0,2.3975086E0,5.4407454E0,7.9195414E0,0E0,0E0,0E0,0E0,0E0,0E0,0E0,0E0,0E0],"parents":[2147483647,0,0,1,1,2,2,3,3,5,5,6,6,7,7,8,8,9,9],"right_children":[2,4,6,8,-1,10,12,14,16,18,-1,-1,-1,-1,-1,-1,-1,-1,-1],"split_conditions":[2.125E0,9.9270886E-1,4E0,2E0,-4.8268404E-2,3.125E0,7E0,-6.6312265E-1,3.1E1,7.5E1,-6.285899E-2,-7.758372E-2,2.5912276E-2,1.464538E-2,6.7030475E-2,-5.329528E-2,2.9565508E-2,-3.52263E-2,1.4511998E-2],"split_indices":[9,11,4,5,0,9,0,10,12,12,0,0,0,0,0,0,0,0,0],"split_type":[0,0,0,0,0,0,0,0,0,0,0,0,0,0,0,0,0,0,0],"sum_hessian":[8.9353165E1,2.9163475E1,6.018969E1,2.7969936E1,1.1935375E0,4.8765263E1,1.1424424E1,1.657E1,1.1399938E1,4.5044075E1,3.7211905E0,9.841297E0,1.5831275E0,3.3623626E0,1.3207636E1,1.4677465E0,9.932192E0,9.235829E0,3.5808243E1],"tree_param":{"num_deleted":"0","num_feature":"13","num_nodes":"19","size_leaf_vector":"1"}},{"base_weights":[7.233494E-2,7.258725E-1,-2.5359315E-1,9.4595987E-1,1.6509502E-1,-1.2748574E-1,-6.585142E-2,2.1679866E-1,1.1702863E0,-5.5925917E-2,5.6999564E-1,-8.9126307E-1,1.02050915E-1,3.984272E-2,-5.193593E-2,6.2038627E-2,1.3899698E-2,4.4349473E-2,-8.175459E-3,-5.770511E-2,4.17923E-2,1.2043083E-2,-6.536738E-2],"categories":[],"categories_nodes":[],"categories_segments":[],"categories_sizes":[],"default_left":[0,0,0,0,0,0,0,0,0,0,0,0,0,0,0,0,0,0,0,0,0,0,0],"id":10,"left_children":[1,3,5,7,9,11,-1,13,15,-1,17,19,21,-1,-1,-1,-1,-1,-1,-1,-1,-1,-1],"loss_changes":[1.9812471E1,3.6602993E0,8.177142E0,3.3441143E0,5.7969646E0,1.0037803E1,0E0,5.4902935E0,6.9869995E-1,0E0,2.053749E0,6.963002E0,9.025435E0,0E0,0E0,0E0,0E0,0E0,0E0,0E0,0E0,0E0,0E0],"parents":[2147483647,0,0,1,1,2,2,3,3,4,4,5,5,7,7,8,8,10,10,11,11,12,12],"right_children":[2,4,6,8,10,12,-1,14,16,-1,18,20,22,-1,-1,-1,-1,-1,-1,-1,-1,-1,-1],"split_conditions":[2.125E0,2.02E2,3.25E0,3.2E1,2.34E2,7.5E1,-6.585142E-2,2E0,4E0,-5.5925917E-2,2E0,7E0,2.19E2,3.984272E-2,-5.193593E-2,6.2038627E-2,1.3899698E-2,4.4349473E-2,-8.175459E-3,-5.770511E-2,4.17923E-2,1.2043083E-2,-6.536738E-2],"split_indices":[9,12,9,12,12,12,0,5,3,0,8,3,12,0,0,0,0,0,0,0,0,0,0],"split_type":[0,0,0,0,0,0,0,0,0,0,0,0,0,0,0,0,0,0,0,0,0,0,0],"sum_hessian":[9.1149376E1,2.9922636E1,6.1226738E1,2.0995644E1,8.926993E0,5.5737045E1,5.4896927E0,5.402276E0,1.5593368E1,1.7180357E0,7.2089577E0,1.2213629E1,4.3523415E1,3.944988E0,1.4572881E0,1.4089806E1,1.5035613E0,4.887508E0,2.32145E0,1.0888362E1,1.3252667E0,4.037592E1,3.1474953E0],"tree_param":{"num_deleted":"0","num_feature":"13","num_nodes":"23","size_leaf_vector":"1"}},{"base_weights":[-6.3439146E-2,1.7471342E-1,-5.513101E-1,-2.5200766E-1,6.46881E-1,3.6139023E-1,-9.551925E-1,6.2308917E-3,-7.0631735E-2,8.174243E-1,-5.606085E-2,6.8188205E-2,-7.031595E-2,-1.1240559E0,4.1009523E-2,1.7641531E-2,-1.8486572E-2,4.8002783E-2,-4.9300347E-2,-7.690742E-2,-1.281746E-2],"categories":[],"categories_nodes":[],"categories_segments":[],"categories_sizes":[],"default_left":[0,0,0,0,0,0,0,0,0,0,0,0,0,0,0,0,0,0,0,0,0],"id":11,"left_children":[1,3,5,7,9,11,13,15,-1,17,-1,-1,-1,19,-1,-1,-1,-1,-1,-1,-1],"loss_changes":[1.0144249E1,1.2024774E1,1.0890829E1,9.493064E0,9.428339E0,1.875365E1,6.94985E0,3.6331685E0,0E0,7.7176323E0,0E0,0E0,0E0,6.354332E0,0E0,0E0,0E0,0E0,0E0,0E0,0E0],"parents":[2147483647,0,0,1,1,2,2,3,3,4,4,5,5,6,6,7,7,9,9,13,13],"right_children":[2,4,6,8,10,12,14,16,-1,18,-1,-1,-1,20,-1,-1,-1,-1,-1,-1,-1],"split_conditions":[3E0,3E0,2.25E0,4E0,4E0,2E0,8E0,1.2053668E-1,-7.0631735E-2,5E0,-5.606085E-2,6.8188205E-2,-7.031595E-2,4E0,4.1009523E-2,1.7641531E-2,-1.8486572E-2,4.8002783E-2,-4.9300347E-2,-7.690742E-2,-1.281746E-2],"split_indices":[1,7,8,2,0,7,3,11,0,6,0,0,0,0,0,0,0,0,0,0,0],"split_type":[0,0,0,0,0,0,0,0,0,0,0,0,0,0,0,0,0,0,0,0,0],"sum_hessian":[8.5480125E1,5.787199E1,2.7608131E1,3.0643883E1,2.722811E1,8.501502E0,1.9106628E1,2.5880192E1,4.7636895E0,2.532322E1,1.9048893E0,5.5709987E0,2.9305034E0,1.7782166E1,1.324463E0,1.3497954E1,1.2382238E1,2.3900599E1,1.4226211E0,1.1514488E1,6.267678E0],"tree_param":{"num_deleted":"0","num_feature":"13","num_nodes":"21","size_leaf_vector":"1"}},{"base_weights":[1.0565714E-2,6.8103665E-1,-2.5966895E-1,9.096272E-1,1.8708454E-1,-5.1258955E-2,-7.445567E-2,1.1178796E0,3.263861E-1,6.0485446E-1,-6.070083E-2,8.709153E-2,-6.2262904E-2,6.124523E-2,1.1125179E-2,3.4853708E-2,-9.091414E-3,-5.4072235E-3,4.307561E-2,-1.9827485E-2,2.7242973E-2],"categories":[],"categories_nodes":[],"categories_segments":[],"categories_sizes":[],"default_left":[0,0,0,0,0,0,0,0,0,0,0,0,0,0,0,0,0,0,0,0,0],"id":12,"left_children":[1,3,5,7,9,11,-1,13,15,17,-1,19,-1,-1,-1,-1,-1,-1,-1,-1,-1],"loss_changes":[1.5750555E1,2.6490498E0,1.5806465E1,1.6769133E0,6.094882E0,9.034975E0,0E0,8.7496376E-1,1.2260579E0,1.506279E0,0E0,1.1144404E1,0E0,0E0,0E0,0E0,0E0,0E0,0E0,0E0,0E0],"parents":[2147483647,0,0,1,1,2,2,3,3,4,4,5,5,7,7,8,8,9,9,11,11],"right_children":[2,4,6,8,10,12,-1,14,16,18,-1,20,-1,-1,-1,-1,-1,-1,-1,-1,-1],"split_conditions":[2E0,2E0,8.85456E-1,2.02E2,3.546049E-1,3.25E0,-7.445567E-2,2.25E0,-7.485108E-1,3.3E1,-6.070083E-2,3E0,-6.2262904E-2,6.124523E-2,1.1125179E-2,3.4853708E-2,-9.091414E-3,-5.4072235E-3,4.307561E-2,-1.9827485E-2,2.7242973E-2],"split_indices":[9,5,11,12,10,9,0,8,11,12,0,7,0,0,0,0,0,0,0,0,0],"split_type":[0,0,0,0,0,0,0,0,0,0,0,0,0,0,0,0,0,0,0,0,0],"sum_hessian":[8.4955E1,2.3968163E1,6.0986843E1,1.5810069E1,8.158093E0,5.3037804E1,7.9490404E0,1.0974749E1,4.8353195E0,6.72206E0,1.4360332E0,4.836118E1,4.676624E0,9.474253E0,1.5004966E0,2.5810816E0,2.2542381E0,1.932418E0,4.7896423E0,2.3581049E1,2.478013E1],"tree_param":{"num_deleted":"0","num_feature":"13","num_nodes":"21","size_leaf_vector":"1"}},{"base_weights":[2.2834612E-2,6.5801543E-1,-2.1113579E-1,-1.4747658E-1,8.462492E-1,-2.4179284E-2,-7.1463734E-2,4.4022742E-1,-5.0035E-2,1.2834543E0,9.312809E-2,1.0092328E-1,-6.0372867E-2,4.001562E-2,8.8252156E-4,6.7858204E-2,1.6428968E-2,2.1802764E-2,-4.9670346E-2,-1.743252E-2,2.4464125E-2],"categories":[],"categories_nodes":[],"categories_segments":[],"categories_sizes":[],"default_left":[0,0,0,0,0,0,0,0,0,0,0,0,0,0,0,0,0,0,0,0,0],"id":13,"left_children":[1,3,5,7,9,11,-1,13,-1,15,17,19,-1,-1,-1,-1,-1,-1,-1,-1,-1],"loss_changes":[1.2741823E1,3.6229115E0,1.4251898E1,3.0589874E0,6.0870495E0,8.323092E0,0E0,5.6204367E-1,0E0,3.8796425E-1,3.4146206E0,9.079809E0,0E0,0E0,0E0,0E0,0E0,0E0,0E0,0E0,0E0],"parents":[2147483647,0,0,1,1,2,2,3,3,4,4,5,5,7,7,9,9,10,10,11,11],"right_children":[2,4,6,8,10,12,-1,14,-1,16,18,20,-1,-1,-1,-1,-1,-1,-1,-1,-1],"split_conditions":[2E0,3.2E1,8.85456E-1,2E0,2.02E2,3.25E0,-7.1463734E-2,1.625E0,-5.0035E-2,3E0,3E0,3E0,-6.0372867E-2,4.001562E-2,8.8252156E-4,6.7858204E-2,1.6428968E-2,2.1802764E-2,-4.9670346E-2,-1.743252E-2,2.4464125E-2],"split_indices":[9,12,11,5,12,9,0,9,0,6,1,7,0,0,0,0,0,0,0,0,0],"split_type":[0,0,0,0,0,0,0,0,0,0,0,0,0,0,0,0,0,0,0,0,0],"sum_hessian":[8.380315E1,2.2071432E1,6.1731716E1,4.221835E0,1.7849596E1,5.440209E1,7.3296285E0,2.786514E0,1.4353211E0,1.0847929E1,7.001667E0,5.0027607E1,4.374481E0,1.0218734E0,1.7646407E0,9.679442E0,1.1684861E0,5.7770233E0,1.224644E0,2.3233831E1,2.6793776E1],"tree_param":{"num_deleted":"0","num_feature":"13","num_nodes":"21","size_leaf_vector":"1"}},{"base_weights":[4.4948913E-2,4.4846213E-1,-3.281412E-1,7.249296E-1,-1.6869691E-1,-7.8921145E-1,3.1208314E-2,1.0254887E0,-1.85755E-1,6.948134E-1,-7.8732914E-1,-2.4817474E-1,-7.20867E-2,2.567156E-1,-5.818485E-2,3.0734206E-2,6.3324235E-2,3.774173E-2,-6.334882E-2,6.8069072E-3,6.101467E-2,-7.370516E-2,2.3718474E-2,-5.916809E-2,8.7592555E-3,-3.8301393E-2,2.8475503E-2],"categories":[],"categories_nodes":[],"categories_segments":[],"categories_sizes":[],"default_left":[0,0,0,0,0,0,0,0,0,0,0,0,0,0,0,0,0,0,0,0,0,0,0,0,0,0,0],"id":14,"left_children":[1,3,5,7,9,11,13,15,17,19,21,23,-1,25,-1,-1,-1,-1,-1,-1,-1,-1,-1,-1,-1,-1,-1],"loss_changes":[1.3374117E1,7.3962383E0,7.6839533E0,8.300912E0,8.02598E0,6.804036E0,7.558484E0,1.4422989E0,9.294921E0,1.705349E0,8.173314E0,5.0765367E0,0E0,7.94892E0,0E0,0E0,0E0,0E0,0E0,0E0,0E0,0E0,0E0,0E0,0E0,0E0,0E0],"parents":[2147483647,0,0,1,1,2,2,3,3,4,4,5,5,6,6,7,7,8,8,9,9,10,10,11,11,13,13],"right_children":[2,4,6,8,10,12,14,16,18,20,22,24,-1,26,-1,-1,-1,-1,-1,-1,-1,-1,-1,-1,-1,-1,-1],"split_conditions":[2.375E0,2.02E2,3E0,2.25E0,-7.485108E-1,3E0,3.125E0,6.4E1,3.546049E-1,3E0,9.350162E-1,-4.6472317E-1,-7.20867E-2,2E0,-5.818485E-2,3.0734206E-2,6.3324235E-2,3.774173E-2,-6.334882E-2,6.8069072E-3,6.101467E-2,-7.370516E-2,2.3718474E-2,-5.916809E-2,8.7592555E-3,-3.8301393E-2,2.8475503E-2],"split_indices":[9,12,7,8,11,2,9,12,11,3,11,11,0,3,0,0,0,0,0,0,0,0,0,0,0,0,0],"split_type":[0,0,0,0,0,0,0,0,0,0,0,0,0,0,0,0,0,0,0,0,0,0,0,0,0,0,0],"sum_hessian":[8.685945E1,4.1631332E1,4.522812E1,2.8630957E1,1.3000374E1,1.9286274E1,2.5941843E1,2.1431664E1,7.199293E0,5.3748336E0,7.6255403E0,1.1298496E1,7.9877777E0,2.2483774E1,3.4580693E0,9.236915E0,1.2194749E1,4.0114613E0,3.1878319E0,3.215394E0,2.1594398E0,4.828772E0,2.7967684E0,2.9614935E0,8.337003E0,4.926529E0,1.7557245E1],"tree_param":{"num_deleted":"0","num_feature":"13","num_nodes":"27","size_leaf_vector":"1"}},{"base_weights":[-5.6804926E-4,1.0087015E-1,-6.0615566E-2,-2.0144923E-1,4.9477682E-1,4.6590373E-1,-5.812186E-1,8.253618E-1,-3.8249806E-1,-2.4576249E-2,3.45933E-2,-9.167013E-3,-7.336538E-2,4.7570817E-2,-4.8800826E-2,-4.9534608E-2,5.058217E-2],"categories":[],"categories_nodes":[],"categories_segments":[],"categories_sizes":[],"default_left":[0,0,0,0,0,0,0,0,0,0,0,0,0,0,0,0,0],"id":15,"left_children":[1,3,-1,5,7,9,11,13,15,-1,-1,-1,-1,-1,-1,-1,-1],"loss_changes":[1.0827947E1,9.780374E0,0E0,1.2107343E1,1.0636831E1,4.124652E0,1.0381717E1,6.869869E0,9.840563E0,0E0,0E0,0E0,0E0,0E0,0E0,0E0,0E0],"parents":[2147483647,0,0,1,1,3,3,4,4,5,5,6,6,7,7,8,8],"right_children":[2,4,-1,6,8,10,12,14,16,-1,-1,-1,-1,-1,-1,-1,-1],"split_conditions":[3.25E0,3E0,-6.0615566E-2,2E0,3E0,3.2E1,2E0,4E0,4E0,-2.4576249E-2,3.45933E-2,-9.167013E-3,-7.336538E-2,4.7570817E-2,-4.8800826E-2,-4.9534608E-2,5.058217E-2],"split_indices":[9,7,0,9,1,12,7,0,0,0,0,0,0,0,0,0,0],"split_type":[0,0,0,0,0,0,0,0,0,0,0,0,0,0,0,0,0],"sum_hessian":[8.6096634E1,8.029194E1,5.8046923E0,4.570353E1,3.458841E1,1.6493456E1,2.9210073E1,2.516472E1,9.423689E0,2.9249296E0,1.3568525E1,2.0991308E1,8.218765E0,2.3959925E1,1.2047964E0,6.7628045E0,2.6608841E0],"tree_param":{"num_deleted":"0","num_feature":"13","num_nodes":"17","size_leaf_vector":"1"}},{"base_weights":[4.1726056E-2,2.2535694E-1,-7.3155195E-1,-9.764874E-2,6.9559187E-1,-9.046905E-2,-6.65619E-2,4.340069E-1,-9.053306E-1,-2.3266332E-1,9.0014255E-1,4.6906877E-1,-5.2849233E-2,2.7694467E-2,-4.6654243E-2,-5.4214794E-2,3.267854E-2,2.312333E-2,-5.8267385E-2,5.2626222E-2,-1.0768591E-2,-5.094626E-2,6.449829E-2],"categories":[],"categories_nodes":[],"categories_segments":[],"categories_sizes":[],"default_left":[0,0,0,0,0,0,0,0,0,0,0,0,0,0,0,0,0,0,0,0,0,0,0],"id":16,"left_children":[1,3,5,7,9,11,-1,13,15,17,19,21,-1,-1,-1,-1,-1,-1,-1,-1,-1,-1,-1],"loss_changes":[1.1731772E1,1.0182341E1,5.9797564E0,1.7720516E1,5.3814077E0,5.223439E0,0E0,4.6157556E0,5.267914E0,4.2429643E0,4.0556946E0,8.923348E0,0E0,0E0,0E0,0E0,0E0,0E0,0E0,0E0,0E0,0E0,0E0],"parents":[2147483647,0,0,1,1,2,2,3,3,4,4,5,5,7,7,8,8,9,9,10,10,11,11],"right_children":[2,4,6,8,10,12,-1,14,16,18,20,22,-1,-1,-1,-1,-1,-1,-1,-1,-1,-1,-1],"split_conditions":[2.75E0,3E0,3E0,2.25E0,-6.6312265E-1,3.75E0,-6.65619E-2,5E0,1E0,4E0,4E0,3.25E0,-5.2849233E-2,2.7694467E-2,-4.6654243E-2,-5.4214794E-2,3.267854E-2,2.312333E-2,-5.8267385E-2,5.2626222E-2,-1.0768591E-2,-5.094626E-2,6.449829E-2],"split_indices":[9,7,5,8,10,8,0,6,10,7,4,8,0,0,0,0,0,0,0,0,0,0,0],"split_type":[0,0,0,0,0,0,0,0,0,0,0,0,0,0,0,0,0,0,0,0,0,0,0],"sum_hessian":[8.0458435E1,6.559105E1,1.4867385E1,3.9352234E1,2.623882E1,7.741907E0,7.125478E0,2.40102E1,1.5342034E1,4.713126E0,2.1525694E1,5.229254E0,2.512653E0,2.262134E1,1.3888602E0,1.4035211E1,1.3068234E0,2.9893317E0,1.7237945E0,1.8988314E1,2.5373797E0,1.7734275E0,3.4558263E0],"tree_param":{"num_deleted":"0","num_feature":"13","num_nodes":"23","size_leaf_vector":"1"}},{"base_weights":[4.9521055E-2,3.153799E-1,-4.9553582E-1,4.159055E-1,-5.769047E-2,1.9699411E-1,-1.07009E0,5.532009E-1,-3.6049044E-1,8.512649E-1,-6.359063E-1,-2.0468104E-1,-7.034482E-2,3.496961E-2,-1.3209032E-2,-4.512263E-2,3.5960913E-2,-4.8309206E-3,6.108537E-2,-5.742528E-2,1.985459E-2,1.3947004E-2,-5.217882E-2],"categories":[],"categories_nodes":[],"categories_segments":[],"categories_sizes":[],"default_left":[0,0,0,0,0,0,0,0,0,0,0,0,0,0,0,0,0,0,0,0,0,0,0],"id":17,"left_children":[1,3,5,7,-1,9,11,13,15,17,19,21,-1,-1,-1,-1,-1,-1,-1,-1,-1,-1,-1],"loss_changes":[1.2208597E1,8.826669E0,1.121537E1,5.9162455E0,0E0,7.835617E0,4.1632843E0,5.6775103E0,5.7190647E0,2.9005146E0,3.8773777E0,2.501643E0,0E0,0E0,0E0,0E0,0E0,0E0,0E0,0E0,0E0,0E0,0E0],"parents":[2147483647,0,0,1,1,2,2,3,3,5,5,6,6,7,7,8,8,9,9,10,10,11,11],"right_children":[2,4,6,8,-1,10,12,14,16,18,20,22,-1,-1,-1,-1,-1,-1,-1,-1,-1,-1,-1],"split_conditions":[3E0,6E0,-3.546049E-1,4E0,-5.769047E-2,4E0,2.25E0,2.19E2,1.77E2,3E0,5E0,2E0,-7.034482E-2,3.496961E-2,-1.3209032E-2,-4.512263E-2,3.5960913E-2,-4.8309206E-3,6.108537E-2,-5.742528E-2,1.985459E-2,1.3947004E-2,-5.217882E-2],"split_indices":[1,6,10,0,0,1,8,12,12,5,0,3,0,0,0,0,0,0,0,0,0,0,0],"split_type":[0,0,0,0,0,0,0,0,0,0,0,0,0,0,0,0,0,0,0,0,0,0,0],"sum_hessian":[8.217208E1,5.5515182E1,2.6656895E1,5.2630955E1,2.8842268E0,1.2385437E1,1.4271458E1,4.496667E1,7.6642866E0,6.9242005E0,5.461237E0,4.4486246E0,9.822833E0,3.826687E1,6.6998024E0,5.212188E0,2.4520988E0,2.1533692E0,4.770831E0,3.5752776E0,1.8859593E0,3.2452416E0,1.2033828E0],"tree_param":{"num_deleted":"0","num_feature":"13","num_nodes":"23","size_leaf_vector":"1"}},{"base_weights":[2.4469223E-4,1.4404404E-1,-7.880637E-1,3.1518131E-1,-5.570211E-1,1.4899397E-1,-7.338355E-2,4.1319463E-1,-5.7642084E-2,-4.589414E-2,-6.46966E-2,-5.243489E-2,8.750006E-1,2.4920497E-2,-5.3428113E-2,2.4297148E-2,-2.9092673E-2,1.3220637E-2,5.3735908E-2],"categories":[],"categories_nodes":[],"categories_segments":[],"categories_sizes":[],"default_left":[0,0,0,0,0,0,0,0,0,0,0,0,0,0,0,0,0,0,0],"id":18,"left_children":[1,3,5,7,9,11,-1,13,-1,15,-1,-1,17,-1,-1,-1,-1,-1,-1],"loss_changes":[9.479971E0,8.661077E0,8.434866E0,8.747876E0,5.3036494E0,6.4229646E0,0E0,7.4299936E0,0E0,2.9747005E0,0E0,0E0,2.630062E-1,0E0,0E0,0E0,0E0,0E0,0E0],"parents":[2147483647,0,0,1,1,2,2,3,3,4,4,5,5,7,7,9,9,12,12],"right_children":[2,4,6,8,10,12,-1,14,-1,16,-1,-1,18,-1,-1,-1,-1,-1,-1],"split_conditions":[8.85456E-1,4E0,2E0,5E0,-3.546049E-1,1.25E2,-7.338355E-2,9.9270886E-1,-5.7642084E-2,2E0,-6.46966E-2,-5.243489E-2,3E0,2.4920497E-2,-5.3428113E-2,2.4297148E-2,-2.9092673E-2,1.3220637E-2,5.3735908E-2],"split_indices":[10,4,2,6,10,12,0,11,0,0,0,0,3,0,0,0,0,0,0],"split_type":[0,0,0,0,0,0,0,0,0,0,0,0,0,0,0,0,0,0,0],"sum_hessian":[8.162703E1,6.972535E1,1.1901682E1,5.648677E1,1.3238582E1,5.3313966E0,6.5702853E0,5.3625004E1,2.8617637E0,8.444022E0,4.794559E0,1.8443317E0,3.487065E0,5.1336308E1,2.2886968E0,4.285151E0,4.158871E0,1.4322481E0,2.054817E0],"tree_param":{"num_deleted":"0","num_feature":"13","num_nodes":"19","size_leaf_vector":"1"}},{"base_weights":[-5.5432364E-2,4.6072155E-2,-5.842064E-2,-2.379996E-1,4.11475E-1,2.0093587E-1,-7.7293545E-1,6.9901216E-1,-3.378178E-1,1.9653374E-2,-4.0037062E-2,-6.834375E-2,-8.192784E-3,5.1007587E-2,-7.7872495E-3,-4.7673635E-2,5.642235E-2],"categories":[],"categories_nodes":[],"categories_segments":[],"categories_sizes":[],"default_left":[0,0,0,0,0,0,0,0,0,0,0,0,0,0,0,0,0],"id":19,"left_children":[1,3,-1,5,7,9,11,13,15,-1,-1,-1,-1,-1,-1,-1,-1],"loss_changes":[9.182489E0,7.884308E0,0E0,1.0213474E1,7.3839087E0,4.995872E0,6.8351154E0,6.829526E0,9.98995E0,0E0,0E0,0E0,0E0,0E0,0E0,0E0,0E0],"parents":[2147483647,0,0,1,1,3,3,4,4,5,5,6,6,7,7,8,8],"right_children":[2,4,-1,6,8,10,12,14,16,-1,-1,-1,-1,-1,-1,-1,-1],"split_conditions":[3.125E0,3E0,-5.842064E-2,2.25E0,3E0,3E0,3E0,3E0,4E0,1.9653374E-2,-4.0037062E-2,-6.834375E-2,-8.192784E-3,5.1007587E-2,-7.7872495E-3,-4.7673635E-2,5.642235E-2],"split_indices":[9,7,0,8,1,2,3,0,0,0,0,0,0,0,0,0,0],"split_type":[0,0,0,0,0,0,0,0,0,0,0,0,0,0,0,0,0],"sum_hessian":[7.980422E1,7.401281E1,5.7914104E0,4.183673E1,3.217608E1,2.3323378E1,1.8513355E1,2.3301395E1,8.874683E0,2.0079517E1,3.24386E0,8.743263E0,9.770092E0,1.6797089E1,6.504308E0,6.496614E0,2.3780699E0],"tree_param":{"num_deleted":"0","num_feature":"13","num_nodes":"17","size_leaf_vector":"1"}},{"base_weights":[-8.683195E-3,1.5669961E-1,-8.137363E-1,5.059517E-1,-1.5131848E-1,5.298006E-2,-6.692297E-2,6.488137E-1,-5.3314246E-2,-8.7866706E-1,2.7795988E-1,5.384918E-1,-4.8057478E-2,4.428656E-2,-4.1852156E-3,8.261295E-4,-6.687856E-2,2.8084949E-2,-6.2242724E-2,-1.0530532E-2,5.3176124E-2],"categories":[],"categories_nodes":[],"categories_segments":[],"categories_sizes":[],"default_left":[0,0,0,0,0,0,0,0,0,0,0,0,0,0,0,0,0,0,0,0,0],"id":20,"left_children":[1,3,5,7,9,11,-1,13,-1,15,17,19,-1,-1,-1,-1,-1,-1,-1,-1,-1],"loss_changes":[1.0951443E1,7.421859E0,6.445222E0,7.9307575E0,1.1813048E1,3.5936615E0,0E0,5.3092794E0,0E0,5.7700605E0,1.1095001E1,2.1377072E0,0E0,0E0,0E0,0E0,0E0,0E0,0E0,0E0,0E0],"parents":[2147483647,0,0,1,1,2,2,3,3,4,4,5,5,7,7,9,9,10,10,11,11],"right_children":[2,4,6,8,10,12,-1,14,-1,16,18,20,-1,-1,-1,-1,-1,-1,-1,-1,-1],"split_conditions":[4E0,2.25E0,2E0,5E0,3E0,1.12E2,-6.692297E-2,2.02E2,-5.3314246E-2,-5.6806475E-1,4.6472317E-1,7.3E1,-4.8057478E-2,4.428656E-2,-4.1852156E-3,8.261295E-4,-6.687856E-2,2.8084949E-2,-6.2242724E-2,-1.0530532E-2,5.3176124E-2],"split_indices":[4,8,8,6,3,12,0,12,0,10,11,12,0,0,0,0,0,0,0,0,0],"split_type":[0,0,0,0,0,0,0,0,0,0,0,0,0,0,0,0,0,0,0,0,0],"sum_hessian":[8.029617E1,6.728011E1,1.3016062E1,3.1228495E1,3.605162E1,5.247494E0,7.768567E0,2.9165672E1,2.062822E0,1.2991908E1,2.3059711E1,3.865776E0,1.3817185E0,2.187992E1,7.2857547E0,4.7296734E0,8.262235E0,1.9969946E1,3.0897653E0,1.8397379E0,2.0260382E0],"tree_param":{"num_deleted":"0","num_feature":"13","num_nodes":"21","size_leaf_vector":"1"}},{"base_weights":[4.929007E-3,1.6800001E-1,-6.863826E-1,-8.313275E-2,5.1525825E-1,-6.503089E-2,-1.610302E-1,1.7593881E-1,-8.9820707E-1,6.7079306E-1,-4.816288E-1,3.728009E-1,-4.9307317E-2,2.3317058E-2,-2.8728401E-2,1.6275799E-3,-7.025257E-2,1.2145322E-2,4.8135955E-2,3.8839016E-2,-5.4525178E-2,5.8119733E-2,-5.281178E-2],"categories":[],"categories_nodes":[],"categories_segments":[],"categories_sizes":[],"default_left":[0,0,0,0,0,0,0,0,0,0,0,0,0,0,0,0,0,0,0,0,0,0,0],"id":21,"left_children":[1,3,5,7,9,-1,11,13,15,17,19,21,-1,-1,-1,-1,-1,-1,-1,-1,-1,-1,-1],"loss_changes":[9.24558E0,5.827816E0,4.842198E0,8.468732E0,4.6611757E0,0E0,4.5870085E0,6.959122E0,4.6010537E0,2.8415213E0,4.186365E0,8.609365E0,0E0,0E0,0E0,0E0,0E0,0E0,0E0,0E0,0E0,0E0,0E0],"parents":[2147483647,0,0,1,1,2,2,3,3,4,4,6,6,7,7,8,8,9,9,10,10,11,11],"right_children":[2,4,6,8,10,-1,12,14,16,18,20,22,-1,-1,-1,-1,-1,-1,-1,-1,-1,-1,-1],"split_conditions":[2.75E0,3E0,1.49E2,2.02E2,8.85456E-1,-6.503089E-2,3.25E0,2.25E0,1.75E0,1.03E2,1.75E0,1.83E2,-4.9307317E-2,2.3317058E-2,-2.8728401E-2,1.6275799E-3,-7.025257E-2,1.2145322E-2,4.8135955E-2,3.8839016E-2,-5.4525178E-2,5.8119733E-2,-5.281178E-2],"split_indices":[9,3,12,12,11,0,9,8,8,12,9,12,0,0,0,0,0,0,0,0,0,0,0],"split_type":[0,0,0,0,0,0,0,0,0,0,0,0,0,0,0,0,0,0,0,0,0,0,0],"sum_hessian":[7.999027E1,6.53355E1,1.4654772E1,3.8356884E1,2.6978613E1,6.0755796E0,8.579192E0,2.9700666E1,8.6562195E0,2.3620451E1,3.3581629E0,5.541897E0,3.0372956E0,2.1687502E1,8.0131645E0,3.3817737E0,5.274446E0,1.0322486E1,1.3297964E1,1.0050937E0,2.353069E0,3.6897607E0,1.8521363E0],"tree_param":{"num_deleted":"0","num_feature":"13","num_nodes":"23","size_leaf_vector":"1"}},{"base_weights":[3.265629E-2,6.1876386E-1,-2.0984271E-1,8.7778527E-1,9.968911E-2,-1.0081944E0,-3.7046727E-2,1.8011907E-1,1.160082E0,-4.6590272E-1,8.218261E-1,-6.48114E-2,-8.715096E-2,2.125827E-1,-7.4919206E-1,-4.826605E-2,3.420222E-2,6.165722E-2,1.2057116E-2,-6.779776E-2,2.7378568E-2,4.8551835E-2,1.6297832E-2,-4.6394054E-2,4.802543E-2,2.015977E-2,-5.2692056E-2,1.1498572E-3,-6.950192E-2],"categories":[],"categories_nodes":[],"categories_segments":[],"categories_sizes":[],"default_left":[0,0,0,0,0,0,0,0,0,0,0,0,0,0,0,0,0,0,0,0,0,0,0,0,0,0,0,0,0],"id":22,"left_children":[1,3,5,7,9,11,13,15,17,19,21,-1,23,25,27,-1,-1,-1,-1,-1,-1,-1,-1,-1,-1,-1,-1,-1,-1],"loss_changes":[1.1959775E1,3.2216263E0,8.187457E0,2.999506E0,4.190021E0,2.691206E0,9.05689E0,4.0524364E0,4.689808E-1,6.033347E0,1.3168097E-2,0E0,4.0534534E0,9.559085E0,6.569846E0,0E0,0E0,0E0,0E0,0E0,0E0,0E0,0E0,0E0,0E0,0E0,0E0,0E0,0E0],"parents":[2147483647,0,0,1,1,2,2,3,3,4,4,5,5,6,6,7,7,8,8,9,9,10,10,12,12,13,13,14,14],"right_children":[2,4,6,8,10,12,14,16,18,20,22,-1,24,26,28,-1,-1,-1,-1,-1,-1,-1,-1,-1,-1,-1,-1,-1,-1],"split_conditions":[2E0,2.02E2,7.5E1,3.1E1,2.51E2,7.485108E-1,1.83E2,2E0,3E0,9.350162E-1,2E0,-6.48114E-2,4.6472317E-1,3.25E0,-2.3931566E-1,-4.826605E-2,3.420222E-2,6.165722E-2,1.2057116E-2,-6.779776E-2,2.7378568E-2,4.8551835E-2,1.6297832E-2,-4.6394054E-2,4.802543E-2,2.015977E-2,-5.2692056E-2,1.1498572E-3,-6.950192E-2],"split_indices":[9,12,12,12,12,10,12,6,6,11,1,0,11,9,11,0,0,0,0,0,0,0,0,0,0,0,0,0,0],"split_type":[0,0,0,0,0,0,0,0,0,0,0,0,0,0,0,0,0,0,0,0,0,0,0,0,0,0,0,0,0],"sum_hessian":[8.223289E1,2.3612085E1,5.8620804E1,1.5290817E1,8.321268E0,9.570162E0,4.905064E1,4.8766775E0,1.041414E1,4.865411E0,3.4558573E0,6.9799943E0,2.5901678E0,3.6838924E1,1.2211717E1,1.2102145E0,3.666463E0,9.330384E0,1.083755E0,2.410519E0,2.454892E0,1.9198964E0,1.535961E0,1.500428E0,1.0897399E0,3.261203E1,4.2268934E0,5.975563E0,6.2361536E0],"tree_param":{"num_deleted":"0","num_feature":"13","num_nodes":"29","size_leaf_vector":"1"}},{"base_weights":[-8.4980756E-2,4.7854388E-1,-3.6798537E-1,6.3558054E-1,-5.4966116E-1,-1.0001155E0,-2.0230815E-1,-5.5738512E-2,7.686145E-1,2.4691712E-2,-5.8041185E-2,-6.532874E-2,-8.152838E-2,4.300107E-1,-5.4210615E-1,3.8800687E-2,-5.5748332E-2,6.178985E-2,1.44575415E-2,-3.93719E-2,2.9655864E-2,3.3637285E-2,-4.685771E-2,5.066297E-3,-4.5010295E-2],"categories":[],"categories_nodes":[],"categories_segments":[],"categories_sizes":[],"default_left":[0,0,0,0,0,0,0,0,0,0,0,0,0,0,0,0,0,0,0,0,0,0,0,0,0],"id":23,"left_children":[1,3,5,7,9,11,13,15,17,-1,-1,-1,19,21,23,-1,-1,-1,-1,-1,-1,-1,-1,-1,-1],"loss_changes":[1.2415989E1,4.5624323E0,5.207582E0,2.167262E0,3.1199965E0,2.841897E0,9.296455E0,4.970896E0,3.9969883E0,0E0,0E0,0E0,2.2227657E0,5.7086635E0,6.515155E0,0E0,0E0,0E0,0E0,0E0,0E0,0E0,0E0,0E0,0E0],"parents":[2147483647,0,0,1,1,2,2,3,3,4,4,5,5,6,6,7,7,8,8,12,12,13,13,14,14],"right_children":[2,4,6,8,10,12,14,16,18,-1,-1,-1,20,22,24,-1,-1,-1,-1,-1,-1,-1,-1,-1,-1],"split_conditions":[2.125E0,3E0,7.5E1,3.2E1,-9.350162E-1,4E0,1.12E2,1.2053668E-1,1.91E2,2.4691712E-2,-5.8041185E-2,-6.532874E-2,6.6312265E-1,2.75E0,2E0,3.8800687E-2,-5.5748332E-2,6.178985E-2,1.44575415E-2,-3.93719E-2,2.9655864E-2,3.3637285E-2,-4.685771E-2,5.066297E-3,-4.5010295E-2],"split_indices":[9,1,12,12,10,6,12,11,12,0,0,0,11,9,2,0,0,0,0,0,0,0,0,0,0],"split_type":[0,0,0,0,0,0,0,0,0,0,0,0,0,0,0,0,0,0,0,0,0,0,0,0,0],"sum_hessian":[7.574872E1,2.5092691E1,5.0656025E1,2.2099337E1,2.9933536E0,9.473605E0,4.118242E1,3.6601532E0,1.8439184E1,1.1765295E0,1.816824E0,6.786962E0,2.686643E0,1.4302284E1,2.6880135E1,2.1999972E0,1.460156E0,8.540239E0,9.898945E0,1.2312001E0,1.4554429E0,1.257718E1,1.7251049E0,9.867427E0,1.7012709E1],"tree_param":{"num_deleted":"0","num_feature":"13","num_nodes":"25","size_leaf_vector":"1"}},{"base_weights":[2.3263367E-2,1.7754336E-1,-6.656696E-1,-5.1737875E-2,5.1159877E-1,-6.2060982E-2,-1.875874E-1,7.1528006E-1,-2.5039285E-1,7.7581537E-1,-3.6486843E-1,-5.4516185E-2,4.9044704E-1,-1.0544273E-2,5.2541096E-2,3.7991877E-3,-5.7610143E-2,-6.3634673E-3,4.9044356E-2,-6.616047E-2,3.3321466E-2,4.4553466E-2,-3.3560127E-2],"categories":[],"categories_nodes":[],"categories_segments":[],"categories_sizes":[],"default_left":[0,0,0,0,0,0,0,0,0,0,0,0,0,0,0,0,0,0,0,0,0,0,0],"id":24,"left_children":[1,3,5,7,9,-1,11,13,15,17,19,-1,21,-1,-1,-1,-1,-1,-1,-1,-1,-1,-1],"loss_changes":[8.852784E0,5.229539E0,3.9623737E0,6.4554963E0,6.7071238E0,0E0,6.3535147E0,2.9355416E0,9.9353075E0,4.1315384E0,7.9045877E0,0E0,3.445589E0,0E0,0E0,0E0,0E0,0E0,0E0,0E0,0E0,0E0,0E0],"parents":[2147483647,0,0,1,1,2,2,3,3,4,4,6,6,7,7,8,8,9,9,10,10,12,12],"right_children":[2,4,6,8,10,-1,12,14,16,18,20,-1,22,-1,-1,-1,-1,-1,-1,-1,-1,-1,-1],"split_conditions":[2.75E0,3E0,3.25E0,1.75E0,3E0,-6.2060982E-2,3E0,-3.546049E-1,2E0,-6.6312265E-1,2.625E0,-5.4516185E-2,3.25E0,-1.0544273E-2,5.2541096E-2,3.7991877E-3,-5.7610143E-2,-6.3634673E-3,4.9044356E-2,-6.616047E-2,3.3321466E-2,4.4553466E-2,-3.3560127E-2],"split_indices":[9,7,8,9,1,0,6,10,7,10,9,0,9,0,0,0,0,0,0,0,0,0,0],"split_type":[0,0,0,0,0,0,0,0,0,0,0,0,0,0,0,0,0,0,0,0,0,0,0],"sum_hessian":[8.1178154E1,6.6931725E1,1.424643E1,4.019128E1,2.674044E1,5.73998E0,8.506451E0,7.7330256E0,3.2458256E1,2.063479E1,6.1056495E0,3.3878264E0,5.1186237E0,2.1553411E0,5.5776844E0,2.450524E1,7.953017E0,3.8888144E0,1.6745977E1,3.0180511E0,3.0875986E0,3.9792225E0,1.1394012E0],"tree_param":{"num_deleted":"0","num_feature":"13","num_nodes":"23","size_leaf_vector":"1"}},{"base_weights":[8.402079E-2,5.788376E-1,-1.5624863E-1,7.4847186E-1,-2.495587E-1,1.6683877E-3,-7.5433636E-1,8.9021844E-1,1.3431755E-1,-5.165E-2,2.2460109E-2,-3.5249254E-1,2.4798386E-1,-1.0088395E0,2.1442136E-2,5.0213326E-2,8.080264E-3,-2.2204965E-2,3.579397E-2,-2.801475E-2,3.163704E-2,1.9638358E-2,-5.437107E-2,-6.447685E-2,-1.1813122E-2],"categories":[],"categories_nodes":[],"categories_segments":[],"categories_sizes":[],"default_left":[0,0,0,0,0,0,0,0,0,0,0,0,0,0,0,0,0,0,0,0,0,0,0,0,0],"id":25,"left_children":[1,3,5,7,9,11,13,15,17,-1,-1,19,21,23,-1,-1,-1,-1,-1,-1,-1,-1,-1,-1,-1],"loss_changes":[9.714502E0,3.9348116E0,5.222171E0,1.8294334E0,3.356311E0,3.989374E0,3.9102654E0,1.3344812E0,2.126315E0,0E0,0E0,4.19551E0,5.6412673E0,1.8211594E0,0E0,0E0,0E0,0E0,0E0,0E0,0E0,0E0,0E0,0E0,0E0],"parents":[2147483647,0,0,1,1,2,2,3,3,4,4,5,5,6,6,7,7,8,8,11,11,12,12,13,13],"right_children":[2,4,6,8,10,12,14,16,18,-1,-1,20,22,24,-1,-1,-1,-1,-1,-1,-1,-1,-1,-1,-1],"split_conditions":[2.125E0,3E0,4E0,3E0,2E0,2E0,7E0,3E0,3E0,-5.165E-2,2.2460109E-2,6E0,5E0,5.6806475E-1,2.1442136E-2,5.0213326E-2,8.080264E-3,-2.2204965E-2,3.579397E-2,-2.801475E-2,3.163704E-2,1.9638358E-2,-5.437107E-2,-6.447685E-2,-1.1813122E-2],"split_indices":[9,1,4,4,6,4,0,5,5,0,0,3,3,11,0,0,0,0,0,0,0,0,0,0,0],"split_type":[0,0,0,0,0,0,0,0,0,0,0,0,0,0,0,0,0,0,0,0,0,0,0,0,0],"sum_hessian":[7.994973E1,2.5671692E1,5.4278038E1,2.1388382E1,4.2833104E0,4.3729153E1,1.0548883E1,1.7012419E1,4.375962E0,1.7937976E0,2.489513E0,1.7760881E1,2.5968271E1,8.802751E0,1.7461333E0,1.438279E1,2.62963E0,2.3124175E0,2.0635445E0,1.502348E1,2.7374003E0,2.4065044E1,1.9032263E0,5.9660077E0,2.8367429E0],"tree_param":{"num_deleted":"0","num_feature":"13","num_nodes":"25","size_leaf_vector":"1"}},{"base_weights":[-6.169378E-3,4.122297E-1,-1.7085414E-1,6.944643E-1,-1.4639537E-1,-5.6455445E-1,1.7729859E-1,6.426151E-2,1.0000871E0,-5.484816E-1,6.039243E-1,-1.5822653E-1,-6.5037034E-2,3.4538534E-1,-5.0225873E-2,3.1257536E-2,-5.0993044E-2,5.359265E-2,9.102809E-3,-6.679415E-2,1.765009E-2,9.0354225E-3,4.013213E-2,9.111072E-3,-5.75024E-2,-5.14324E-2,2.295846E-2],"categories":[],"categories_nodes":[],"categories_segments":[],"categories_sizes":[],"default_left":[0,0,0,0,0,0,0,0,0,0,0,0,0,0,0,0,0,0,0,0,0,0,0,0,0,0,0],"id":26,"left_children":[1,3,5,7,9,11,13,15,17,19,21,23,-1,25,-1,-1,-1,-1,-1,-1,-1,-1,-1,-1,-1,-1,-1],"loss_changes":[5.4909806E0,3.6509626E0,7.934389E0,2.8498101E0,2.8600364E0,7.8894873E0,6.523651E0,4.2919564E0,3.9897728E-1,4.717408E0,1.409415E-1,6.482141E0,0E0,4.8446383E0,0E0,0E0,0E0,0E0,0E0,0E0,0E0,0E0,0E0,0E0,0E0,0E0,0E0],"parents":[2147483647,0,0,1,1,2,2,3,3,4,4,5,5,6,6,7,7,8,8,9,9,10,10,11,11,13,13],"right_children":[2,4,6,8,10,12,14,16,18,20,22,24,-1,26,-1,-1,-1,-1,-1,-1,-1,-1,-1,-1,-1,-1,-1],"split_conditions":[2E0,2.02E2,3E0,3.2E1,2.51E2,3E0,3.125E0,2E0,3E0,9.350162E-1,2E0,2E0,-6.5037034E-2,1.75E0,-5.0225873E-2,3.1257536E-2,-5.0993044E-2,5.359265E-2,9.102809E-3,-6.679415E-2,1.765009E-2,9.0354225E-3,4.013213E-2,9.111072E-3,-5.75024E-2,-5.14324E-2,2.295846E-2],"split_indices":[9,12,7,12,12,2,9,5,6,11,3,7,0,8,0,0,0,0,0,0,0,0,0,0,0,0,0],"split_type":[0,0,0,0,0,0,0,0,0,0,0,0,0,0,0,0,0,0,0,0,0,0,0,0,0,0,0],"sum_hessian":[7.76682E1,2.151187E1,5.6156326E1,1.4129861E1,7.3820086E0,2.6062542E1,3.0093782E1,5.009793E0,9.120068E0,4.981495E0,2.4005136E0,1.757641E1,8.486133E0,2.6966198E1,3.1275847E0,3.5806437E0,1.429149E0,8.099239E0,1.0208287E0,2.4017837E0,2.5797114E0,1.3770796E0,1.0234339E0,1.3692621E1,3.8837886E0,1.4473914E0,2.5518806E1],"tree_param":{"num_deleted":"0","num_feature":"13","num_nodes":"27","size_leaf_vector":"1"}},{"base_weights":[2.9213962E-3,1.3303435E-1,-5.9756804E-1,1.961222E-1,-5.134688E-2,-9.897729E-1,2.4304397E-1,2.5550047E-1,-5.1505215E-2,-6.1603393E-2,8.873523E-3,4.602861E-2,-4.1780666E-2,1.7602673E-2,-2.4709916E-2],"categories":[],"categories_nodes":[],"categories_segments":[],"categories_sizes":[],"default_left":[0,0,0,0,0,0,0,0,0,0,0,0,0,0,0],"id":27,"left_children":[1,3,5,7,-1,9,11,13,-1,-1,-1,-1,-1,-1,-1],"loss_changes":[6.140659E0,4.9272895E0,4.8554835E0,4.7838445E0,0E0,2.9737587E0,4.6104627E0,4.5186396E0,0E0,0E0,0E0,0E0,0E0,0E0,0E0],"parents":[2147483647,0,0,1,1,2,2,3,3,5,5,6,6,7,7],"right_children":[2,4,6,8,-1,10,12,14,-1,-1,-1,-1,-1,-1,-1],"split_conditions":[2.75E0,9.9270886E-1,5E0,5E0,-5.134688E-2,6.6312265E-1,-7.485108E-1,9.7094184E-1,-5.1505215E-2,-6.1603393E-2,8.873523E-3,4.602861E-2,-4.1780666E-2,1.7602673E-2,-2.4709916E-2],"split_indices":[9,11,0,2,0,10,10,10,0,0,0,0,0,0,0],"split_type":[0,0,0,0,0,0,0,0,0,0,0,0,0,0,0],"sum_hessian":[7.657646E1,6.357878E1,1.2997678E1,6.1087326E1,2.4914556E0,8.741641E0,4.2560363E0,5.9020958E1,2.0663683E0,7.1929927E0,1.5486488E0,2.7040935E0,1.5519427E0,5.275686E1,6.2640986E0],"tree_param":{"num_deleted":"0","num_feature":"13","num_nodes":"15","size_leaf_vector":"1"}},{"base_weights":[1.6000237E-2,1.4693671E-1,-5.7821155E-1,4.72081E-1,-8.3106376E-2,-9.396185E-1,1.3252947E-1,1.4833882E-1,8.499329E-1,2.2454014E-1,-5.6750476E-1,-5.937424E-2,7.118805E-3,-4.5238093E-2,4.9287017E-2,2.8909702E-2,-6.258228E-2,5.9157964E-3,6.830957E-2,-2.2460794E-2,2.099322E-2,-6.645266E-2,-2.4924352E-4],"categories":[],"categories_nodes":[],"categories_segments":[],"categories_sizes":[],"default_left":[0,0,0,0,0,0,0,0,0,0,0,0,0,0,0,0,0,0,0,0,0,0,0],"id":28,"left_children":[1,3,5,7,9,11,13,15,17,19,21,-1,-1,-1,-1,-1,-1,-1,-1,-1,-1,-1,-1],"loss_changes":[6.016735E0,4.7717314E0,3.7126765E0,3.0992098E0,5.776144E0,2.6857061E0,5.8348536E0,9.998044E0,4.353778E0,3.333654E0,6.4219627E0,0E0,0E0,0E0,0E0,0E0,0E0,0E0,0E0,0E0,0E0,0E0,0E0],"parents":[2147483647,0,0,1,1,2,2,3,3,4,4,5,5,6,6,7,7,8,8,9,9,10,10],"right_children":[2,4,6,8,10,12,14,16,18,20,22,-1,-1,-1,-1,-1,-1,-1,-1,-1,-1,-1,-1],"split_conditions":[2.75E0,-2.3931566E-1,5E0,3E0,2.25E0,7E0,4E0,2E0,3.546049E-1,-6.6312265E-1,2E0,-5.937424E-2,7.118805E-3,-4.5238093E-2,4.9287017E-2,2.8909702E-2,-6.258228E-2,5.9157964E-3,6.830957E-2,-2.2460794E-2,2.099322E-2,-6.645266E-2,-2.4924352E-4],"split_indices":[9,11,0,3,8,2,6,3,10,10,5,0,0,0,0,0,0,0,0,0,0,0,0],"split_type":[0,0,0,0,0,0,0,0,0,0,0,0,0,0,0,0,0,0,0,0,0,0,0],"sum_hessian":[7.523998E1,6.227107E1,1.2968911E1,2.5366194E1,3.6904877E1,8.383785E0,4.585125E0,1.4411261E1,1.0954933E1,2.2898348E1,1.4006527E1,6.741849E0,1.641937E0,2.0420644E0,2.5430605E0,1.14749565E1,2.9363043E0,5.0406885E0,5.9142447E0,4.8542247E0,1.8044123E1,5.371639E0,8.634888E0],"tree_param":{"num_deleted":"0","num_feature":"13","num_nodes":"23","size_leaf_vector":"1"}},{"base_weights":[5.148233E-3,5.107617E-1,-2.0216648E-1,7.3558795E-1,7.0857465E-2,-7.692102E-2,-9.2821693E-1,1.5083385E-1,9.8551416E-1,-4.520328E-1,7.448662E-1,1.6950255E-2,-5.717941E-2,-6.235398E-2,-2.1020627E-2,3.3459153E-2,-4.9109142E-2,5.1971138E-2,1.40815945E-2,-6.441006E-2,2.6850855E-2,4.445849E-2,1.4277746E-2,-4.206824E-2,6.977813E-3,-3.4367878E-2,3.1153604E-2],"categories":[],"categories_nodes":[],"categories_segments":[],"categories_sizes":[],"default_left":[0,0,0,0,0,0,0,0,0,0,0,0,0,0,0,0,0,0,0,0,0,0,0,0,0,0,0],"id":29,"left_children":[1,3,5,7,9,11,13,15,17,19,21,23,-1,-1,25,-1,-1,-1,-1,-1,-1,-1,-1,-1,-1,-1,-1],"loss_changes":[8.307163E0,2.2268496E0,5.041215E0,2.0643702E0,3.4734056E0,4.929898E0,2.3404155E0,4.01356E0,1.02950096E-1,5.35139E0,2.8837204E-2,4.9645514E0,0E0,0E0,1.7780021E0,0E0,0E0,0E0,0E0,0E0,0E0,0E0,0E0,0E0,0E0,0E0,0E0],"parents":[2147483647,0,0,1,1,2,2,3,3,4,4,5,5,6,6,7,7,8,8,9,9,10,10,11,11,14,14],"right_children":[2,4,6,8,10,12,14,16,18,20,22,24,-1,-1,26,-1,-1,-1,-1,-1,-1,-1,-1,-1,-1,-1,-1],"split_conditions":[2E0,2.02E2,8.85456E-1,3.2E1,2.51E2,2.19E2,4E0,3.546049E-1,3E0,9.350162E-1,2E0,-8.85456E-1,-5.717941E-2,-6.235398E-2,1.2053668E-1,3.3459153E-2,-4.9109142E-2,5.1971138E-2,1.40815945E-2,-6.441006E-2,2.6850855E-2,4.445849E-2,1.4277746E-2,-4.206824E-2,6.977813E-3,-3.4367878E-2,3.1153604E-2],"split_indices":[9,12,11,12,12,12,2,11,1,11,1,11,0,0,10,0,0,0,0,0,0,0,0,0,0,0,0],"split_type":[0,0,0,0,0,0,0,0,0,0,0,0,0,0,0,0,0,0,0,0,0,0,0,0,0,0,0],"sum_hessian":[7.7265755E1,2.2042727E1,5.5223026E1,1.4142581E1,7.900146E0,4.8041668E1,7.18136E0,4.7148128E0,9.427769E0,4.6342616E0,3.2658844E0,4.506028E1,2.9813883E0,5.0364785E0,2.1448812E0,3.5157533E0,1.1990594E0,8.314298E0,1.1134704E0,2.3473165E0,2.2869453E0,1.7729828E0,1.4929016E0,4.899378E0,4.0160904E1,1.0212206E0,1.1236608E0],"tree_param":{"num_deleted":"0","num_feature":"13","num_nodes":"27","size_leaf_vector":"1"}},{"base_weights":[-4.137267E-2,2.8861725E-1,-3.8309997E-1,5.0071895E-1,-2.5339347E-1,-1.0379825E0,-1.372408E-1,5.9404117E-1,-3.8624313E-2,5.5300725E-1,-7.290323E-1,-6.459653E-2,-5.929877E-4,1.01142645E-1,-6.161202E-2,1.0861838E-2,4.112909E-2,-8.649881E-3,5.2365154E-2,-6.479828E-2,1.5732216E-2,-1.8278526E-2,1.951024E-2],"categories":[],"categories_nodes":[],"categories_segments":[],"categories_sizes":[],"default_left":[0,0,0,0,0,0,0,0,0,0,0,0,0,0,0,0,0,0,0,0,0,0,0],"id":30,"left_children":[1,3,5,7,9,11,13,15,-1,17,19,-1,-1,21,-1,-1,-1,-1,-1,-1,-1,-1,-1],"loss_changes":[8.54557E0,4.5671625E0,5.84328E0,3.7972946E0,4.82456E0,2.589198E0,7.4808197E0,2.124302E0,0E0,1.9199843E0,4.9532104E0,0E0,0E0,3.38954E0,0E0,0E0,0E0,0E0,0E0,0E0,0E0,0E0,0E0],"parents":[2147483647,0,0,1,1,2,2,3,3,4,4,5,5,6,6,7,7,9,9,10,10,13,13],"right_children":[2,4,6,8,10,12,14,16,-1,18,20,-1,-1,22,-1,-1,-1,-1,-1,-1,-1,-1,-1],"split_conditions":[2.375E0,2.02E2,2E0,2.75E0,-7.485108E-1,6E0,5E0,6.4E1,-3.8624313E-2,3E0,9.350162E-1,-6.459653E-2,-5.929877E-4,3E0,-6.161202E-2,1.0861838E-2,4.112909E-2,-8.649881E-3,5.2365154E-2,-6.479828E-2,1.5732216E-2,-1.8278526E-2,1.951024E-2],"split_indices":[9,12,3,8,11,5,3,12,0,3,11,0,0,6,0,0,0,0,0,0,0,0,0],"split_type":[0,0,0,0,0,0,0,0,0,0,0,0,0,0,0,0,0,0,0,0,0,0,0],"sum_hessian":[7.3800545E1,3.7624123E1,3.6176422E1,2.7096714E1,1.0527408E1,8.995012E0,2.7181412E1,2.5743238E1,1.3534758E0,3.8453376E0,6.68207E0,7.0028768E0,1.992135E0,2.3067259E1,4.1141524E0,1.0455446E1,1.5287792E1,1.8208892E0,2.0244484E0,4.173345E0,2.5087247E0,8.721326E0,1.4345932E1],"tree_param":{"num_deleted":"0","num_feature":"13","num_nodes":"23","size_leaf_vector":"1"}},{"base_weights":[5.106539E-2,5.196005E-1,-1.3280171E-1,7.5489825E-1,7.1973324E-2,5.5054156E-3,-9.3694186E-1,9.702574E-1,2.0771328E-1,-4.9880005E-2,4.1311347E-1,1.2015153E-1,-8.1427974E-1,-6.1618775E-2,-1.0319202E-1,5.3731855E-2,7.7753463E-3,3.5810877E-2,-1.6751071E-2,3.7923593E-2,-1.8844592E-3,-2.4171649E-2,1.5685612E-2,-6.1548967E-2,1.5398833E-2,2.5270818E-2,-3.41661E-2],"categories":[],"categories_nodes":[],"categories_segments":[],"categories_sizes":[],"default_left":[0,0,0,0,0,0,0,0,0,0,0,0,0,0,0,0,0,0,0,0,0,0,0,0,0,0,0],"id":31,"left_children":[1,3,5,7,9,11,13,15,17,-1,19,21,23,-1,25,-1,-1,-1,-1,-1,-1,-1,-1,-1,-1,-1,-1],"loss_changes":[6.822523E0,2.2941632E0,6.355361E0,1.508295E0,3.6185837E0,4.770007E0,1.9381952E0,6.951761E-1,1.7220392E0,0E0,1.1759982E0,5.3487363E0,3.2914853E0,0E0,1.5052689E0,0E0,0E0,0E0,0E0,0E0,0E0,0E0,0E0,0E0,0E0,0E0,0E0],"parents":[2147483647,0,0,1,1,2,2,3,3,4,4,5,5,6,6,7,7,8,8,10,10,11,11,12,12,14,14],"right_children":[2,4,6,8,10,12,14,16,18,-1,20,22,24,-1,26,-1,-1,-1,-1,-1,-1,-1,-1,-1,-1,-1,-1],"split_conditions":[2E0,2E0,8.85456E-1,2.02E2,3.1E1,2.11E2,4E0,2.25E0,-7.485108E-1,-4.9880005E-2,2.01E2,8.4E1,5E0,-6.1618775E-2,2.25E0,5.3731855E-2,7.7753463E-3,3.5810877E-2,-1.6751071E-2,3.7923593E-2,-1.8844592E-3,-2.4171649E-2,1.5685612E-2,-6.1548967E-2,1.5398833E-2,2.5270818E-2,-3.41661E-2],"split_indices":[9,5,11,12,12,12,2,8,11,0,12,12,7,0,8,0,0,0,0,0,0,0,0,0,0,0,0],"split_type":[0,0,0,0,0,0,0,0,0,0,0,0,0,0,0,0,0,0,0,0,0,0,0,0,0,0,0],"sum_hessian":[7.739421E1,2.1297466E1,5.609674E1,1.3509617E1,7.7878494E0,4.8711773E1,7.384969E0,9.139389E0,4.3702283E0,1.4179265E0,6.369923E0,4.3484013E1,5.227759E0,5.0997834E0,2.2851858E0,7.818734E0,1.3206545E0,2.0912387E0,2.2789896E0,3.2203398E0,3.149583E0,1.0195036E1,3.328898E1,3.7416034E0,1.4861556E0,1.1780713E0,1.1071146E0],"tree_param":{"num_deleted":"0","num_feature":"13","num_nodes":"27","size_leaf_vector":"1"}},{"base_weights":[-5.944152E-2,4.7519866E-2,-6.301842E-1,2.0881465E-1,-4.6193624E-1,-5.7680476E-2,2.9188043E-1,7.757511E-1,3.238881E-4,-8.2736385E-1,7.065202E-1,-4.003965E-2,4.2158496E-2,4.640236E-2,1.3296814E-4,-5.811696E-2,6.041735E-3,-5.7748664E-2,1.5548966E-2,4.345796E-2,1.1975656E-2],"categories":[],"categories_nodes":[],"categories_segments":[],"categories_sizes":[],"default_left":[0,0,0,0,0,0,0,0,0,0,0,0,0,0,0,0,0,0,0,0,0],"id":32,"left_children":[1,3,5,7,9,-1,11,13,15,17,19,-1,-1,-1,-1,-1,-1,-1,-1,-1,-1],"loss_changes":[4.4945083E0,5.233899E0,5.9413195E0,5.6940403E0,7.1368484E0,0E0,3.688968E0,1.5225329E0,5.215675E0,4.890377E0,1.10468864E-1,0E0,0E0,0E0,0E0,0E0,0E0,0E0,0E0,0E0,0E0],"parents":[2147483647,0,0,1,1,2,2,3,3,4,4,6,6,7,7,8,8,9,9,10,10],"right_children":[2,4,6,8,10,-1,12,14,16,18,20,-1,-1,-1,-1,-1,-1,-1,-1,-1,-1],"split_conditions":[4E0,2.02E2,4E0,-8.2298386E-1,2.51E2,-5.7680476E-2,3.25E0,4E0,-6.6312265E-1,9.350162E-1,2E0,-4.003965E-2,4.2158496E-2,4.640236E-2,1.3296814E-4,-5.811696E-2,6.041735E-3,-5.7748664E-2,1.5548966E-2,4.345796E-2,1.1975656E-2],"split_indices":[1,12,7,10,12,0,8,7,10,11,1,0,0,0,0,0,0,0,0,0,0],"split_type":[0,0,0,0,0,0,0,0,0,0,0,0,0,0,0,0,0,0,0,0,0],"sum_hessian":[7.213268E1,6.1520103E1,1.0612581E1,4.7174644E1,1.434546E1,6.609483E0,4.003099E0,1.1952401E1,3.522224E1,1.1150216E1,3.1952443E0,1.1906368E0,2.812462E0,9.81788E0,2.134521E0,2.4960234E0,3.272622E1,8.647034E0,2.5031824E0,1.73121E0,1.4640343E0],"tree_param":{"num_deleted":"0","num_feature":"13","num_nodes":"21","size_leaf_vector":"1"}},{"base_weights":[-5.940691E-2,8.649714E-2,-8.2000965E-1,-1.9204088E-1,3.745921E-1,-1.0604835E0,1.8260721E-2,3.5268408E-3,-9.140071E-1,-8.923092E-2,8.042384E-1,-6.443354E-2,-1.5875383E-1,1.5357924E-2,-2.3215292E-2,5.5156223E-4,-5.910753E-2,-2.7014447E-2,3.3270482E-2,4.96518E-2,3.673256E-3,2.0946637E-2,-3.32218E-2],"categories":[],"categories_nodes":[],"categories_segments":[],"categories_sizes":[],"default_left":[0,0,0,0,0,0,0,0,0,0,0,0,0,0,0,0,0,0,0,0,0,0,0],"id":33,"left_children":[1,3,5,7,9,11,-1,13,15,17,19,-1,21,-1,-1,-1,-1,-1,-1,-1,-1,-1,-1],"loss_changes":[8.034954E0,4.976386E0,3.7065907E0,4.484072E0,6.126396E0,1.8402567E0,0E0,3.8312607E0,1.6918254E0,5.6390195E0,2.1169147E0,0E0,1.1978047E0,0E0,0E0,0E0,0E0,0E0,0E0,0E0,0E0,0E0,0E0],"parents":[2147483647,0,0,1,1,2,2,3,3,4,4,5,5,7,7,8,8,9,9,10,10,12,12],"right_children":[2,4,6,8,10,12,-1,14,16,18,20,-1,22,-1,-1,-1,-1,-1,-1,-1,-1,-1,-1],"split_conditions":[4E0,3E0,7E0,8.2298386E-1,5.6806475E-1,4E0,1.8260721E-2,1.5E2,2E0,1.8E2,2.01E2,-6.443354E-2,9.8E1,1.5357924E-2,-2.3215292E-2,5.5156223E-4,-5.910753E-2,-2.7014447E-2,3.3270482E-2,4.96518E-2,3.673256E-3,2.0946637E-2,-3.32218E-2],"split_indices":[4,3,0,10,10,2,0,12,9,12,12,0,12,0,0,0,0,0,0,0,0,0,0],"split_type":[0,0,0,0,0,0,0,0,0,0,0,0,0,0,0,0,0,0,0,0,0,0,0],"sum_hessian":[7.076413E1,6.0118134E1,1.0645997E1,3.0735567E1,2.9382568E1,8.937821E0,1.7081757E0,2.4967447E1,5.768119E0,1.4510321E1,1.4872248E1,6.790373E0,2.147448E0,1.5349073E1,9.618375E0,1.5117527E0,4.2563663E0,9.259717E0,5.2506037E0,1.1533616E1,3.3386319E0,1.0824344E0,1.0650136E0],"tree_param":{"num_deleted":"0","num_feature":"13","num_nodes":"23","size_leaf_vector":"1"}},{"base_weights":[-5.9869684E-2,2.8148946E-1,-3.7542665E-1,4.6938825E-1,-4.2162302E-1,-1.1187781E0,-5.9504177E-2,6.776104E-1,-1.7569911E-1,-6.658557E-2,6.943928E-1,-2.4299775E-3,-6.760484E-2,8.2381606E-1,-2.9818332E-1,1.6741069E-2,5.5288613E-2,-5.61874E-2,2.951749E-2,4.307402E-2,1.1272615E-2,5.684167E-2,7.7461735E-3,-4.9696967E-2,7.97892E-3],"categories":[],"categories_nodes":[],"categories_segments":[],"categories_sizes":[],"default_left":[0,0,0,0,0,0,0,0,0,0,0,0,0,0,0,0,0,0,0,0,0,0,0,0,0],"id":34,"left_children":[1,3,5,7,9,11,13,15,17,-1,19,-1,-1,21,23,-1,-1,-1,-1,-1,-1,-1,-1,-1,-1],"loss_changes":[7.717104E0,4.7576947E0,8.656954E0,3.8409476E0,8.852282E0,2.6865368E0,5.964184E0,2.734417E0,6.15062E0,0E0,1.3198423E-1,0E0,0E0,1.0876102E0,7.193482E0,0E0,0E0,0E0,0E0,0E0,0E0,0E0,0E0,0E0,0E0],"parents":[2147483647,0,0,1,1,2,2,3,3,4,4,5,5,6,6,7,7,8,8,10,10,13,13,14,14],"right_children":[2,4,6,8,10,12,14,16,18,-1,20,-1,-1,22,24,-1,-1,-1,-1,-1,-1,-1,-1,-1,-1],"split_conditions":[2.375E0,2.19E2,1.03E2,3E0,2.51E2,-9.350162E-1,1.12E2,3E0,3E0,-6.658557E-2,2E0,-2.4299775E-3,-6.760484E-2,2E0,3E0,1.6741069E-2,5.5288613E-2,-5.61874E-2,2.951749E-2,4.307402E-2,1.1272615E-2,5.684167E-2,7.7461735E-3,-4.9696967E-2,7.97892E-3],"split_indices":[9,12,12,1,12,11,12,7,4,0,1,0,0,6,6,0,0,0,0,0,0,0,0,0,0],"split_type":[0,0,0,0,0,0,0,0,0,0,0,0,0,0,0,0,0,0,0,0,0,0,0,0,0],"sum_hessian":[6.96605E1,3.3514057E1,3.6146446E1,2.6708838E1,6.805219E0,1.0022542E1,2.6123901E1,2.0153309E1,6.555528E0,3.6419828E0,3.1632366E0,2.010257E0,8.012285E0,5.035737E0,2.1088165E1,1.21821785E1,7.971131E0,2.721056E0,3.8344722E0,1.7150655E0,1.448171E0,2.9538617E0,2.081875E0,7.903803E0,1.3184362E1],"tree_param":{"num_deleted":"0","num_feature":"13","num_nodes":"25","size_leaf_vector":"1"}},{"base_weights":[-4.5822826E-3,1.4636254E-1,-7.2263443E-1,7.488391E-1,4.4065647E-2,-5.905504E-2,1.2338161E-1,-6.725198E-3,4.9158502E-2,-9.610948E-1,1.6647439E-1,-4.2803507E-2,4.514357E-2,-6.114019E-2,1.5069919E-3,-7.4872165E-3,2.8570313E-2],"categories":[],"categories_nodes":[],"categories_segments":[],"categories_sizes":[],"default_left":[0,0,0,0,0,0,0,0,0,0,0,0,0,0,0,0,0],"id":35,"left_children":[1,3,5,7,9,-1,11,-1,-1,13,15,-1,-1,-1,-1,-1,-1],"loss_changes":[7.981576E0,3.718761E0,5.1066656E0,1.9482584E0,6.6935425E0,0E0,4.8961296E0,0E0,0E0,1.5705824E0,6.255965E0,0E0,0E0,0E0,0E0,0E0,0E0],"parents":[2147483647,0,0,1,1,2,2,3,3,4,4,6,6,9,9,10,10],"right_children":[2,4,6,8,10,-1,12,-1,-1,14,16,-1,-1,-1,-1,-1,-1],"split_conditions":[2.75E0,-8.85456E-1,5E0,-9.7094184E-1,-6.6312265E-1,-5.905504E-2,4E0,-6.725198E-3,4.9158502E-2,4E0,3E0,-4.2803507E-2,4.514357E-2,-6.114019E-2,1.5069919E-3,-7.4872165E-3,2.8570313E-2],"split_indices":[9,10,0,10,10,0,6,0,0,4,7,0,0,0,0,0,0],"split_type":[0,0,0,0,0,0,0,0,0,0,0,0,0,0,0,0,0],"sum_hessian":[7.1664276E1,5.987406E1,1.1790216E1,7.7732625E0,5.21008E1,7.389619E0,4.400598E0,1.7190548E0,6.0542073E0,4.9122543E0,4.7188545E1,1.9066244E0,2.4939735E0,3.7013857E0,1.2108687E0,2.6850609E1,2.0337934E1],"tree_param":{"num_deleted":"0","num_feature":"13","num_nodes":"17","size_leaf_vector":"1"}},{"base_weights":[3.741376E-2,9.9565126E-2,-4.6836387E-2,2.2279862E-1,-4.4457078E-1,-1.936878E-2,4.937798E-1,-8.59559E-1,6.8113315E-1,1.3335242E-2,-4.1864123E-2,3.505868E-2,-3.1247288E-3,-5.4392975E-2,1.4981863E-2,4.2407226E-2,1.0979253E-2],"categories":[],"categories_nodes":[],"categories_segments":[],"categories_sizes":[],"default_left":[0,0,0,0,0,0,0,0,0,0,0,0,0,0,0,0,0],"id":36,"left_children":[1,3,-1,5,7,9,11,13,15,-1,-1,-1,-1,-1,-1,-1,-1],"loss_changes":[4.5497365E0,4.799407E0,0E0,3.8037918E0,6.7881126E0,7.592598E0,3.1961093E0,3.010335E0,1.3244188E-1,0E0,0E0,0E0,0E0,0E0,0E0,0E0,0E0],"parents":[2147483647,0,0,1,1,3,3,4,4,5,5,6,6,7,7,8,8],"right_children":[2,4,-1,6,8,10,12,14,16,-1,-1,-1,-1,-1,-1,-1,-1],"split_conditions":[3.25E0,2.11E2,-4.6836387E-2,3E0,2.51E2,2E0,3E0,5E0,2E0,1.3335242E-2,-4.1864123E-2,3.505868E-2,-3.1247288E-3,-5.4392975E-2,1.4981863E-2,4.2407226E-2,1.0979253E-2],"split_indices":[9,12,0,7,12,7,1,7,1,0,0,0,0,0,0,0,0],"split_type":[0,0,0,0,0,0,0,0,0,0,0,0,0,0,0,0,0],"sum_hessian":[7.260687E1,6.9096245E1,3.5106292E0,5.6818733E1,1.2277509E1,3.049491E1,2.6323822E1,9.143284E0,3.1342254E0,2.3092125E1,7.4027843E0,1.8985168E1,7.3386545E0,7.69025E0,1.4530338E0,1.6863947E0,1.4478308E0],"tree_param":{"num_deleted":"0","num_feature":"13","num_nodes":"17","size_leaf_vector":"1"}},{"base_weights":[5.526428E-2,5.50035E-1,-1.3916391E-1,6.923319E-1,-1.3818602E-1,-7.7139107E-3,-8.9721495E-1,7.9834735E-1,-1.0517235E-2,-4.3194316E-2,2.1715788E-2,-3.1166047E-1,2.5429106E-1,-5.8554914E-2,-5.868237E-3,9.0276105E-3,4.5620672E-2,9.940634E-3,-3.5186894E-2,1.8635584E-2,-4.0559594E-2],"categories":[],"categories_nodes":[],"categories_segments":[],"categories_sizes":[],"default_left":[0,0,0,0,0,0,0,0,0,0,0,0,0,0,0,0,0,0,0,0,0],"id":37,"left_children":[1,3,5,7,9,11,13,15,-1,-1,-1,17,19,-1,-1,-1,-1,-1,-1,-1,-1],"loss_changes":[7.110298E0,2.1354942E0,5.3030944E0,1.8356209E0,2.2042253E0,3.776137E0,1.5427079E0,9.4893456E-1,0E0,0E0,0E0,4.5311823E0,3.5175486E0,0E0,0E0,0E0,0E0,0E0,0E0,0E0,0E0],"parents":[2147483647,0,0,1,1,2,2,3,3,4,4,5,5,6,6,7,7,11,11,12,12],"right_children":[2,4,6,8,10,12,14,16,-1,-1,-1,18,20,-1,-1,-1,-1,-1,-1,-1,-1],"split_conditions":[2E0,3E0,8.85456E-1,3E0,2E0,3E0,4E0,2.8E1,-1.0517235E-2,-4.3194316E-2,2.1715788E-2,2E0,3E0,-5.8554914E-2,-5.868237E-3,9.0276105E-3,4.5620672E-2,9.940634E-3,-3.5186894E-2,1.8635584E-2,-4.0559594E-2],"split_indices":[9,1,11,4,6,3,2,12,0,0,0,7,9,0,0,0,0,0,0,0,0],"split_type":[0,0,0,0,0,0,0,0,0,0,0,0,0,0,0,0,0,0,0,0,0],"sum_hessian":[7.2117935E1,1.982904E1,5.2288895E1,1.642668E1,3.4023612E0,4.542256E1,6.866333E0,1.4803635E1,1.6230451E0,1.275975E0,2.1263862E0,2.0940453E1,2.4482107E1,4.710359E0,2.155974E0,2.7098181E0,1.2093817E1,9.310883E0,1.162957E1,2.2618431E1,1.8636775E0],"tree_param":{"num_deleted":"0","num_feature":"13","num_nodes":"21","size_leaf_vector":"1"}},{"base_weights":[1.6234854E-2,4.6669418E-1,-1.6428459E-1,8.68078E-2,6.996108E-1,-1.9495685E-2,-5.9292484E-2,4.4707403E-1,-5.026203E-2,8.175476E-1,-3.7007232E-3,1.4784978E-1,-7.1301055E-1,3.6183115E-2,6.380715E-5,5.335058E-2,2.2924237E-2,-2.2752844E-2,1.8539617E-2,-5.956012E-2,-3.304932E-3],"categories":[],"categories_nodes":[],"categories_segments":[],"categories_sizes":[],"default_left":[0,0,0,0,0,0,0,0,0,0,0,0,0,0,0,0,0,0,0,0,0],"id":38,"left_children":[1,3,5,7,9,11,-1,13,-1,15,-1,17,19,-1,-1,-1,-1,-1,-1,-1,-1],"loss_changes":[6.0363736E0,1.8175821E0,7.825324E0,4.0729566E0,1.2482634E0,5.617124E0,0E0,9.3834853E-1,0E0,5.300493E-1,0E0,5.422656E0,2.8303056E0,0E0,0E0,0E0,0E0,0E0,0E0,0E0,0E0],"parents":[2147483647,0,0,1,1,2,2,3,3,4,4,5,5,7,7,9,9,11,11,12,12],"right_children":[2,4,6,8,10,12,-1,14,-1,16,-1,18,20,-1,-1,-1,-1,-1,-1,-1,-1],"split_conditions":[2E0,-3.546049E-1,8.85456E-1,5.6806475E-1,3E0,1.83E2,-5.9292484E-2,-1.8369701E-16,-5.026203E-2,6.4324905E-16,-3.7007232E-3,8.3E1,3E0,3.6183115E-2,6.380715E-5,5.335058E-2,2.2924237E-2,-2.2752844E-2,1.8539617E-2,-5.956012E-2,-3.304932E-3],"split_indices":[9,10,11,11,1,12,0,11,0,10,0,12,0,0,0,0,0,0,0,0,0],"split_type":[0,0,0,0,0,0,0,0,0,0,0,0,0,0,0,0,0,0,0,0,0],"sum_hessian":[7.2290054E1,2.0228233E1,5.206182E1,8.21017E0,1.2018064E1,4.6491547E1,5.5702753E0,6.617627E0,1.5925424E0,1.0379037E1,1.6390268E0,3.808776E1,8.403785E0,3.6992126E0,2.9184144E0,4.9607973E0,5.418239E0,1.000094E1,2.8086823E1,4.3482366E0,4.0555477E0],"tree_param":{"num_deleted":"0","num_feature":"13","num_nodes":"21","size_leaf_vector":"1"}},{"base_weights":[-2.8490223E-2,-8.2313746E-1,5.293276E-2,-6.395965E-2,1.651559E-2,1.5702306E-1,-6.777573E-1,2.1279316E-1,-4.5879256E-2,3.418886E-2,-5.437106E-2,1.547882E-2,-1.8080955E-2],"categories":[],"categories_nodes":[],"categories_segments":[],"categories_sizes":[],"default_left":[0,0,0,0,0,0,0,0,0,0,0,0,0],"id":39,"left_children":[1,3,5,-1,-1,7,9,11,-1,-1,-1,-1,-1],"loss_changes":[4.4136E0,3.7563925E0,4.837412E0,0E0,0E0,3.506943E0,5.1746325E0,3.0775151E0,0E0,0E0,0E0,0E0,0E0],"parents":[2147483647,0,0,1,1,2,2,5,5,6,6,7,7],"right_children":[2,4,6,-1,-1,8,10,12,-1,-1,-1,-1,-1],"split_conditions":[-8.85456E-1,4E0,4E0,-6.395965E-2,1.651559E-2,9.9270886E-1,1.5E1,2.19E2,-4.5879256E-2,3.418886E-2,-5.437106E-2,1.547882E-2,-1.8080955E-2],"split_indices":[11,5,1,0,0,11,12,12,0,0,0,0,0],"split_type":[0,0,0,0,0,0,0,0,0,0,0,0,0],"sum_hessian":[6.654028E1,5.3376927E0,6.120259E1,3.747124E0,1.5905689E0,5.4258335E1,6.944256E0,5.2343773E1,1.9145607E0,1.4513886E0,5.492867E0,4.519062E1,7.1531534E0],"tree_param":{"num_deleted":"0","num_feature":"13","num_nodes":"13","size_leaf_vector":"1"}},{"base_weights":[-2.8560676E-2,1.00951225E-1,-5.732616E-1,2.0907368E-1,-6.3717E-1,-9.190017E-1,1.4695571E-1,2.5783136E-1,-4.1309487E-2,1.386978E-1,-5.620703E-2,-5.723963E-2,6.9788904E-3,-4.1137166E-2,4.404873E-2,1.5249026E-2,-4.207334E-2,-1.0183396E-2,2.4495153E-2],"categories":[],"categories_nodes":[],"categories_segments":[],"categories_sizes":[],"default_left":[0,0,0,0,0,0,0,0,0,0,0,0,0,0,0,0,0,0,0],"id":40,"left_children":[1,3,5,7,9,11,13,15,-1,17,-1,-1,-1,-1,-1,-1,-1,-1,-1],"loss_changes":[4.9972763E0,4.7155924E0,3.521473E0,2.7790012E0,3.021038E0,2.3889856E0,4.4781184E0,2.8124352E0,0E0,5.584201E-1,0E0,0E0,0E0,0E0,0E0,0E0,0E0,0E0,0E0],"parents":[2147483647,0,0,1,1,2,2,3,3,4,4,5,5,6,6,7,7,9,9],"right_children":[2,4,6,8,10,12,14,16,-1,18,-1,-1,-1,-1,-1,-1,-1,-1,-1],"split_conditions":[2.75E0,4E0,5E0,6E0,-3.546049E-1,6.6312265E-1,4E0,5E0,-4.1309487E-2,2E0,-5.620703E-2,-5.723963E-2,6.9788904E-3,-4.1137166E-2,4.404873E-2,1.5249026E-2,-4.207334E-2,-1.0183396E-2,2.4495153E-2],"split_indices":[9,4,0,6,10,10,6,2,0,5,0,0,0,0,0,0,0,0,0],"split_type":[0,0,0,0,0,0,0,0,0,0,0,0,0,0,0,0,0,0,0],"sum_hessian":[6.901753E1,5.641789E1,1.2599645E1,4.9834686E1,6.583202E0,8.326504E0,4.2731414E0,4.831037E1,1.5243163E0,2.814373E0,3.7688289E0,6.7955885E0,1.5309147E0,1.7889359E0,2.4842055E0,4.7016396E1,1.2939761E0,1.6378423E0,1.1765306E0],"tree_param":{"num_deleted":"0","num_feature":"13","num_nodes":"19","size_leaf_vector":"1"}},{"base_weights":[-4.0381126E-2,3.879074E-2,-5.4412186E-2,1.4943814E-1,-5.009501E-1,2.588971E-1,-4.6326026E-1,-1.660541E-2,-5.4318924E-2,2.2893535E-2,-5.0388197E-3,1.7989738E-2,-5.7888556E-2,1.8957375E-2,-2.3872392E-2],"categories":[],"categories_nodes":[],"categories_segments":[],"categories_sizes":[],"default_left":[0,0,0,0,0,0,0,0,0,0,0,0,0,0,0],"id":41,"left_children":[1,3,-1,5,7,9,11,13,-1,-1,-1,-1,-1,-1,-1],"loss_changes":[5.647129E0,3.8838751E0,0E0,3.7213337E0,3.123795E0,3.3526087E0,5.2741375E0,1.4721283E0,0E0,0E0,0E0,0E0,0E0,0E0,0E0],"parents":[2147483647,0,0,1,1,3,3,4,4,5,5,6,6,7,7],"right_children":[2,4,-1,6,8,10,12,14,-1,-1,-1,-1,-1,-1,-1],"split_conditions":[5E0,8.2298386E-1,-5.4412186E-2,2.11E2,2.125E0,2.75E0,-8.2298386E-1,1.92E2,-5.4318924E-2,2.2893535E-2,-5.0388197E-3,1.7989738E-2,-5.7888556E-2,1.8957375E-2,-2.3872392E-2],"split_indices":[4,11,0,12,9,8,11,12,0,0,0,0,0,0,0],"split_type":[0,0,0,0,0,0,0,0,0,0,0,0,0,0,0],"sum_hessian":[6.6560646E1,6.278023E1,3.7804155E0,5.269984E1,1.0080389E1,4.5201935E1,7.4979053E0,6.079214E0,4.001175E0,2.8926561E1,1.6275373E1,3.6519618E0,3.8459435E0,3.3659472E0,2.7132668E0],"tree_param":{"num_deleted":"0","num_feature":"13","num_nodes":"15","size_leaf_vector":"1"}},{"base_weights":[2.0863412E-2,1.0228566E-1,-8.096109E-1,1.5800375E-1,-4.651603E-2,1.4829526E-2,-5.9380997E-2,-4.819345E-2,2.1018603E-1,3.7706833E-2,5.6802654E-3],"categories":[],"categories_nodes":[],"categories_segments":[],"categories_sizes":[],"default_left":[0,0,0,0,0,0,0,0,0,0,0],"id":42,"left_children":[1,3,5,7,-1,-1,-1,-1,9,-1,-1],"loss_changes":[4.7515E0,3.8158143E0,2.9770002E0,3.7945528E0,0E0,0E0,0E0,0E0,3.0375931E0,0E0,0E0],"parents":[2147483647,0,0,1,1,2,2,3,3,8,8],"right_children":[2,4,6,8,-1,-1,-1,-1,10,-1,-1],"split_conditions":[9.7094184E-1,9.9270886E-1,1.1E1,-9.7094184E-1,-4.651603E-2,1.4829526E-2,-5.9380997E-2,-4.819345E-2,-8.85456E-1,3.7706833E-2,5.6802654E-3],"split_indices":[10,11,12,10,0,0,0,0,10,0,0],"split_type":[0,0,0,0,0,0,0,0,0,0,0],"sum_hessian":[6.8043945E1,6.276692E1,5.277026E0,6.0357113E1,2.4098058E0,1.398846E0,3.8781803E0,1.9061161E0,5.8450996E1,7.7867913E0,5.0664204E1],"tree_param":{"num_deleted":"0","num_feature":"13","num_nodes":"11","size_leaf_vector":"1"}},{"base_weights":[-7.0736823E-3,4.2080116E-2,-4.7182556E-2,2.020752E-1,-2.8435376E-1,2.9335344E-1,-5.2931823E-2,1.5043017E-1,-7.277397E-1,-4.712454E-3,3.5983827E-2,-2.0740816E-2,6.1630458E-2,-3.5893947E-3,-5.780667E-2],"categories":[],"categories_nodes":[],"categories_segments":[],"categories_sizes":[],"default_left":[0,0,0,0,0,0,0,0,0,0,0,0,0,0,0],"id":43,"left_children":[1,3,-1,5,7,9,-1,11,13,-1,-1,-1,-1,-1,-1],"loss_changes":[3.1867871E0,3.4997559E0,0E0,5.4676757E0,4.368717E0,7.102669E0,0E0,7.8418813E0,3.0390205E0,0E0,0E0,0E0,0E0,0E0,0E0],"parents":[2147483647,0,0,1,1,3,3,4,4,5,5,7,7,8,8],"right_children":[2,4,-1,6,8,10,-1,12,14,-1,-1,-1,-1,-1,-1],"split_conditions":[6E0,3E0,-4.7182556E-2,5E0,2E0,3E0,-5.2931823E-2,3.25E0,-5.6806475E-1,-4.712454E-3,3.5983827E-2,-2.0740816E-2,6.1630458E-2,-3.5893947E-3,-5.780667E-2],"split_indices":[6,1,0,3,2,3,0,8,10,0,0,0,0,0,0],"split_type":[0,0,0,0,0,0,0,0,0,0,0,0,0,0,0],"sum_hessian":[6.736075E1,6.4909225E1,2.4515195E0,4.3815094E1,2.1094137E1,4.1572468E1,2.2426255E0,1.0983978E1,1.0110158E1,2.2183079E1,1.9389389E1,7.6203713E0,3.3636076E0,4.4555073E0,5.65465E0],"tree_param":{"num_deleted":"0","num_feature":"13","num_nodes":"15","size_leaf_vector":"1"}},{"base_weights":[-4.7720489E-4,1.0171995E-1,-5.182003E-1,1.7419967E-1,-6.4989036E-1,2.4464568E-2,-5.392533E-2,2.1937443E-1,-3.9605863E-2,4.566878E-3,-5.001874E-2,-3.742346E-1,2.9704902E-2,1.3081674E-2,-4.121601E-2,-4.862572E-2,2.9975012E-2],"categories":[],"categories_nodes":[],"categories_segments":[],"categories_sizes":[],"default_left":[0,0,0,0,0,0,0,0,0,0,0,0,0,0,0,0,0],"id":44,"left_children":[1,3,5,7,9,11,-1,13,-1,-1,-1,15,-1,-1,-1,-1,-1],"loss_changes":[3.6651192E0,3.2649624E0,3.4985976E0,2.511633E0,1.4682069E0,1.7619089E0,0E0,2.5068069E0,0E0,0E0,0E0,3.2635884E0,0E0,0E0,0E0,0E0,0E0],"parents":[2147483647,0,0,1,1,2,2,3,3,4,4,5,5,7,7,11,11],"right_children":[2,4,6,8,10,12,-1,14,-1,-1,-1,16,-1,-1,-1,-1,-1],"split_conditions":[8.2298386E-1,5E0,2.125E0,6E0,-6.6312265E-1,3E0,-5.392533E-2,6E0,-3.9605863E-2,4.566878E-3,-5.001874E-2,4E0,2.9704902E-2,1.3081674E-2,-4.121601E-2,-4.862572E-2,2.9975012E-2],"split_indices":[11,2,9,1,11,3,0,4,0,0,0,0,0,0,0,0,0],"split_type":[0,0,0,0,0,0,0,0,0,0,0,0,0,0,0,0,0],"sum_hessian":[6.72748E1,5.685525E1,1.0419552E1,5.2555428E1,4.299823E0,5.7789207E0,4.640631E0,5.094668E1,1.6087497E0,1.6177961E0,2.6820269E0,3.6013093E0,2.177611E0,4.9684288E1,1.2623906E0,2.2314937E0,1.3698156E0],"tree_param":{"num_deleted":"0","num_feature":"13","num_nodes":"17","size_leaf_vector":"1"}},{"base_weights":[-4.206975E-2,6.521391E-1,-1.2375378E-1,-4.6767173E-3,4.487631E-2,-4.2034096E-1,1.839905E-1,-1.1329462E-1,-1.0994506E0,3.0852783E-1,-4.3722942E-2,-3.0882513E-2,1.4485444E-2,-7.352008E-3,-6.347173E-2,2.6372185E-2,-1.002898E-2],"categories":[],"categories_nodes":[],"categories_segments":[],"categories_sizes":[],"default_left":[0,0,0,0,0,0,0,0,0,0,0,0,0,0,0,0,0],"id":45,"left_children":[1,3,5,-1,-1,7,9,11,13,15,-1,-1,-1,-1,-1,-1,-1],"loss_changes":[3.9132357E0,1.4150841E0,5.673418E0,0E0,0E0,6.4492087E0,4.327805E0,4.8183117E0,1.3838806E0,3.2580523E0,0E0,0E0,0E0,0E0,0E0,0E0,0E0],"parents":[2147483647,0,0,1,1,2,2,5,5,6,6,7,7,8,8,9,9],"right_children":[2,4,6,-1,-1,8,10,12,14,16,-1,-1,-1,-1,-1,-1,-1],"split_conditions":[1.75E0,-3.546049E-1,3E0,-4.6767173E-3,4.487631E-2,2E0,3.125E0,3E0,-8.85456E-1,3E0,-4.3722942E-2,-3.0882513E-2,1.4485444E-2,-7.352008E-3,-6.347173E-2,2.6372185E-2,-1.002898E-2],"split_indices":[9,10,7,0,0,7,9,4,10,1,0,0,0,0,0,0,0],"split_type":[0,0,0,0,0,0,0,0,0,0,0,0,0,0,0,0,0],"sum_hessian":[6.658625E1,6.2748065E0,6.0311443E1,1.7068677E0,4.567939E0,3.0526138E1,2.9785307E1,2.1825146E1,8.700992E0,2.7283623E1,2.5016856E0,9.457075E0,1.2368071E1,1.6001987E0,7.100793E0,1.9054276E1,8.229345E0],"tree_param":{"num_deleted":"0","num_feature":"13","num_nodes":"17","size_leaf_vector":"1"}},{"base_weights":[4.2815547E-2,9.362973E-2,-4.325933E-2,1.357192E-1,-4.4516765E-2,1.7710544E-1,-4.237406E-2,1.3568126E-2,-1.1244442E-2],"categories":[],"categories_nodes":[],"categories_segments":[],"categories_sizes":[],"default_left":[0,0,0,0,0,0,0,0,0],"id":46,"left_children":[1,3,-1,5,-1,7,-1,-1,-1],"loss_changes":[3.3922348E0,2.9728389E0,0E0,2.8726277E0,0E0,2.525146E0,0E0,0E0,0E0],"parents":[2147483647,0,0,1,1,3,3,5,5],"right_children":[2,4,-1,6,-1,8,-1,-1,-1],"split_conditions":[3.25E0,6E0,-4.325933E-2,9.9270886E-1,-4.4516765E-2,2.11E2,-4.237406E-2,1.3568126E-2,-1.1244442E-2],"split_indices":[9,6,0,11,0,12,0,0,0],"split_type":[0,0,0,0,0,0,0,0,0],"sum_hessian":[7.076575E1,6.786474E1,2.9010055E0,6.5907585E1,1.9571527E0,6.403213E1,1.875461E0,5.213322E1,1.1898909E1],"tree_param":{"num_deleted":"0","num_feature":"13","num_nodes":"9","size_leaf_vector":"1"}},{"base_weights":[-3.9459407E-2,9.438117E-2,-6.9115204E-1,-1.271853E-1,4.0166572E-1,-5.4298054E-2,-5.6695193E-2,-2.2322114E-1,3.843048E-2,-5.8396196E-1,5.949328E-1,4.9172577E-1,-4.0501785E-2,4.778439E-4,-3.7470512E-2,5.595023E-3,-5.356889E-2,4.3882E-2,6.3070892E-3,4.0531125E-2,3.2704722E-3],"categories":[],"categories_nodes":[],"categories_segments":[],"categories_sizes":[],"default_left":[0,0,0,0,0,0,0,0,0,0,0,0,0,0,0,0,0,0,0,0,0],"id":47,"left_children":[1,3,5,7,9,-1,11,13,-1,15,17,19,-1,-1,-1,-1,-1,-1,-1,-1,-1],"loss_changes":[5.692323E0,3.7549732E0,2.7219057E0,2.9562418E0,4.7348757E0,0E0,2.5952349E0,3.6829362E0,0E0,1.5717545E0,2.5070329E0,4.4993496E-1,0E0,0E0,0E0,0E0,0E0,0E0,0E0,0E0,0E0],"parents":[2147483647,0,0,1,1,2,2,3,3,4,4,6,6,7,7,9,9,10,10,11,11],"right_children":[2,4,6,8,10,-1,12,14,-1,16,18,20,-1,-1,-1,-1,-1,-1,-1,-1,-1],"split_conditions":[2.75E0,3E0,1.71E2,1E0,-6.6312265E-1,-5.4298054E-2,1.83E2,2E0,3.843048E-2,4E0,1.41E2,-9.350162E-1,-4.0501785E-2,4.778439E-4,-3.7470512E-2,5.595023E-3,-5.356889E-2,4.3882E-2,6.3070892E-3,4.0531125E-2,3.2704722E-3],"split_indices":[9,7,12,10,10,0,12,7,0,7,12,10,0,0,0,0,0,0,0,0,0],"split_type":[0,0,0,0,0,0,0,0,0,0,0,0,0,0,0,0,0,0,0,0,0],"sum_hessian":[6.3513912E1,5.3401768E1,1.0112147E1,3.1369207E1,2.2032558E1,5.794632E0,4.317515E0,2.900994E1,2.3592682E0,3.2805922E0,1.8751966E1,2.6995525E0,1.6179624E0,2.0793188E1,8.216752E0,1.6686928E0,1.6118994E0,1.1153591E1,7.598376E0,1.0286417E0,1.6709108E0],"tree_param":{"num_deleted":"0","num_feature":"13","num_nodes":"21","size_leaf_vector":"1"}},{"base_weights":[-1.1129949E-2,1.127115E-1,-6.7844623E-1,1.5855215E-1,-4.1413832E-2,-5.4008674E-2,-6.423708E-2,1.9983537E-1,-4.1696522E-2,-3.8460184E-2,4.3300387E-1,1.2166697E-2,-3.972491E-2,3.972041E-2,3.3055196E-4],"categories":[],"categories_nodes":[],"categories_segments":[],"categories_sizes":[],"default_left":[0,0,0,0,0,0,0,0,0,0,0,0,0,0,0],"id":48,"left_children":[1,3,5,7,-1,-1,9,11,-1,-1,13,-1,-1,-1,-1],"loss_changes":[5.64869E0,2.6215222E0,2.5700064E0,2.456512E0,0E0,0E0,2.1884828E0,2.548928E0,0E0,0E0,5.716426E-1,0E0,0E0,0E0,0E0],"parents":[2147483647,0,0,1,1,2,2,3,3,6,6,7,7,10,10],"right_children":[2,4,6,8,-1,-1,10,12,-1,-1,14,-1,-1,-1,-1],"split_conditions":[2.75E0,9.9270886E-1,1.71E2,5E0,-4.1413832E-2,-5.4008674E-2,3E0,5E0,-4.1696522E-2,-3.8460184E-2,2E0,1.2166697E-2,-3.972491E-2,3.972041E-2,3.3055196E-4],"split_indices":[9,11,12,2,0,0,6,1,0,0,7,0,0,0,0],"split_type":[0,0,0,0,0,0,0,0,0,0,0,0,0,0,0],"sum_hessian":[6.6426506E1,5.6729637E1,9.696865E0,5.4887283E1,1.8423533E0,5.403821E0,4.293044E0,5.346213E1,1.4251552E0,1.5494119E0,2.743632E0,5.1945E1,1.5171294E0,1.017838E0,1.7257942E0],"tree_param":{"num_deleted":"0","num_feature":"13","num_nodes":"15","size_leaf_vector":"1"}},{"base_weights":[-4.1502528E-2,3.359133E-2,-5.2675534E-2,9.666796E-2,-4.606388E-2,1.4262547E-1,-4.328643E-2,9.229618E-3,-3.9736394E-2],"categories":[],"categories_nodes":[],"categories_segments":[],"categories_sizes":[],"default_left":[0,0,0,0,0,0,0,0,0],"id":49,"left_children":[1,3,-1,5,-1,7,-1,-1,-1],"loss_changes":[5.1116886E0,3.8927107E0,0E0,2.7836072E0,0E0,2.4385777E0,0E0,0E0,0E0],"parents":[2147483647,0,0,1,1,3,3,5,5],"right_children":[2,4,-1,6,-1,8,-1,-1,-1],"split_conditions":[5E0,5E0,-5.2675534E-2,6E0,-4.606388E-2,9.9270886E-1,-4.328643E-2,9.229618E-3,-3.9736394E-2],"split_indices":[4,1,0,6,0,11,0,0,0],"split_type":[0,0,0,0,0,0,0,0,0],"sum_hessian":[6.579729E1,6.215222E1,3.645063E0,5.9144054E1,3.008168E0,5.726144E1,1.8826147E0,5.5576267E1,1.6851726E0],"tree_param":{"num_deleted":"0","num_feature":"13","num_nodes":"9","size_leaf_vector":"1"}},{"base_weights":[5.1438063E-2,1.10559724E-1,-4.911096E-2,1.5335307E-1,-4.2955328E-2,1.8775356E-1,-4.1566517E-2,1.973839E-2,-7.2222925E-4],"categories":[],"categories_nodes":[],"categories_segments":[],"categories_sizes":[],"default_left":[0,0,0,0,0,0,0,0,0],"id":50,"left_children":[1,3,-1,5,-1,7,-1,-1,-1],"loss_changes":[4.306025E0,2.8649402E0,0E0,2.3216958E0,0E0,2.625578E0,0E0,0E0,0E0],"parents":[2147483647,0,0,1,1,3,3,5,5],"right_children":[2,4,-1,6,-1,8,-1,-1,-1],"split_conditions":[5E0,6E0,-4.911096E-2,7E0,-4.2955328E-2,6.4324905E-16,-4.1566517E-2,1.973839E-2,-7.2222925E-4],"split_indices":[4,6,0,7,0,10,0,0,0],"split_type":[0,0,0,0,0,0,0,0,0],"sum_hessian":[6.768476E1,6.486759E1,2.817164E0,6.293212E1,1.935473E0,6.158977E1,1.3423487E0,2.9961874E1,3.16279E1],"tree_param":{"num_deleted":"0","num_feature":"13","num_nodes":"9","size_leaf_vector":"1"}},{"base_weights":[-7.9138435E-2,6.3428245E-2,-1.0162201E0,1.7404181E-1,-3.7780574E-1,-1.3799796E-2,-5.887943E-2,3.4268907E-1,-2.0911513E-1,-7.783523E-1,6.251709E-1,2.0772083E-2,-3.8359594E-2,2.6506955E-2,-4.2883247E-2,-9.67848E-3,-6.427946E-2,3.9492328E-2,9.627578E-3],"categories":[],"categories_nodes":[],"categories_segments":[],"categories_sizes":[],"default_left":[0,0,0,0,0,0,0,0,0,0,0,0,0,0,0,0,0,0,0],"id":51,"left_children":[1,3,5,7,9,-1,-1,11,13,15,17,-1,-1,-1,-1,-1,-1,-1,-1],"loss_changes":[8.8651495E0,2.902269E0,7.210636E-1,3.1186123E0,5.29325E0,0E0,0E0,2.9931064E0,7.66184E0,2.419424E0,1.3068032E-1,0E0,0E0,0E0,0E0,0E0,0E0,0E0,0E0],"parents":[2147483647,0,0,1,1,2,2,3,3,4,4,7,7,8,8,9,9,10,10],"right_children":[2,4,6,8,10,-1,-1,12,14,16,18,-1,-1,-1,-1,-1,-1,-1,-1],"split_conditions":[4E0,2.11E2,-8.2298386E-1,2.75E0,2.51E2,-1.3799796E-2,-5.887943E-2,6E0,-5.6806475E-1,-2.3931566E-1,2E0,2.0772083E-2,-3.8359594E-2,2.6506955E-2,-4.2883247E-2,-9.67848E-3,-6.427946E-2,3.9492328E-2,9.627578E-3],"split_indices":[4,12,10,8,12,0,0,6,11,10,1,0,0,0,0,0,0,0,0],"split_type":[0,0,0,0,0,0,0,0,0,0,0,0,0,0,0,0,0,0,0],"sum_hessian":[6.4875114E1,5.711761E1,7.7575035E0,4.6153008E1,1.0964604E1,1.8735518E0,5.8839517E0,3.2120655E1,1.4032351E1,7.9954977E0,2.9691072E0,3.0731873E1,1.3887823E0,6.6429334E0,7.3894176E0,4.355616E0,3.6398816E0,1.5524423E0,1.4166648E0],"tree_param":{"num_deleted":"0","num_feature":"13","num_nodes":"19","size_leaf_vector":"1"}},{"base_weights":[5.855687E-2,1.16873555E-1,-6.479595E-1,1.6058236E-1,-4.199178E-2,1.6956808E-3,-4.825917E-2,2.0375925E-1,-4.0442493E-2,1.45340385E-2,-1.3562678E-2],"categories":[],"categories_nodes":[],"categories_segments":[],"categories_sizes":[],"default_left":[0,0,0,0,0,0,0,0,0,0,0],"id":52,"left_children":[1,3,5,7,-1,-1,-1,9,-1,-1,-1],"loss_changes":[2.8729544E0,2.7927973E0,1.185503E0,2.7442155E0,0E0,0E0,0E0,2.5477257E0,0E0,0E0,0E0],"parents":[2147483647,0,0,1,1,2,2,3,3,7,7],"right_children":[2,4,6,8,-1,-1,-1,10,-1,-1,-1],"split_conditions":[5E0,6E0,-6.6312265E-1,9.9270886E-1,-4.199178E-2,1.6956808E-3,-4.825917E-2,4E0,-4.0442493E-2,1.45340385E-2,-1.3562678E-2],"split_indices":[2,6,11,11,0,0,0,4,0,0,0],"split_type":[0,0,0,0,0,0,0,0,0,0,0],"sum_hessian":[6.689102E1,6.2561684E1,4.329337E0,6.0624123E1,1.9375601E0,1.6581769E0,2.6711602E0,5.8795296E1,1.828828E0,5.0028713E1,8.7665825E0],"tree_param":{"num_deleted":"0","num_feature":"13","num_nodes":"11","size_leaf_vector":"1"}},{"base_weights":[2.42588E-2,6.6863954E-2,-4.0147036E-2,2.726483E-3,6.2846386E-1,7.417522E-2,-5.0407946E-2,-3.337953E-2,1.0298421E0,5.877636E-3,-4.0850013E-2,6.288091E-2,9.151237E-3],"categories":[],"categories_nodes":[],"categories_segments":[],"categories_sizes":[],"default_left":[0,0,0,0,0,0,0,0,0,0,0,0,0],"id":53,"left_children":[1,3,-1,5,7,9,-1,-1,11,-1,-1,-1,-1],"loss_changes":[2.4235377E0,2.3349714E0,0E0,4.3525805E0,4.144306E0,2.2704644E0,0E0,0E0,8.2432985E-1,0E0,0E0,0E0,0E0],"parents":[2147483647,0,0,1,1,3,3,4,4,5,5,8,8],"right_children":[2,4,-1,6,8,10,-1,-1,12,-1,-1,-1,-1],"split_conditions":[3.25E0,2.875E0,-4.0147036E-2,2.75E0,1.36E2,5E0,-5.0407946E-2,-3.337953E-2,3E0,5.877636E-3,-4.0850013E-2,6.288091E-2,9.151237E-3],"split_indices":[9,9,0,9,12,1,0,0,2,0,0,0,0],"split_type":[0,0,0,0,0,0,0,0,0,0,0,0,0],"sum_hessian":[6.62432E1,6.3872597E1,2.3706086E0,5.8227573E1,5.645021E0,5.5249218E1,2.9783564E0,1.1780005E0,4.4670205E0,5.3512615E1,1.7366054E0,3.1378841E0,1.3291366E0],"tree_param":{"num_deleted":"0","num_feature":"13","num_nodes":"13","size_leaf_vector":"1"}},{"base_weights":[2.9146738E-2,7.417813E-2,-4.037391E-2,2.7004153E-1,-1.2651275E-1,3.4962925E-1,-4.245038E-2,-6.191343E-1,3.4318188E-1,-2.4041652E-3,2.8044421E-2,-5.6274038E-2,-3.7533238E-3,-3.154112E-2,3.1117305E-2],"categories":[],"categories_nodes":[],"categories_segments":[],"categories_sizes":[],"default_left":[0,0,0,0,0,0,0,0,0,0,0,0,0,0,0],"id":54,"left_children":[1,3,-1,5,7,9,-1,11,13,-1,-1,-1,-1,-1,-1],"loss_changes":[2.5592554E0,2.544706E0,0E0,3.2040207E0,7.669089E0,2.646974E0,0E0,4.3469834E0,5.053216E0,0E0,0E0,0E0,0E0,0E0,0E0],"parents":[2147483647,0,0,1,1,3,3,4,4,5,5,7,7,8,8],"right_children":[2,4,-1,6,8,10,-1,12,14,-1,-1,-1,-1,-1,-1],"split_conditions":[3.25E0,6.4324905E-16,-4.037391E-2,5E0,3E0,2E0,-4.245038E-2,4.6472317E-1,5.6806475E-1,-2.4041652E-3,2.8044421E-2,-5.6274038E-2,-3.7533238E-3,-3.154112E-2,3.1117305E-2],"split_indices":[9,10,0,3,3,0,0,11,10,0,0,0,0,0,0],"split_type":[0,0,0,0,0,0,0,0,0,0,0,0,0,0,0],"sum_hessian":[6.534105E1,6.286849E1,2.4725637E0,3.1642027E1,3.1226461E1,3.0182955E1,1.4590719E0,1.5085958E1,1.6140505E1,1.073876E1,1.9444195E1,7.260346E0,7.8256116E0,3.3149514E0,1.2825552E1],"tree_param":{"num_deleted":"0","num_feature":"13","num_nodes":"15","size_leaf_vector":"1"}},{"base_weights":[-4.3641068E-2,1.9453138E-2,-4.9652856E-2,3.1956488E-1,-1.1837938E-1,5.379446E-1,-6.28745E-2,-8.327114E-1,4.747585E-2,4.07476E-2,9.171824E-3,-4.564974E-2,1.0396982E-2,-6.0502063E-2,3.253384E-2,1.3994795E-2,-2.9028917E-2],"categories":[],"categories_nodes":[],"categories_segments":[],"categories_sizes":[],"default_left":[0,0,0,0,0,0,0,0,0,0,0,0,0,0,0,0,0],"id":55,"left_children":[1,3,-1,5,7,9,11,13,15,-1,-1,-1,-1,-1,-1,-1,-1],"loss_changes":[3.9926598E0,2.6511748E0,0E0,1.7170167E0,5.255254E0,1.1205668E0,2.0824525E0,5.460712E0,5.5159173E0,0E0,0E0,0E0,0E0,0E0,0E0,0E0,0E0],"parents":[2147483647,0,0,1,1,3,3,4,4,5,5,6,6,7,7,8,8],"right_children":[2,4,-1,6,8,10,12,14,16,-1,-1,-1,-1,-1,-1,-1,-1],"split_conditions":[5E0,2E0,-4.9652856E-2,2E0,7.5E1,3.546049E-1,3.1E1,3.5E0,1.83E2,4.07476E-2,9.171824E-3,-4.564974E-2,1.0396982E-2,-6.0502063E-2,3.253384E-2,1.3994795E-2,-2.9028917E-2],"split_indices":[4,9,0,5,12,11,12,8,12,0,0,0,0,0,0,0,0],"split_type":[0,0,0,0,0,0,0,0,0,0,0,0,0,0,0,0,0],"sum_hessian":[6.532999E1,6.2177444E1,3.1525414E0,1.9153902E1,4.3023544E1,1.1933211E1,7.22069E0,7.3493724E0,3.567417E1,5.9697285E0,5.963483E0,1.1715977E0,6.0490923E0,6.005917E0,1.343455E0,2.6442944E1,9.231228E0],"tree_param":{"num_deleted":"0","num_feature":"13","num_nodes":"17","size_leaf_vector":"1"}},{"base_weights":[-1.8246016E-2,3.8497016E-1,-2.3054402E-1,5.1350015E-1,-2.4893568E-1,-6.260408E-1,9.3197905E-2,7.951335E-1,2.4834794E-1,-4.3887902E-2,1.6354524E-2,-6.198333E-2,-3.986688E-2,2.5872713E-1,-5.073489E-2,5.399896E-2,1.3863016E-3,-4.8824318E-2,2.5009293E-2,2.3058688E-2,-5.1162567E-2,1.9740866E-2,-4.7081456E-2],"categories":[],"categories_nodes":[],"categories_segments":[],"categories_sizes":[],"default_left":[0,0,0,0,0,0,0,0,0,0,0,0,0,0,0,0,0,0,0,0,0,0,0],"id":56,"left_children":[1,3,5,7,9,11,13,15,17,-1,-1,-1,19,21,-1,-1,-1,-1,-1,-1,-1,-1,-1],"loss_changes":[5.3781886E0,1.8947966E0,5.3212605E0,1.1733932E0,1.855313E0,6.652071E0,4.567189E0,1.8167086E0,3.8536084E0,0E0,0E0,0E0,5.675951E0,3.8379507E0,0E0,0E0,0E0,0E0,0E0,0E0,0E0,0E0,0E0],"parents":[2147483647,0,0,1,1,2,2,3,3,4,4,5,5,6,6,7,7,8,8,12,12,13,13],"right_children":[2,4,6,8,10,12,14,16,18,-1,-1,-1,20,22,-1,-1,-1,-1,-1,-1,-1,-1,-1],"split_conditions":[2.125E0,3E0,3E0,1.2053668E-1,2E0,3E0,4E0,2E0,3.2E1,-4.3887902E-2,1.6354524E-2,-6.198333E-2,-1.2053668E-1,2.11E2,-5.073489E-2,5.399896E-2,1.3863016E-3,-4.8824318E-2,2.5009293E-2,2.3058688E-2,-5.1162567E-2,1.9740866E-2,-4.7081456E-2],"split_indices":[9,1,7,11,6,4,4,5,12,0,0,0,11,12,0,0,0,0,0,0,0,0,0],"split_type":[0,0,0,0,0,0,0,0,0,0,0,0,0,0,0,0,0,0,0,0,0,0,0],"sum_hessian":[6.0791042E1,2.0687004E1,4.010404E1,1.7357552E1,3.3294537E0,1.7631226E1,2.2472813E1,7.447914E0,9.9096365E0,1.3413475E0,1.9881063E0,8.06924E0,9.561985E0,2.0218468E1,2.254345E0,5.1347084E0,2.313206E0,1.1993005E0,8.710337E0,6.6863046E0,2.8756807E0,1.8762371E1,1.4560974E0],"tree_param":{"num_deleted":"0","num_feature":"13","num_nodes":"23","size_leaf_vector":"1"}},{"base_weights":[2.7983703E-2,1.176207E-1,-3.9474982E-1,3.644834E-1,-7.723421E-2,-7.5934386E-1,5.599331E-1,4.5111415E-1,-3.741403E-2,-5.776353E-1,3.3269593E-1,-2.9741326E-1,-5.4061897E-2,3.7424542E-2,6.37457E-3,1.4562535E-3,3.4969527E-2,-3.700493E-2,3.9817017E-2,2.4597276E-2,-3.689818E-2,-2.916087E-2,1.9017074E-2],"categories":[],"categories_nodes":[],"categories_segments":[],"categories_sizes":[],"default_left":[0,0,0,0,0,0,0,0,0,0,0,0,0,0,0,0,0,0,0,0,0,0,0],"id":57,"left_children":[1,3,5,7,9,11,13,15,-1,17,19,21,-1,-1,-1,-1,-1,-1,-1,-1,-1,-1,-1],"loss_changes":[2.5300348E0,2.6664348E0,4.496257E0,2.6867802E0,6.649165E0,1.0000343E0,2.1507013E-1,2.4137821E0,0E0,3.835023E0,3.4214196E0,1.196073E0,0E0,0E0,0E0,0E0,0E0,0E0,0E0,0E0,0E0,0E0,0E0],"parents":[2147483647,0,0,1,1,2,2,3,3,4,4,5,5,6,6,7,7,9,9,10,10,11,11],"right_children":[2,4,6,8,10,12,14,16,-1,18,20,22,-1,-1,-1,-1,-1,-1,-1,-1,-1,-1,-1],"split_conditions":[2.11E2,2.25E0,2.51E2,2.625E0,3E0,1.875E0,2E0,5.7E1,-3.741403E-2,1E0,3.125E0,3E0,-5.4061897E-2,3.7424542E-2,6.37457E-3,1.4562535E-3,3.4969527E-2,-3.700493E-2,3.9817017E-2,2.4597276E-2,-3.689818E-2,-2.916087E-2,1.9017074E-2],"split_indices":[12,8,12,9,7,9,1,12,0,10,9,7,0,0,0,0,0,0,0,0,0,0,0],"split_type":[0,0,0,0,0,0,0,0,0,0,0,0,0,0,0,0,0,0,0,0,0,0,0],"sum_hessian":[6.454331E1,5.3847233E1,1.069608E1,2.3369614E1,3.0477621E1,7.888188E0,2.8078923E0,2.2233309E1,1.1363044E0,1.3540116E1,1.6937506E1,4.02956E0,3.8586278E0,1.4463794E0,1.361513E0,8.649419E0,1.358389E1,1.2520945E1,1.0191714E0,1.5214958E1,1.7225468E0,2.9324527E0,1.0971072E0],"tree_param":{"num_deleted":"0","num_feature":"13","num_nodes":"23","size_leaf_vector":"1"}},{"base_weights":[-2.4543298E-2,1.1583751E-1,-4.8596063E-1,2.4122414E-1,-3.1225935E-1,-3.647184E-2,-5.517884E-2,-2.0925778E-1,3.801666E-1,2.542939E-1,-5.8340073E-2,-3.967313E-2,2.593605E-1,-2.8079687E-2,2.7246261E-2,3.488838E-2,9.063092E-3,2.7304223E-2,-3.892647E-2,2.0592925E-3,3.869621E-2],"categories":[],"categories_nodes":[],"categories_segments":[],"categories_sizes":[],"default_left":[0,0,0,0,0,0,0,0,0,0,0,0,0,0,0,0,0,0,0,0,0],"id":58,"left_children":[1,3,5,7,9,11,-1,13,15,17,-1,-1,19,-1,-1,-1,-1,-1,-1,-1,-1],"loss_changes":[3.949866E0,2.5925756E0,3.9057994E0,2.3851633E0,5.6511583E0,2.2797415E0,0E0,2.7847676E0,1.6744318E0,2.6768155E0,0E0,0E0,8.0028415E-1,0E0,0E0,0E0,0E0,0E0,0E0,0E0,0E0],"parents":[2147483647,0,0,1,1,2,2,3,3,4,4,5,5,7,7,8,8,9,9,12,12],"right_children":[2,4,6,8,10,12,-1,14,16,18,-1,-1,20,-1,-1,-1,-1,-1,-1,-1,-1],"split_conditions":[2.75E0,3E0,-1.2053668E-1,-6.6312265E-1,2E0,-7.485108E-1,-5.517884E-2,2.5E0,2E0,2.02E2,-5.8340073E-2,-3.967313E-2,8E0,-2.8079687E-2,2.7246261E-2,3.488838E-2,9.063092E-3,2.7304223E-2,-3.892647E-2,2.0592925E-3,3.869621E-2],"split_indices":[8,1,11,10,3,11,0,8,5,12,0,0,3,0,0,0,0,0,0,0,0],"split_type":[0,0,0,0,0,0,0,0,0,0,0,0,0,0,0,0,0,0,0,0,0],"sum_hessian":[5.911001E1,4.5895725E1,1.3214283E1,3.5836098E1,1.0059628E1,8.261083E0,4.9532E0,8.328192E0,2.7507904E1,6.4715037E0,3.588124E0,1.8486156E0,6.412467E0,5.8503923E0,2.4777994E0,9.627366E0,1.7880539E1,5.4133954E0,1.0581081E0,5.261595E0,1.1508725E0],"tree_param":{"num_deleted":"0","num_feature":"13","num_nodes":"21","size_leaf_vector":"1"}},{"base_weights":[-1.39212E-2,7.839114E-2,-4.564191E-1,1.3104054E-1,-3.881314E-2,-7.9973185E-1,2.7950171E-2,2.3686495E-1,-2.7066752E-1,-1.0131124E-1,-5.9230424E-2,-1.1205325E-2,1.688432E-2,-4.4807498E-4,-4.401305E-2,2.0457447E-2,-3.9287783E-2],"categories":[],"categories_nodes":[],"categories_segments":[],"categories_sizes":[],"default_left":[0,0,0,0,0,0,0,0,0,0,0,0,0,0,0,0,0],"id":59,"left_children":[1,3,5,7,-1,9,-1,11,13,15,-1,-1,-1,-1,-1,-1,-1],"loss_changes":[2.6514816E0,2.5241585E0,4.351285E0,2.2562547E0,0E0,2.2404046E0,0E0,1.9973702E0,1.7818992E0,1.793542E0,0E0,0E0,0E0,0E0,0E0,0E0,0E0],"parents":[2147483647,0,0,1,1,2,2,3,3,5,5,7,7,8,8,9,9],"right_children":[2,4,6,8,-1,10,-1,12,14,16,-1,-1,-1,-1,-1,-1,-1],"split_conditions":[8.85456E-1,3.25E0,1E0,8.2298386E-1,-3.881314E-2,2E0,2.7950171E-2,-8.85456E-1,2.375E0,9.7094184E-1,-5.9230424E-2,-1.1205325E-2,1.688432E-2,-4.4807498E-4,-4.401305E-2,2.0457447E-2,-3.9287783E-2],"split_indices":[10,9,10,11,0,2,0,11,9,10,0,0,0,0,0,0,0],"split_type":[0,0,0,0,0,0,0,0,0,0,0,0,0,0,0,0,0],"sum_hessian":[6.3034996E1,5.2835487E1,1.0199508E1,5.056707E1,2.2684186E0,7.781133E0,2.418374E0,4.034824E1,1.0218828E1,3.2133045E0,4.5678287E0,7.0215955E0,3.3326645E1,7.8593936E0,2.3594344E0,2.0709803E0,1.1423243E0],"tree_param":{"num_deleted":"0","num_feature":"13","num_nodes":"17","size_leaf_vector":"1"}},{"base_weights":[-4.1074313E-2,1.5839131E-4,-3.8966842E-2,-7.702027E-2,4.7589317E-1,7.956144E-4,-4.956425E-2,5.287478E-2,-1.2933458E-1,3.5483886E-3,-5.064736E-2,-4.2876635E-2,2.3874778E-2],"categories":[],"categories_nodes":[],"categories_segments":[],"categories_sizes":[],"default_left":[0,0,0,0,0,0,0,0,0,0,0,0,0],"id":60,"left_children":[1,3,-1,5,7,9,-1,-1,11,-1,-1,-1,-1],"loss_changes":[1.909322E0,2.2543745E0,0E0,3.759391E0,3.1535723E0,3.606375E0,0E0,0E0,2.6591115E0,0E0,0E0,0E0,0E0],"parents":[2147483647,0,0,1,1,3,3,4,4,5,5,8,8],"right_children":[2,4,-1,6,8,10,-1,-1,12,-1,-1,-1,-1],"split_conditions":[3.25E0,3.25E0,-3.8966842E-2,2.75E0,2E0,3E0,-4.956425E-2,5.287478E-2,3E0,3.5483886E-3,-5.064736E-2,-4.2876635E-2,2.3874778E-2],"split_indices":[9,8,0,9,2,8,0,0,6,0,0,0,0],"split_type":[0,0,0,0,0,0,0,0,0,0,0,0,0],"sum_hessian":[6.171891E1,5.9401085E1,2.317825E0,5.1830677E1,7.5704107E0,4.868599E1,3.144685E0,3.4794822E0,4.090928E0,4.640387E1,2.2821214E0,1.6717219E0,2.4192064E0],"tree_param":{"num_deleted":"0","num_feature":"13","num_nodes":"13","size_leaf_vector":"1"}},{"base_weights":[-3.0270137E-3,9.728433E-2,-5.6644523E-1,2.0269887E-1,-4.7419944E-1,1.7599046E-1,-5.727873E-2,2.642807E-1,-4.0460464E-2,2.0618278E-1,-8.283255E-1,-4.2843338E-2,4.3426692E-2,1.546863E-2,-3.8017042E-2,-1.0817329E-2,3.301753E-2,-5.4843843E-2,5.4508834E-3],"categories":[],"categories_nodes":[],"categories_segments":[],"categories_sizes":[],"default_left":[0,0,0,0,0,0,0,0,0,0,0,0,0,0,0,0,0,0,0],"id":61,"left_children":[1,3,5,7,9,11,-1,13,-1,15,17,-1,-1,-1,-1,-1,-1,-1,-1],"loss_changes":[3.5163724E0,3.279363E0,4.2443047E0,3.0374799E0,2.2256198E0,4.311469E0,0E0,2.2434695E0,0E0,8.56743E-1,1.5816717E0,0E0,0E0,0E0,0E0,0E0,0E0,0E0,0E0],"parents":[2147483647,0,0,1,1,2,2,3,3,4,4,5,5,7,7,9,9,10,10],"right_children":[2,4,6,8,10,12,-1,14,-1,16,18,-1,-1,-1,-1,-1,-1,-1,-1],"split_conditions":[8.85456E-1,4E0,2E0,5E0,-8.2298386E-1,1.25E2,-5.727873E-2,7E0,-4.0460464E-2,5E0,4E0,-4.2843338E-2,4.3426692E-2,1.546863E-2,-3.8017042E-2,-1.0817329E-2,3.301753E-2,-5.4843843E-2,5.4508834E-3],"split_indices":[10,4,2,6,10,12,0,7,0,6,2,0,0,0,0,0,0,0,0],"split_type":[0,0,0,0,0,0,0,0,0,0,0,0,0,0,0,0,0,0,0],"sum_hessian":[6.0242664E1,5.1840313E1,8.402351E0,4.4311947E1,7.528365E0,3.9870813E0,4.4152703E0,4.2466396E1,1.8455539E0,2.7200687E0,4.8082967E0,1.5051018E0,2.4819794E0,4.1344933E1,1.121461E0,1.6803852E0,1.0396835E0,3.6051993E0,1.2030972E0],"tree_param":{"num_deleted":"0","num_feature":"13","num_nodes":"19","size_leaf_vector":"1"}},{"base_weights":[-8.443257E-2,2.487848E-2,-7.016693E-1,1.4586599E-1,-5.982032E-1,-3.1989507E-2,-6.1543692E-2,-1.8958277E-1,3.152833E-1,-6.090778E-2,5.3158844E-1,-3.9470408E-2,3.9779478E-1,2.7457692E-3,-4.89119E-2,2.0410987E-2,-3.5950933E-2,3.6338437E-2,5.162492E-3,3.8750134E-2,-1.31630665E-2],"categories":[],"categories_nodes":[],"categories_segments":[],"categories_sizes":[],"default_left":[0,0,0,0,0,0,0,0,0,0,0,0,0,0,0,0,0,0,0,0,0],"id":62,"left_children":[1,3,5,7,9,11,-1,13,15,-1,17,-1,19,-1,-1,-1,-1,-1,-1,-1,-1],"loss_changes":[4.013762E0,3.953351E0,3.130916E0,2.5460947E0,6.6256447E0,1.9336433E0,0E0,3.0049937E0,3.123809E0,0E0,2.3598588E-1,0E0,1.1613436E0,0E0,0E0,0E0,0E0,0E0,0E0,0E0,0E0],"parents":[2147483647,0,0,1,1,2,2,3,3,4,4,5,5,7,7,8,8,10,10,12,12],"right_children":[2,4,6,8,10,12,-1,14,16,-1,18,-1,20,-1,-1,-1,-1,-1,-1,-1,-1],"split_conditions":[8.2298386E-1,2.11E2,-1.2053668E-1,8.4E1,2.51E2,-3.546049E-1,-6.1543692E-2,8.2298386E-1,3.25E0,-6.090778E-2,2E0,-3.9470408E-2,1.75E0,2.7457692E-3,-4.89119E-2,2.0410987E-2,-3.5950933E-2,3.6338437E-2,5.162492E-3,3.8750134E-2,-1.31630665E-2],"split_indices":[11,12,10,12,12,10,0,10,9,0,1,0,8,0,0,0,0,0,0,0,0],"split_type":[0,0,0,0,0,0,0,0,0,0,0,0,0,0,0,0,0,0,0,0,0],"sum_hessian":[5.8230156E1,5.028458E1,7.945577E0,4.2749542E1,7.535039E0,3.9753873E0,3.97019E0,1.430547E1,2.844407E1,4.8147955E0,2.7202435E0,1.1362296E0,2.8391576E0,1.1630242E1,2.675228E0,2.6654379E1,1.7896911E0,1.3901024E0,1.3301411E0,1.6979265E0,1.1412312E0],"tree_param":{"num_deleted":"0","num_feature":"13","num_nodes":"21","size_leaf_vector":"1"}},{"base_weights":[-1.7630115E-2,-2.2027557E-1,2.1503678E-1,1.6874273E-1,-7.9513854E-1,-7.651215E-2,5.532171E-1,-3.8325913E-2,2.6739416E-1,1.168036E-2,-9.871077E-1,-4.1007036E-1,5.256331E-1,7.5431716E-1,-7.760995E-2,-1.6885906E-2,1.9726845E-2,-1.1628828E-2,-6.0295355E-2,-5.7438303E-2,5.3798425E-4,4.5722287E-2,-3.708493E-2,4.8897423E-2,1.4482667E-2,-4.249225E-2,2.46777E-2],"categories":[],"categories_nodes":[],"categories_segments":[],"categories_sizes":[],"default_left":[0,0,0,0,0,0,0,0,0,0,0,0,0,0,0,0,0,0,0,0,0,0,0,0,0,0,0],"id":63,"left_children":[1,3,5,7,9,11,13,-1,15,-1,17,19,21,23,25,-1,-1,-1,-1,-1,-1,-1,-1,-1,-1,-1,-1],"loss_changes":[2.9070916E0,7.4943542E0,2.8760853E0,2.0921278E0,2.888422E0,3.492055E0,1.7619967E0,0E0,1.6137571E0,0E0,1.6235523E0,3.4504147E0,3.7597048E0,7.844739E-1,2.2510476E0,0E0,0E0,0E0,0E0,0E0,0E0,0E0,0E0,0E0,0E0,0E0,0E0],"parents":[2147483647,0,0,1,1,2,2,3,3,4,4,5,5,6,6,8,8,10,10,11,11,12,12,13,13,14,14],"right_children":[2,4,6,8,10,12,14,-1,16,-1,18,20,22,24,26,-1,-1,-1,-1,-1,-1,-1,-1,-1,-1,-1,-1],"split_conditions":[3E0,6.4324905E-16,5.6806475E-1,-9.7094184E-1,4E1,1.8E2,2.01E2,-3.8325913E-2,5.8E1,1.168036E-2,2E0,4E0,2E0,2.75E0,3E0,-1.6885906E-2,1.9726845E-2,-1.1628828E-2,-6.0295355E-2,-5.7438303E-2,5.3798425E-4,4.5722287E-2,-3.708493E-2,4.8897423E-2,1.4482667E-2,-4.249225E-2,2.46777E-2],"split_indices":[3,10,10,10,12,12,12,0,12,0,9,3,6,8,6,0,0,0,0,0,0,0,0,0,0,0,0],"split_type":[0,0,0,0,0,0,0,0,0,0,0,0,0,0,0,0,0,0,0,0,0,0,0,0,0,0,0],"sum_hessian":[5.9653053E1,3.191199E1,2.7741066E1,1.9453787E1,1.2458201E1,1.53131695E1,1.24278965E1,1.2102352E0,1.8243553E1,1.9250623E0,1.0533139E1,1.0059627E1,5.253543E0,9.275288E0,3.1526093E0,2.880089E0,1.5363463E1,2.8315363E0,7.7016025E0,3.0231817E0,7.0364447E0,4.233247E0,1.0202963E0,5.5159574E0,3.7593303E0,1.1329291E0,2.0196803E0],"tree_param":{"num_deleted":"0","num_feature":"13","num_nodes":"27","size_leaf_vector":"1"}},{"base_weights":[5.6523576E-2,9.446349E-2,-3.9447423E-2,2.3699024E-1,-2.0355245E-1,3.4338784E-1,-3.7832215E-1,2.1987498E-1,-7.272835E-1,1.504957E-3,3.0519187E-2,1.3169448E-2,-5.058198E-2,2.4131428E-2,-4.0708825E-2,-5.0581653E-2,4.0113475E-2],"categories":[],"categories_nodes":[],"categories_segments":[],"categories_sizes":[],"default_left":[0,0,0,0,0,0,0,0,0,0,0,0,0,0,0,0,0],"id":64,"left_children":[1,3,-1,5,7,9,11,13,15,-1,-1,-1,-1,-1,-1,-1,-1],"loss_changes":[2.101447E0,2.6548715E0,0E0,2.877993E0,4.682114E0,3.019012E0,2.9747887E0,3.6652231E0,4.877503E0,0E0,0E0,0E0,0E0,0E0,0E0,0E0,0E0],"parents":[2147483647,0,0,1,1,3,3,4,4,5,5,6,6,7,7,8,8],"right_children":[2,4,-1,6,8,10,12,14,16,-1,-1,-1,-1,-1,-1,-1,-1],"split_conditions":[6E0,3E0,-3.9447423E-2,4E0,-3.2162452E-16,3E0,-1.2053668E-1,1.5E2,8E0,1.504957E-3,3.0519187E-2,1.3169448E-2,-5.058198E-2,2.4131428E-2,-4.0708825E-2,-5.0581653E-2,4.0113475E-2],"split_indices":[6,1,0,0,10,3,10,12,3,0,0,0,0,0,0,0,0],"split_type":[0,0,0,0,0,0,0,0,0,0,0,0,0,0,0,0,0],"sum_hessian":[6.2188953E1,6.0368248E1,1.8207077E0,4.097611E1,1.9392138E1,3.531201E1,5.664096E0,1.1043686E1,8.348453E0,1.6759464E1,1.855255E1,3.1035376E0,2.560558E0,9.231274E0,1.8124119E0,7.325267E0,1.0231854E0],"tree_param":{"num_deleted":"0","num_feature":"13","num_nodes":"17","size_leaf_vector":"1"}},{"base_weights":[1.03272386E-1,2.4588744E-1,-2.272779E-1,