{"learner":{"attributes":{"scikit_learn":"{\"_estimator_type\": \"classifier\"}"},"feature_names":[],"feature_types":[],"gradient_booster":{"model":{"gbtree_model_param":{"num_parallel_tree":"1","num_trees":"400"},"iteration_indptr":[0,1,2,3,4,5,6,7,8,9,10,11,12,13,14,15,16,17,18,19,20,21,22,23,24,25,26,27,28,29,30,31,32,33,34,35,36,37,38,39,40,41,42,43,44,45,46,47,48,49,50,51,52,53,54,55,56,57,58,59,60,61,62,63,64,65,66,67,68,69,70,71,72,73,74,75,76,77,78,79,80,81,82,83,84,85,86,87,88,89,90,91,92,93,94,95,96,97,98,99,100,101,102,103,104,105,106,107,108,109,110,111,112,113,114,115,116,117,118,119,120,121,122,123,124,125,126,127,128,129,130,131,132,133,134,135,136,137,138,139,140,141,142,143,144,145,146,147,148,149,150,151,152,153,154,155,156,157,158,159,160,161,162,163,164,165,166,167,168,169,170,171,172,173,174,175,176,177,178,179,180,181,182,183,184,185,186,187,188,189,190,191,192,193,194,195,196,197,198,199,200,201,202,203,204,205,206,207,208,209,210,211,212,213,214,215,216,217,218,219,220,221,222,223,224,225,226,227,228,229,230,231,232,233,234,235,236,237,238,239,240,241,242,243,244,245,246,247,248,249,250,251,252,253,254,255,256,257,258,259,260,261,262,263,264,265,266,267,268,269,270,271,272,273,274,275,276,277,278,279,280,281,282,283,284,285,286,287,288,289,290,291,292,293,294,295,296,297,298,299,300,301,302,303,304,305,306,307,308,309,310,311,312,313,314,315,316,317,318,319,320,321,322,323,324,325,326,327,328,329,330,331,332,333,334,335,336,337,338,339,340,341,342,343,344,345,346,347,348,349,350,351,352,353,354,355,356,357,358,359,360,361,362,363,364,365,366,367,368,369,370,371,372,373,374,375,376,377,378,379,380,381,382,383,384,385,386,387,388,389,390,391,392,393,394,395,396,397,398,399,400],"tree_info":[0,0,0,0,0,0,0,0,0,0,0,0,0,0,0,0,0,0,0,0,0,0,0,0,0,0,0,0,0,0,0,0,0,0,0,0,0,0,0,0,0,0,0,0,0,0,0,0,0,0,0,0,0,0,0,0,0,0,0,0,0,0,0,0,0,0,0,0,0,0,0,0,0,0,0,0,0,0,0,0,0,0,0,0,0,0,0,0,0,0,0,0,0,0,0,0,0,0,0,0,0,0,0,0,0,0,0,0,0,0,0,0,0,0,0,0,0,0,0,0,0,0,0,0,0,0,0,0,0,0,0,0,0,0,0,0,0,0,0,0,0,0,0,0,0,0,0,0,0,0,0,0,0,0,0,0,0,0,0,0,0,0,0,0,0,0,0,0,0,0,0,0,0,0,0,0,0,0,0,0,0,0,0,0,0,0,0,0,0,0,0,0,0,0,0,0,0,0,0,0,0,0,0,0,0,0,0,0,0,0,0,0,0,0,0,0,0,0,0,0,0,0,0,0,0,0,0,0,0,0,0,0,0,0,0,0,0,0,0,0,0,0,0,0,0,0,0,0,0,0,0,0,0,0,0,0,0,0,0,0,0,0,0,0,0,0,0,0,0,0,0,0,0,0,0,0,0,0,0,0,0,0,0,0,0,0,0,0,0,0,0,0,0,0,0,0,0,0,0,0,0,0,0,0,0,0,0,0,0,0,0,0,0,0,0,0,0,0,0,0,0,0,0,0,0,0,0,0,0,0,0,0,0,0,0,0,0,0,0,0,0,0,0,0,0,0,0,0,0,0,0,0,0,0,0,0,0,0,0,0,0,0,0,0,0,0,0,0,0,0,0,0,0,0,0,0,0,0,0,0,0,0,0,0,0,0,0,0,0,0,0,0,0,0,0,0,0,0,0,0],"trees":[{"base_weights":[2.516457E-2,2.0583105E-1,-1.3579423E0,3.5766423E-1,-1.4139403E0,-1.5732781E0,2.9356359E-2,-3.1223768E-2,9.26878E-1,2.9356359E-2,-8.7878786E-2,-6.677445E-1,-8.974359E-2,4.5641806E-2,-2.0668318E-2,-3.3387225E-2,5.398773E-2,-6.666667E-2,2.9356359E-2],"categories":[],"categories_nodes":[],"categories_segments":[],"categories_sizes":[],"default_left":[0,0,0,0,0,0,0,0,0,0,0,0,0,0,0,0,0,0,0],"id":0,"left_children":[1,3,5,7,9,11,-1,13,15,-1,-1,17,-1,-1,-1,-1,-1,-1,-1],"loss_changes":[3.0267733E1,2.6824045E1,6.7861195E0,2.1863928E1,7.477379E0,1.3846531E0,0E0,2.1868135E1,1.04892845E1,0E0,0E0,4.226762E0,0E0,0E0,0E0,0E0,0E0,0E0,0E0],"parents":[2147483647,0,0,1,1,2,2,3,3,4,4,5,5,7,7,8,8,11,11],"right_children":[2,4,6,8,10,12,-1,14,16,-1,-1,18,-1,-1,-1,-1,-1,-1,-1],"split_conditions":[3.8E1,3.225E1,4E1,3E1,2.4E1,2.5E1,2.9356359E-2,2.475E1,2.1E1,2.9356359E-2,-8.7878786E-2,2.4E1,-8.974359E-2,4.5641806E-2,-2.0668318E-2,-3.3387225E-2,5.398773E-2,-6.666667E-2,2.9356359E-2],"split_indices":[2,9,5,2,0,0,0,9,7,0,0,0,0,0,0,0,0,0,0],"split_type":[0,0,0,0,0,0,0,0,0,0,0,0,0,0,0,0,0,0,0],"sum_hessian":[1.1901E2,1.06013336E2,1.2996667E1,9.764E1,8.373333E0,1.1873333E1,1.1233333E0,5.857E1,3.907E1,1.1233333E0,7.25E0,3.1233335E0,8.75E0,1.6476667E1,4.2093334E1,3.1233335E0,3.5946667E1,2E0,1.1233333E0],"tree_param":{"num_deleted":"0","num_feature":"13","num_nodes":"19","size_leaf_vector":"1"}},{"base_weights":[-5.0413046E-2,1.005739E-1,-1.2516421E0,2.9694417E-1,-8.754251E-1,-1.4750444E0,2.9290175E-2,4.3971667E-1,-9.902326E-1,-1.1701044E0,3.946625E-2,-8.570355E-2,-4.5784688E-1,3.4346353E-2,-1.0390913E-2,2.8315604E-2,-8.37703E-2,1.979912E-2,-7.7116065E-2,-5.3897746E-2,1.6143067E-2],"categories":[],"categories_nodes":[],"categories_segments":[],"categories_sizes":[],"default_left":[0,0,0,0,0,0,0,0,0,0,0,0,0,0,0,0,0,0,0,0,0],"id":1,"left_children":[1,3,5,7,9,11,-1,13,15,17,-1,-1,19,-1,-1,-1,-1,-1,-1,-1,-1],"loss_changes":[2.1086124E1,2.011332E1,6.191574E0,1.642073E1,9.559599E0,2.0977898E0,0E0,1.2787492E1,1.0539172E1,9.564129E0,0E0,0E0,2.1007023E0,0E0,0E0,0E0,0E0,0E0,0E0,0E0,0E0],"parents":[2147483647,0,0,1,1,2,2,3,3,4,4,5,5,7,7,8,8,9,9,12,12],"right_children":[2,4,6,8,10,12,-1,14,16,18,-1,-1,20,-1,-1,-1,-1,-1,-1,-1,-1],"split_conditions":[3.8E1,3.6E1,4.3E1,3.8E1,4.6E1,3.9E1,2.9290175E-2,3.2E1,2E1,-9.350162E-1,3.946625E-2,-8.570355E-2,2.6E1,3.4346353E-2,-1.0390913E-2,2.8315604E-2,-8.37703E-2,1.979912E-2,-7.7116065E-2,-5.3897746E-2,1.6143067E-2],"split_indices":[2,3,7,5,3,4,0,4,4,10,0,0,1,0,0,0,0,0,0,0,0],"split_type":[0,0,0,0,0,0,0,0,0,0,0,0,0,0,0,0,0,0,0,0,0],"sum_hessian":[1.1456627E2,1.0258789E2,1.1978379E1,8.598377E1,1.6604116E1,1.0855737E1,1.1226425E0,7.7991425E1,7.9923534E0,1.4359462E1,2.2446554E0,8.235436E0,2.6203003E0,5.6399044E1,2.159238E1,2.4958572E0,5.496496E0,2.7452197E0,1.1614243E1,1.2481606E0,1.3721399E0],"tree_param":{"num_deleted":"0","num_feature":"13","num_nodes":"21","size_leaf_vector":"1"}},{"base_weights":[-1.6945321E-2,1.3408202E-1,-1.2038532E0,3.5781127E-1,-8.0140907E-1,-8.258151E-2,-1.5808405E-1,5.019666E-1,-9.231267E-1,-1.0383745E0,3.6914464E-2,3.7995394E-2,-5.934152E-2,3.130742E-2,-5.3467657E-2,2.7310317E-2,-7.994293E-2,-7.4962005E-2,4.0997327E-3],"categories":[],"categories_nodes":[],"categories_segments":[],"categories_sizes":[],"default_left":[0,0,0,0,0,0,0,0,0,0,0,0,0,0,0,0,0,0,0],"id":2,"left_children":[1,3,5,7,9,-1,11,13,15,17,-1,-1,-1,-1,-1,-1,-1,-1,-1],"loss_changes":[2.0541727E1,2.15848E1,5.795578E0,1.575489E1,8.044875E0,0E0,5.6082926E0,1.5320402E1,9.540166E0,9.263815E0,0E0,0E0,0E0,0E0,0E0,0E0,0E0,0E0,0E0],"parents":[2147483647,0,0,1,1,2,2,3,3,4,4,6,6,7,7,8,8,9,9],"right_children":[2,4,6,8,10,-1,12,14,16,18,-1,-1,-1,-1,-1,-1,-1,-1,-1],"split_conditions":[3.8E1,3.5E1,3.2875E1,3.8E1,3.8E1,-8.258151E-2,2.8E1,3.8E1,2E1,3.3E1,3.6914464E-2,3.7995394E-2,-5.934152E-2,3.130742E-2,-5.3467657E-2,2.7310317E-2,-7.994293E-2,-7.4962005E-2,4.0997327E-3],"split_indices":[2,3,9,5,6,0,0,0,4,2,0,0,0,0,0,0,0,0,0],"split_type":[0,0,0,0,0,0,0,0,0,0,0,0,0,0,0,0,0,0,0],"sum_hessian":[1.1269417E2,1.00760056E2,1.1934116E1,8.181172E1,1.8948334E1,7.9505215E0,3.9835944E0,7.408267E1,7.7290525E0,1.670324E1,2.2450936E0,2.243212E0,1.7403823E0,6.921417E1,4.8685E0,2.4951658E0,5.2338867E0,1.1595321E1,5.1079187E0],"tree_param":{"num_deleted":"0","num_feature":"13","num_nodes":"19","size_leaf_vector":"1"}},{"base_weights":[-5.016043E-2,8.76052E-2,-1.1717687E0,2.5716713E-1,-7.048771E-1,-1.3811474E0,2.825511E-2,4.0347722E-1,-9.8159754E-1,-3.5418417E-2,-8.202648E-2,-8.047987E-2,-4.0180597E-1,3.1671327E-2,-1.7068412E-2,2.6347933E-2,-7.888558E-2,-5.554522E-2,6.0952563E-2,-5.3964283E-2,2.9083738E-2],"categories":[],"categories_nodes":[],"categories_segments":[],"categories_sizes":[],"default_left":[0,0,0,0,0,0,0,0,0,0,0,0,0,0,0,0,0,0,0,0,0],"id":3,"left_children":[1,3,5,7,9,11,-1,13,15,17,-1,-1,19,-1,-1,-1,-1,-1,-1,-1,-1],"loss_changes":[1.8522535E1,1.4572526E1,5.548109E0,1.6518475E1,1.1933009E1,2.0357666E0,0E0,1.3964013E1,9.543398E0,1.7788694E1,0E0,0E0,3.0267892E0,0E0,0E0,0E0,0E0,0E0,0E0,0E0,0E0],"parents":[2147483647,0,0,1,1,2,2,3,3,4,4,5,5,7,7,8,8,9,9,12,12],"right_children":[2,4,6,8,10,12,-1,14,16,18,-1,-1,20,-1,-1,-1,-1,-1,-1,-1,-1],"split_conditions":[3.8E1,3.6E1,4E1,3.8E1,1.46E2,3.6E1,2.825511E-2,7.485108E-1,2E1,1.11E2,-8.202648E-2,-8.047987E-2,1.34E2,3.1671327E-2,-1.7068412E-2,2.6347933E-2,-7.888558E-2,-5.554522E-2,6.0952563E-2,-5.3964283E-2,2.9083738E-2],"split_indices":[2,3,7,5,12,6,0,10,4,12,0,0,12,0,0,0,0,0,0,0,0],"split_type":[0,0,0,0,0,0,0,0,0,0,0,0,0,0,0,0,0,0,0,0,0],"sum_hessian":[1.1820782E2,1.06097855E2,1.2109963E1,8.795436E1,1.8143492E1,1.098994E1,1.120023E0,7.926651E1,8.687852E0,1.1181204E1,6.962288E0,8.389402E0,2.6005378E0,6.068223E1,1.858428E1,2.4935527E0,6.194299E0,6.081681E0,5.099523E0,1.4821388E0,1.118399E0],"tree_param":{"num_deleted":"0","num_feature":"13","num_nodes":"21","size_leaf_vector":"1"}},{"base_weights":[6.6252105E-2,2.0568742E-1,-1.0186241E0,3.3107466E-1,-8.505665E-1,-1.4177749E-1,-8.057165E-2,4.739435E-1,-6.433789E-1,-7.707725E-2,-4.3078054E-2,-6.25199E-2,5.6836903E-1,-6.729412E-2,2.661552E-2,5.3897635E-3,-7.5290255E-2,6.072809E-2,-3.7542216E-2,-9.621058E-3,6.124235E-2],"categories":[],"categories_nodes":[],"categories_segments":[],"categories_sizes":[],"default_left":[0,0,0,0,0,0,0,0,0,0,0,0,0,0,0,0,0,0,0,0,0],"id":4,"left_children":[1,3,5,7,9,11,-1,13,15,-1,17,-1,19,-1,-1,-1,-1,-1,-1,-1,-1],"loss_changes":[1.8895777E1,1.488883E1,7.1717434E0,1.413062E1,6.6199446E0,6.0949326E0,0E0,9.977148E0,8.663516E0,0E0,6.7463684E0,0E0,2.6610715E0,0E0,0E0,0E0,0E0,0E0,0E0,0E0,0E0],"parents":[2147483647,0,0,1,1,2,2,3,3,4,4,5,5,7,7,8,8,10,10,12,12],"right_children":[2,4,6,8,10,12,-1,14,16,-1,18,-1,20,-1,-1,-1,-1,-1,-1,-1,-1],"split_conditions":[3.8E1,3.8E1,3.0125E1,3.6E1,3E1,3.15E1,-8.057165E-2,1.6E1,1.45E2,-7.707725E-2,2.4E1,-6.25199E-2,3.5E1,-6.729412E-2,2.661552E-2,5.3897635E-3,-7.5290255E-2,6.072809E-2,-3.7542216E-2,-9.621058E-3,6.124235E-2],"split_indices":[0,5,9,3,8,8,0,0,12,0,6,0,5,0,0,0,0,0,0,0,0],"split_type":[0,0,0,0,0,0,0,0,0,0,0,0,0,0,0,0,0,0,0,0,0],"sum_hessian":[1.2252913E2,1.0929255E2,1.3236581E1,9.8308914E1,1.098363E1,5.839021E0,7.3975596E0,8.6186386E1,1.2122528E1,5.428948E0,5.5546823E0,1.9828318E0,3.8561895E0,1.9928266E0,8.4193565E1,6.9468365E0,5.175692E0,1.7424496E0,3.8122327E0,2.1136155E0,1.7425739E0],"tree_param":{"num_deleted":"0","num_feature":"13","num_nodes":"21","size_leaf_vector":"1"}},{"base_weights":[-4.479681E-3,1.3364375E-1,-1.1356027E0,-1.773201E-1,5.6443447E-1,-1.3354589E0,2.7449299E-2,6.3799113E-1,-4.9724475E-1,7.7996033E-1,-9.714565E-1,-7.7690884E-2,-3.81501E-1,4.095306E-2,-2.073509E-2,6.0373288E-2,-3.187634E-2,-1.279207E-2,4.8082467E-2,-7.0776395E-2,1.5746418E-2,-5.194477E-2,2.8295834E-2],"categories":[],"categories_nodes":[],"categories_segments":[],"categories_sizes":[],"default_left":[0,0,0,0,0,0,0,0,0,0,0,0,0,0,0,0,0,0,0,0,0,0,0],"id":5,"left_children":[1,3,5,7,9,11,-1,13,15,17,19,-1,21,-1,-1,-1,-1,-1,-1,-1,-1,-1,-1],"loss_changes":[1.8976236E1,1.4604138E1,5.1830673E0,1.691748E1,1.5862115E1,1.9291229E0,0E0,3.8417945E0,1.1834521E1,7.8808517E0,3.9077663E0,0E0,2.8179407E0,0E0,0E0,0E0,0E0,0E0,0E0,0E0,0E0,0E0,0E0],"parents":[2147483647,0,0,1,1,2,2,3,3,4,4,5,5,7,7,8,8,9,9,10,10,12,12],"right_children":[2,4,6,8,10,12,-1,14,16,18,20,-1,22,-1,-1,-1,-1,-1,-1,-1,-1,-1,-1],"split_conditions":[3.8E1,3E1,3.8E1,2.475E1,3.2625E1,3.6E1,2.7449299E-2,2.8E1,-9.9270886E-1,2.3E1,3.8E1,-7.7690884E-2,1.38E2,4.095306E-2,-2.073509E-2,6.0373288E-2,-3.187634E-2,-1.279207E-2,4.8082467E-2,-7.0776395E-2,1.5746418E-2,-5.194477E-2,2.8295834E-2],"split_indices":[2,2,5,9,9,6,0,5,10,5,6,0,12,0,0,0,0,0,0,0,0,0,0],"split_type":[0,0,0,0,0,0,0,0,0,0,0,0,0,0,0,0,0,0,0,0,0,0,0],"sum_hessian":[1.1948849E2,1.07271255E2,1.2217234E1,6.2641922E1,4.4629333E1,1.1106795E1,1.1104388E0,1.7373156E1,4.526877E1,3.9568947E1,5.060386E0,8.526327E0,2.580468E0,1.5012794E1,2.3603616E0,2.8635414E0,4.2405224E1,5.8440614E0,3.3724884E1,3.6871555E0,1.3732309E0,1.4664041E0,1.1140637E0],"tree_param":{"num_deleted":"0","num_feature":"13","num_nodes":"23","size_leaf_vector":"1"}},{"base_weights":[-1.8081497E-2,1.09680735E-1,-1.0866838E0,2.7767268E-1,-7.5330627E-1,-1.285309E0,2.6745502E-2,4.0457132E-1,-8.795382E-1,-1.3327773E0,1.8952468E-1,-7.495829E-2,-3.760365E-1,2.596418E-2,-3.8792342E-2,2.49497E-2,-7.2746515E-2,3.5477437E-3,-7.877861E-2,-5.980993E-2,4.8282295E-2,2.7619306E-2,-5.1044613E-2],"categories":[],"categories_nodes":[],"categories_segments":[],"categories_sizes":[],"default_left":[0,0,0,0,0,0,0,0,0,0,0,0,0,0,0,0,0,0,0,0,0,0,0],"id":6,"left_children":[1,3,5,7,9,11,-1,13,15,17,19,-1,21,-1,-1,-1,-1,-1,-1,-1,-1,-1,-1],"loss_changes":[1.6437927E1,1.5818804E1,4.828394E0,1.3698126E1,9.985004E0,1.7205582E0,0E0,1.1582714E1,8.09782E0,3.9144325E0,9.389456E0,0E0,2.7022524E0,0E0,0E0,0E0,0E0,0E0,0E0,0E0,0E0,0E0,0E0],"parents":[2147483647,0,0,1,1,2,2,3,3,4,4,5,5,7,7,8,8,9,9,10,10,12,12],"right_children":[2,4,6,8,10,12,-1,14,16,18,20,-1,22,-1,-1,-1,-1,-1,-1,-1,-1,-1,-1],"split_conditions":[3.8E1,3.6E1,4E1,3.8E1,3.4E1,3.6E1,2.6745502E-2,3.8E1,2E1,2E1,4E1,-7.495829E-2,3.9E1,2.596418E-2,-3.8792342E-2,2.49497E-2,-7.2746515E-2,3.5477437E-3,-7.877861E-2,-5.980993E-2,4.8282295E-2,2.7619306E-2,-5.1044613E-2],"split_indices":[2,3,5,5,7,6,0,0,4,6,3,0,6,0,0,0,0,0,0,0,0,0,0],"split_type":[0,0,0,0,0,0,0,0,0,0,0,0,0,0,0,0,0,0,0,0,0,0,0],"sum_hessian":[1.1852755E2,1.0667128E2,1.1856272E1,8.9857544E1,1.681373E1,1.0747246E1,1.1090256E0,8.1563736E1,8.29381E0,1.0157353E1,6.6563773E0,8.175623E0,2.5716224E0,7.484995E1,6.7137866E0,2.4814634E0,5.8123465E0,1.6021558E0,8.555198E0,2.1953838E0,4.4609933E0,1.1128325E0,1.45879E0],"tree_param":{"num_deleted":"0","num_feature":"13","num_nodes":"23","size_leaf_vector":"1"}},{"base_weights":[1.8942099E-2,1.521673E-1,-1.0696084E0,-1.6703635E-1,5.6190366E-1,-1.2601231E0,2.6630023E-2,3.7860543E-1,-5.610295E-1,7.5945646E-1,-4.3315876E-1,-4.9900493E-1,-7.292749E-2,5.0605305E-2,-3.2216113E-4,-8.594655E-2,-1.2546221E-2,4.3388087E-2,-6.06934E-2,-6.6936545E-2,1.4593317E-2,-5.479185E-2,2.8315246E-2],"categories":[],"categories_nodes":[],"categories_segments":[],"categories_sizes":[],"default_left":[0,0,0,0,0,0,0,0,0,0,0,0,0,0,0,0,0,0,0,0,0,0,0],"id":7,"left_children":[1,3,5,7,9,11,-1,13,15,17,19,21,-1,-1,-1,-1,-1,-1,-1,-1,-1,-1,-1],"loss_changes":[1.7532787E1,1.4165452E1,4.6958113E0,1.3379219E1,9.63549E0,1.0967178E0,0E0,6.416521E0,1.2484017E1,9.5731125E0,5.9577117E0,3.1754541E0,0E0,0E0,0E0,0E0,0E0,0E0,0E0,0E0,0E0,0E0,0E0],"parents":[2147483647,0,0,1,1,2,2,3,3,4,4,5,5,7,7,8,8,9,9,10,10,11,11],"right_children":[2,4,6,8,10,12,-1,14,16,18,20,22,-1,-1,-1,-1,-1,-1,-1,-1,-1,-1,-1],"split_conditions":[3.8E1,3E1,4E1,2.5E1,3.5E1,2.5E1,2.6630023E-2,1.92E2,2.4E1,4E1,3E1,3E1,-7.292749E-2,5.0605305E-2,-3.2216113E-4,-8.594655E-2,-1.2546221E-2,4.3388087E-2,-6.06934E-2,-6.6936545E-2,1.4593317E-2,-5.479185E-2,2.8315246E-2],"split_indices":[2,2,7,5,3,0,0,12,3,4,5,3,0,0,0,0,0,0,0,0,0,0,0],"split_type":[0,0,0,0,0,0,0,0,0,0,0,0,0,0,0,0,0,0,0,0,0,0,0],"sum_hessian":[1.18774826E2,1.0658976E2,1.2185066E1,6.0246937E1,4.6342827E1,1.1080964E1,1.1041019E0,2.5278187E1,3.496875E1,3.8863846E1,7.478982E0,3.0182946E0,8.06267E0,8.940435E0,1.6337751E1,6.427192E0,2.8541555E1,3.73729E1,1.4909462E0,2.9490693E0,4.529913E0,1.916137E0,1.1021575E0],"tree_param":{"num_deleted":"0","num_feature":"13","num_nodes":"23","size_leaf_vector":"1"}},{"base_weights":[1.2037573E-2,1.309997E-1,-1.0139581E0,-2.10654E-1,5.669949E-1,-1.2068101E0,2.5898281E-2,2.6239395E-1,-7.052067E-1,7.7591217E-1,-9.5224756E-1,-3.2476124E-1,-7.0960365E-2,-4.848374E-2,2.323084E-2,-8.597481E-2,-9.287313E-3,-3.521771E-2,4.5487687E-2,-7.004015E-2,1.9302731E-2,-4.8084624E-2,2.8376762E-2],"categories":[],"categories_nodes":[],"categories_segments":[],"categories_sizes":[],"default_left":[0,0,0,0,0,0,0,0,0,0,0,0,0,0,0,0,0,0,0,0,0,0,0],"id":8,"left_children":[1,3,5,7,9,11,-1,13,15,17,19,21,-1,-1,-1,-1,-1,-1,-1,-1,-1,-1,-1],"loss_changes":[1.4737357E1,1.6223278E1,4.331828E0,1.4535657E1,1.5900125E1,1.6831017E0,0E0,8.443611E0,1.5624184E1,9.069668E0,4.2768383E0,2.5450053E0,0E0,0E0,0E0,0E0,0E0,0E0,0E0,0E0,0E0,0E0,0E0],"parents":[2147483647,0,0,1,1,2,2,3,3,4,4,5,5,7,7,8,8,9,9,10,10,11,11],"right_children":[2,4,6,8,10,12,-1,14,16,18,20,22,-1,-1,-1,-1,-1,-1,-1,-1,-1,-1,-1],"split_conditions":[3.8E1,3E1,4E1,2.6E1,3.2625E1,2.5E1,2.5898281E-2,1.8E1,2.6E1,2.1E1,8.85456E-1,3.8E1,-7.0960365E-2,-4.848374E-2,2.323084E-2,-8.597481E-2,-9.287313E-3,-3.521771E-2,4.5487687E-2,-7.004015E-2,1.9302731E-2,-4.8084624E-2,2.8376762E-2],"split_indices":[2,2,5,5,9,0,0,5,3,7,11,4,0,0,0,0,0,0,0,0,0,0,0],"split_type":[0,0,0,0,0,0,0,0,0,0,0,0,0,0,0,0,0,0,0,0,0,0,0],"sum_hessian":[1.1865568E2,1.0710893E2,1.1546745E1,6.034127E1,4.6767666E1,1.0444167E1,1.1025783E0,3.1081104E1,2.9260166E1,4.154405E1,5.223615E0,2.5176852E0,7.926482E0,3.8470953E0,2.7234009E1,9.1276045E0,2.0132563E1,3.0913732E0,3.8452675E1,3.8773515E0,1.3462636E0,1.4236766E0,1.0940086E0],"tree_param":{"num_deleted":"0","num_feature":"13","num_nodes":"23","size_leaf_vector":"1"}},{"base_weights":[-7.1445286E-2,6.3056916E-2,-8.9099425E-1,2.3385935E-1,-8.151996E-1,-1.31888E0,1.3903593E-2,4.6840096E-1,-3.2926875E-1,3.7862077E-1,-8.633374E-2,7.954746E-3,-7.853738E-2,6.367901E-1,-5.294174E-2,3.8463913E-2,-1.0829138E-3,-5.0064087E-2,1.5194349E-2,5.6512363E-2,-3.179943E-2,-8.031833E-3,6.1514776E-2],"categories":[],"categories_nodes":[],"categories_segments":[],"categories_sizes":[],"default_left":[0,0,0,0,0,0,0,0,0,0,0,0,0,0,0,0,0,0,0,0,0,0,0],"id":9,"left_children":[1,3,5,7,9,11,13,15,17,19,-1,-1,-1,21,-1,-1,-1,-1,-1,-1,-1,-1,-1],"loss_changes":[1.2810575E1,1.5240614E1,6.3599024E0,1.1350369E1,1.8670858E1,4.3932896E0,4.848981E0,8.901483E0,1.1159508E1,6.811091E0,0E0,0E0,0E0,2.363871E0,0E0,0E0,0E0,0E0,0E0,0E0,0E0,0E0,0E0],"parents":[2147483647,0,0,1,1,2,2,3,3,4,4,5,5,6,6,7,7,8,8,9,9,13,13],"right_children":[2,4,6,8,10,12,14,16,18,20,-1,-1,-1,22,-1,-1,-1,-1,-1,-1,-1,-1,-1],"split_conditions":[3.7E1,8.85456E-1,4.6472317E-1,6.6312265E-1,2.5E1,4.1E1,2.5E1,3E1,1.2053668E-1,2.6E1,-8.633374E-2,7.954746E-3,-7.853738E-2,3.1E1,-5.294174E-2,3.8463913E-2,-1.0829138E-3,-5.0064087E-2,1.5194349E-2,5.6512363E-2,-3.179943E-2,-8.031833E-3,6.1514776E-2],"split_indices":[0,10,10,11,6,12,6,4,10,5,0,0,0,3,0,0,0,0,0,0,0,0,0],"split_type":[0,0,0,0,0,0,0,0,0,0,0,0,0,0,0,0,0,0,0,0,0,0,0],"sum_hessian":[1.1470587E2,9.932756E1,1.5378316E1,8.376981E1,1.5557745E1,1.0130545E1,5.2477713E0,5.925744E1,2.4512375E1,6.9887342E0,8.569011E0,1.5286535E0,8.601891E0,3.5771086E0,1.670663E0,3.6362507E1,2.289493E1,1.1609246E1,1.290313E1,3.9491878E0,3.0395465E0,1.8375462E0,1.7395623E0],"tree_param":{"num_deleted":"0","num_feature":"13","num_nodes":"23","size_leaf_vector":"1"}},{"base_weights":[3.8698006E-2,1.6319022E-1,-7.3413186E-2,2.8589267E-1,-4.5503595E-1,3.8100183E-1,-9.695699E-1,1.1508437E-1,-7.17954E-2,-6.3770585E-2,2.170722E-2,-6.8945274E-2,3.105158E-2,-4.7816988E-2,5.4844406E-2],"categories":[],"categories_nodes":[],"categories_segments":[],"categories_sizes":[],"default_left":[0,0,0,0,0,0,0,0,0,0,0,0,0,0,0],"id":10,"left_children":[1,3,-1,5,7,9,11,13,-1,-1,-1,-1,-1,-1,-1],"loss_changes":[2.2611464E1,8.554116E0,0E0,1.1506842E1,1.0665329E1,8.249228E0,5.316676E0,1.4514023E1,0E0,0E0,0E0,0E0,0E0,0E0,0E0],"parents":[2147483647,0,0,1,1,3,3,4,4,5,5,6,6,7,7],"right_children":[2,4,-1,6,8,10,12,14,-1,-1,-1,-1,-1,-1,-1],"split_conditions":[3.9E1,3.6E1,-7.3413186E-2,3.8E1,1.46E2,1.6E1,3.3E1,1.05E2,-7.17954E-2,-6.3770585E-2,2.170722E-2,-6.8945274E-2,3.105158E-2,-4.7816988E-2,5.4844406E-2],"split_indices":[0,3,0,5,12,0,0,12,0,0,0,0,0,0,0],"split_type":[0,0,0,0,0,0,0,0,0,0,0,0,0,0,0],"sum_hessian":[1.18249794E2,1.1005011E2,8.199683E0,9.227365E1,1.7776457E1,8.642309E1,5.8505654E0,1.1800326E1,5.9761295E0,1.9715517E0,8.445154E1,4.758957E0,1.0916084E0,5.6550317E0,6.145295E0],"tree_param":{"num_deleted":"0","num_feature":"13","num_nodes":"15","size_leaf_vector":"1"}},{"base_weights":[-9.195018E-3,1.0375944E-1,-9.9497765E-1,2.8519574E-1,-5.0341463E-1,-7.238218E-2,3.217722E-1,4.9582264E-1,-2.19874E-1,3.2259995E-1,-1.44444E0,1.2754703E-4,2.9638145E-2,-5.5597495E-2,2.7864948E-2,-7.2032966E-2,3.8124279E-3,4.7129523E-2,-4.392611E-2,2.5769738E-2,-8.4946275E-2],"categories":[],"categories_nodes":[],"categories_segments":[],"categories_sizes":[],"default_left":[0,0,0,0,0,0,0,0,0,0,0,0,0,0,0,0,0,0,0,0,0],"id":11,"left_children":[1,3,5,7,9,-1,11,13,15,17,19,-1,-1,-1,-1,-1,-1,-1,-1,-1,-1],"loss_changes":[1.2990547E1,1.16827135E1,7.614094E0,8.756231E0,1.9479197E1,0E0,3.3467096E-1,6.319824E0,9.008108E0,1.1137309E1,6.6695023E0,0E0,0E0,0E0,0E0,0E0,0E0,0E0,0E0,0E0,0E0],"parents":[2147483647,0,0,1,1,2,2,3,3,4,4,6,6,7,7,8,8,9,9,10,10],"right_children":[2,4,6,8,10,-1,12,14,16,18,20,-1,-1,-1,-1,-1,-1,-1,-1,-1,-1],"split_conditions":[3.8E1,7.485108E-1,8.85456E-1,3.2E1,2.6E1,-7.238218E-2,3.2E1,1.7E1,3.4E1,2.8E1,1.95E1,1.2754703E-4,2.9638145E-2,-5.5597495E-2,2.7864948E-2,-7.2032966E-2,3.8124279E-3,4.7129523E-2,-4.392611E-2,2.5769738E-2,-8.4946275E-2],"split_indices":[0,10,10,4,6,0,3,0,4,5,8,0,0,0,0,0,0,0,0,0,0],"split_type":[0,0,0,0,0,0,0,0,0,0,0,0,0,0,0,0,0,0,0,0,0],"sum_hessian":[1.1473847E2,1.0374567E2,1.0992801E1,8.0285095E1,2.3460575E1,8.10656E0,2.8862407E0,5.6670406E1,2.3614689E1,1.2843751E1,1.0616824E1,1.7886559E0,1.097585E0,1.4577888E0,5.5212616E1,3.8554125E0,1.9759275E1,8.6131115E0,4.23064E0,1.1023328E0,9.514491E0],"tree_param":{"num_deleted":"0","num_feature":"13","num_nodes":"21","size_leaf_vector":"1"}},{"base_weights":[6.971793E-4,1.07359365E-1,-9.38388E-1,-1.7166302E-1,4.8032093E-1,-6.783677E-2,-1.3164525E-1,6.7874813E-1,-5.0977844E-1,6.695196E-1,-8.6932373E-1,-4.969051E-2,3.6392257E-2,4.0641066E-2,-1.0379437E-2,2.1453334E-2,-4.263155E-2,-5.524345E-2,3.7780117E-2,-6.470941E-2,8.833726E-3],"categories":[],"categories_nodes":[],"categories_segments":[],"categories_sizes":[],"default_left":[0,0,0,0,0,0,0,0,0,0,0,0,0,0,0,0,0,0,0,0,0],"id":12,"left_children":[1,3,5,7,9,-1,11,13,15,17,19,-1,-1,-1,-1,-1,-1,-1,-1,-1,-1],"loss_changes":[1.1485363E1,1.0797298E1,3.7685814E0,1.749357E1,1.19010725E1,0E0,4.503476E0,2.2357702E0,1.4284694E1,6.8594246E0,2.84402E0,0E0,0E0,0E0,0E0,0E0,0E0,0E0,0E0,0E0,0E0],"parents":[2147483647,0,0,1,1,2,2,3,3,4,4,6,6,7,7,8,8,9,9,10,10],"right_children":[2,4,6,8,10,-1,12,14,16,18,20,-1,-1,-1,-1,-1,-1,-1,-1,-1,-1],"split_conditions":[3.8E1,3E1,3.3E1,2.475E1,3.2625E1,-6.783677E-2,5.6806475E-1,2.8E1,-7.485108E-1,1.8E1,8.85456E-1,-4.969051E-2,3.6392257E-2,4.0641066E-2,-1.0379437E-2,2.1453334E-2,-4.263155E-2,-5.524345E-2,3.7780117E-2,-6.470941E-2,8.833726E-3],"split_indices":[2,2,3,9,9,0,11,5,10,4,11,0,0,0,0,0,0,0,0,0,0],"split_type":[0,0,0,0,0,0,0,0,0,0,0,0,0,0,0,0,0,0,0,0,0],"sum_hessian":[1.1265879E2,1.0196337E2,1.069542E1,5.863598E1,4.3327393E1,6.5941763E0,4.101244E0,1.639433E1,4.224165E1,3.844232E1,4.8850718E0,1.9694185E0,2.1318257E0,1.43123E1,2.0820298E0,1.1232325E1,3.1009325E1,1.2311037E0,3.721122E1,3.3052619E0,1.5798097E0],"tree_param":{"num_deleted":"0","num_feature":"13","num_nodes":"21","size_leaf_vector":"1"}},{"base_weights":[3.7917584E-2,1.4185539E-1,-9.029845E-1,2.9977405E-1,-6.623442E-1,-1.0935551E0,2.4777936E-2,3.7876365E-1,-8.9242995E-1,-1.1976477E0,1.8884258E-1,-6.605512E-2,-1.5880266E-1,4.7964863E-3,3.9747875E-2,-6.831542E-2,1.8681785E-2,-1.034551E-2,-7.1889624E-2,-5.4126304E-2,4.0297195E-2,-3.962451E-2,2.8251892E-2],"categories":[],"categories_nodes":[],"categories_segments":[],"categories_sizes":[],"default_left":[0,0,0,0,0,0,0,0,0,0,0,0,0,0,0,0,0,0,0,0,0,0,0],"id":13,"left_children":[1,3,5,7,9,11,-1,13,15,17,19,-1,21,-1,-1,-1,-1,-1,-1,-1,-1,-1,-1],"loss_changes":[1.1275258E1,1.3344133E1,3.6001587E0,8.55061E0,8.109409E0,2.004507E0,0E0,9.634149E0,3.9404445E0,2.2619963E0,6.790881E0,0E0,1.9039918E0,0E0,0E0,0E0,0E0,0E0,0E0,0E0,0E0,0E0,0E0],"parents":[2147483647,0,0,1,1,2,2,3,3,4,4,5,5,7,7,8,8,9,9,10,10,12,12],"right_children":[2,4,6,8,10,12,-1,14,16,18,20,-1,22,-1,-1,-1,-1,-1,-1,-1,-1,-1,-1],"split_conditions":[3.8E1,3.6E1,3.8E1,3.2375E1,3.4E1,3.6E1,2.4777936E-2,3E1,3.4125E1,2E1,4E1,-6.605512E-2,3.9E1,4.7964863E-3,3.9747875E-2,-6.831542E-2,1.8681785E-2,-1.034551E-2,-7.1889624E-2,-5.4126304E-2,4.0297195E-2,-3.962451E-2,2.8251892E-2],"split_indices":[2,3,5,9,7,6,0,2,9,4,3,0,4,0,0,0,0,0,0,0,0,0,0],"split_type":[0,0,0,0,0,0,0,0,0,0,0,0,0,0,0,0,0,0,0,0,0,0,0],"sum_hessian":[1.1298468E2,1.02510025E2,1.047465E1,8.620868E1,1.6301346E1,9.410427E0,1.0642233E0,8.149174E1,4.7169423E0,9.757752E0,6.5435925E0,7.235715E0,2.1747127E0,4.9251957E1,3.2239784E1,3.374658E0,1.3422843E0,2.2669332E0,7.4908195E0,1.8918145E0,4.651778E0,1.1089977E0,1.065715E0],"tree_param":{"num_deleted":"0","num_feature":"13","num_nodes":"23","size_leaf_vector":"1"}},{"base_weights":[-4.848115E-2,5.893124E-2,-9.32219E-1,2.0185001E-1,-7.3864186E-1,-6.618031E-2,-9.471478E-2,3.8374054E-1,-3.204877E-1,-1.037418E0,3.0806048E-2,-4.5815405E-2,3.415828E-2,-9.908746E-3,3.519567E-2,-4.0216073E-2,3.8933348E-2,2.5657652E-2,-6.0988493E-2],"categories":[],"categories_nodes":[],"categories_segments":[],"categories_sizes":[],"default_left":[0,0,0,0,0,0,0,0,0,0,0,0,0,0,0,0,0,0,0],"id":14,"left_children":[1,3,5,7,9,-1,11,13,15,17,-1,-1,-1,-1,-1,-1,-1,-1,-1],"loss_changes":[1.0708892E1,1.16634445E1,3.8810806E0,8.336331E0,6.9393587E0,0E0,3.8022223E0,1.2170795E1,1.2790449E1,4.3370237E0,0E0,0E0,0E0,0E0,0E0,0E0,0E0,0E0,0E0],"parents":[2147483647,0,0,1,1,2,2,3,3,4,4,6,6,7,7,8,8,9,9],"right_children":[2,4,6,8,10,-1,12,14,16,18,-1,-1,-1,-1,-1,-1,-1,-1,-1],"split_conditions":[3.8E1,3.6E1,3.3E1,3.3E1,4.6E1,-6.618031E-2,5.6806475E-1,2.4E1,3.2E1,-9.9270886E-1,3.0806048E-2,-4.5815405E-2,3.415828E-2,-9.908746E-3,3.519567E-2,-4.0216073E-2,3.8933348E-2,2.5657652E-2,-6.0988493E-2],"split_indices":[2,3,3,7,3,0,11,7,3,11,0,0,0,0,0,0,0,0,0],"split_type":[0,0,0,0,0,0,0,0,0,0,0,0,0,0,0,0,0,0,0],"sum_hessian":[1.1123621E2,1.0001356E2,1.1222658E1,8.544874E1,1.4564817E1,7.2528157E0,3.9698422E0,6.3575546E1,2.1873192E1,1.2125034E1,2.4397824E0,1.8441284E0,2.1257138E0,2.2699732E1,4.0875816E1,1.5373993E1,6.499198E0,1.0849997E0,1.1040035E1],"tree_param":{"num_deleted":"0","num_feature":"13","num_nodes":"19","size_leaf_vector":"1"}},{"base_weights":[-3.07404E-2,7.83202E-2,-1.0823036E0,-1.9122732E-1,4.4316247E-1,-6.3716784E-2,-3.9832592E-1,1.8075769E-1,-5.6164145E-1,6.030005E-1,-7.578956E-1,-4.773199E-2,2.7125707E-2,3.109239E-2,-2.1448264E-2,1.2976335E-2,-4.215188E-2,-3.4023117E-2,3.9972197E-2,-5.9164E-2,1.775991E-2],"categories":[],"categories_nodes":[],"categories_segments":[],"categories_sizes":[],"default_left":[0,0,0,0,0,0,0,0,0,0,0,0,0,0,0,0,0,0,0,0,0],"id":15,"left_children":[1,3,5,7,9,-1,11,13,15,17,19,-1,-1,-1,-1,-1,-1,-1,-1,-1,-1],"loss_changes":[1.3158563E1,1.0333858E1,9.0824986E-1,8.456399E0,9.015859E0,0E0,2.5161095E0,8.606702E0,7.2955093E0,1.0604843E1,3.109461E0,0E0,0E0,0E0,0E0,0E0,0E0,0E0,0E0,0E0,0E0],"parents":[2147483647,0,0,1,1,2,2,3,3,4,4,6,6,7,7,8,8,9,9,10,10],"right_children":[2,4,6,8,10,-1,12,14,16,18,20,-1,-1,-1,-1,-1,-1,-1,-1,-1,-1],"split_conditions":[3.8E1,3E1,3.6E1,2.6E1,3.2625E1,-6.3716784E-2,1.38E2,-1.6081226E-16,-7.485108E-1,2.3E1,3.8E1,-4.773199E-2,2.7125707E-2,3.109239E-2,-2.1448264E-2,1.2976335E-2,-4.215188E-2,-3.4023117E-2,3.9972197E-2,-5.9164E-2,1.775991E-2],"split_indices":[2,2,6,5,9,0,12,11,10,5,6,0,0,0,0,0,0,0,0,0,0],"split_type":[0,0,0,0,0,0,0,0,0,0,0,0,0,0,0,0,0,0,0,0,0],"sum_hessian":[1.12998314E2,1.0321873E2,9.779586E0,5.963553E1,4.35832E1,6.9618645E0,2.8177207E0,3.0010134E1,2.9625393E1,3.8903786E1,4.6794143E0,1.761492E0,1.0562286E0,1.740152E1,1.2608615E1,7.58082E0,2.2044573E1,4.8370433E0,3.4066742E1,3.33995E0,1.3394641E0],"tree_param":{"num_deleted":"0","num_feature":"13","num_nodes":"21","size_leaf_vector":"1"}},{"base_weights":[-4.7991537E-2,2.2473995E-1,-5.56286E-1,3.6335912E-1,-8.012425E-2,-7.7016786E-2,-3.1083807E-1,-6.5896586E-2,4.4215253E-1,1.3413557E-1,-8.2320476E-1,2.739524E-2,-3.798445E-2,2.1427268E-2,-6.168964E-2,-5.898282E-2,4.890403E-2],"categories":[],"categories_nodes":[],"categories_segments":[],"categories_sizes":[],"default_left":[0,0,0,0,0,0,0,0,0,0,0,0,0,0,0,0,0],"id":16,"left_children":[1,3,5,7,-1,-1,9,-1,11,13,15,-1,-1,-1,-1,-1,-1],"loss_changes":[1.478351E1,1.819294E1,8.509062E0,9.251945E0,0E0,0E0,7.1862774E0,0E0,8.456397E0,7.564544E0,1.0505975E1,0E0,0E0,0E0,0E0,0E0,0E0],"parents":[2147483647,0,0,1,1,2,2,3,3,6,6,8,8,9,9,10,10],"right_children":[2,4,6,8,-1,-1,10,-1,12,14,16,-1,-1,-1,-1,-1,-1],"split_conditions":[2.9625E1,9.7094184E-1,3.0625E1,1.6E1,-8.012425E-2,-7.7016786E-2,3.225E1,-6.5896586E-2,3.6E1,2.3931566E-1,4.6E1,2.739524E-2,-3.798445E-2,2.1427268E-2,-6.168964E-2,-5.898282E-2,4.890403E-2],"split_indices":[9,11,9,4,0,0,9,0,3,10,3,0,0,0,0,0,0],"split_type":[0,0,0,0,0,0,0,0,0,0,0,0,0,0,0,0,0],"sum_hessian":[1.0473983E2,6.852811E1,3.6211727E1,6.444058E1,4.0875278E0,6.1758595E0,3.0035866E1,2.1807787E0,6.22598E1,1.6470222E1,1.3565643E1,5.7724617E1,4.5351853E0,1.4118347E1,2.351875E0,1.1612734E1,1.9529098E0],"tree_param":{"num_deleted":"0","num_feature":"13","num_nodes":"17","size_leaf_vector":"1"}},{"base_weights":[2.2746438E-2,1.3891871E-1,-7.3709863E-1,3.2309628E-1,-3.3299634E-1,-7.207336E-2,3.3495736E-1,4.8437658E-1,-5.3986275E-1,3.6910442E-1,-9.7678787E-1,8.93429E-1,-4.6168324E-2,3.0743638E-2,-1.3277227E-2,2.599596E-2,-7.1734786E-2,-6.060586E-2,3.0993013E-2,-8.320737E-2,-1.4868196E-3,7.038593E-3,5.9899837E-2],"categories":[],"categories_nodes":[],"categories_segments":[],"categories_sizes":[],"default_left":[0,0,0,0,0,0,0,0,0,0,0,0,0,0,0,0,0,0,0,0,0,0,0],"id":17,"left_children":[1,3,5,7,9,-1,11,13,15,17,19,21,-1,-1,-1,-1,-1,-1,-1,-1,-1,-1,-1],"loss_changes":[9.813319E0,8.474374E0,1.1618987E1,9.968836E0,1.2797592E1,0E0,5.5044646E0,5.9656916E0,1.1609589E1,6.2576747E0,9.472749E0,1.0051017E0,0E0,0E0,0E0,0E0,0E0,0E0,0E0,0E0,0E0,0E0,0E0],"parents":[2147483647,0,0,1,1,2,2,3,3,4,4,6,6,7,7,8,8,9,9,10,10,11,11],"right_children":[2,4,6,8,10,-1,12,14,16,18,20,22,-1,-1,-1,-1,-1,-1,-1,-1,-1,-1,-1],"split_conditions":[3.7E1,2.51E2,4.6472317E-1,8.85456E-1,2.4375E1,-7.207336E-2,2.7E1,3.7E1,2.5E1,2.61E2,3E1,2.6E1,-4.6168324E-2,3.0743638E-2,-1.3277227E-2,2.599596E-2,-7.1734786E-2,-6.060586E-2,3.0993013E-2,-8.320737E-2,-1.4868196E-3,7.038593E-3,5.9899837E-2],"split_indices":[0,12,10,10,9,0,6,5,6,12,2,2,0,0,0,0,0,0,0,0,0,0,0],"split_type":[0,0,0,0,0,0,0,0,0,0,0,0,0,0,0,0,0,0,0,0,0,0,0],"sum_hessian":[1.09010185E2,9.52627E1,1.3747486E1,6.87475E1,2.6515207E1,8.088531E0,5.6589556E0,5.8291897E1,1.0455598E1,1.2887326E1,1.3627881E1,4.120273E0,1.5386825E0,4.9805214E1,8.486683E0,4.978437E0,5.477161E0,1.2392131E0,1.1648113E1,7.4578605E0,6.170021E0,1.6082122E0,2.512061E0],"tree_param":{"num_deleted":"0","num_feature":"13","num_nodes":"23","size_leaf_vector":"1"}},{"base_weights":[5.1477705E-3,2.8923997E-1,-4.369785E-1,-7.105003E-2,4.104099E-1,-1.1714198E-1,-1.119481E0,-1.0721136E0,5.3264153E-1,6.979249E-1,-4.3369657E-1,7.4772574E-2,-7.4549966E-2,1.1710544E-2,-7.8521E-2,3.2615505E-2,-2.4559898E-2,-4.5412257E-2,5.150497E-2,8.620954E-3,-6.425273E-2,-4.9194083E-2,4.630841E-2],"categories":[],"categories_nodes":[],"categories_segments":[],"categories_sizes":[],"default_left":[0,0,0,0,0,0,0,0,0,0,0,0,0,0,0,0,0,0,0,0,0,0,0],"id":18,"left_children":[1,3,5,-1,7,9,11,13,15,17,19,21,-1,-1,-1,-1,-1,-1,-1,-1,-1,-1,-1],"loss_changes":[1.4209492E1,1.4853563E1,9.53032E0,0E0,1.2364712E1,8.366598E0,6.325781E0,3.8107705E0,7.7688885E0,5.8046026E0,1.215601E1,4.764913E0,0E0,0E0,0E0,0E0,0E0,0E0,0E0,0E0,0E0,0E0,0E0],"parents":[2147483647,0,0,1,1,2,2,4,4,5,5,6,6,7,7,8,8,9,9,10,10,11,11],"right_children":[2,4,6,-1,8,10,12,14,16,18,20,22,-1,-1,-1,-1,-1,-1,-1,-1,-1,-1,-1],"split_conditions":[3E1,1.7E1,3.2E1,-7.105003E-2,1.8E1,-8.2298386E-1,4.3E1,1.9E1,3.8E1,2.5E1,2.8E1,3.6E1,-7.4549966E-2,1.1710544E-2,-7.8521E-2,3.2615505E-2,-2.4559898E-2,-4.5412257E-2,5.150497E-2,8.620954E-3,-6.425273E-2,-4.9194083E-2,4.630841E-2],"split_indices":[0,0,4,0,5,10,12,3,5,3,6,0,0,0,0,0,0,0,0,0,0,0,0],"split_type":[0,0,0,0,0,0,0,0,0,0,0,0,0,0,0,0,0,0,0,0,0,0,0],"sum_hessian":[1.11122475E2,6.786257E1,4.3259907E1,3.780186E0,6.408238E1,3.0253876E1,1.3006032E1,4.2891355E0,5.9793247E1,8.126067E0,2.2127808E1,3.2755244E0,9.730508E0,1.330687E0,2.9584484E0,5.3860764E1,5.932483E0,1.0953687E0,7.030699E0,1.3391408E1,8.7364E0,1.3906868E0,1.8848375E0],"tree_param":{"num_deleted":"0","num_feature":"13","num_nodes":"23","size_leaf_vector":"1"}},{"base_weights":[-2.5521519E-2,6.837391E-2,-8.403248E-1,-2.2251979E-1,4.5629612E-1,-1.035673E0,2.6916012E-2,-8.512264E-2,-1.1617405E0,5.915423E-1,-6.2550443E-1,-6.1917998E-2,-2.8796032E-1,3.367674E-2,-1.3809459E-2,1.804044E-2,-7.399064E-2,-2.5865113E-2,3.6801618E-2,-5.6164622E-2,3.3737868E-2,1.8510764E-2,-4.0586315E-2],"categories":[],"categories_nodes":[],"categories_segments":[],"categories_sizes":[],"default_left":[0,0,0,0,0,0,0,0,0,0,0,0,0,0,0,0,0,0,0,0,0,0,0],"id":19,"left_children":[1,3,5,7,9,11,-1,13,15,17,19,-1,21,-1,-1,-1,-1,-1,-1,-1,-1,-1,-1],"loss_changes":[8.468813E0,1.1330392E1,3.6373234E0,7.3261404E0,6.6569176E0,1.2132292E0,0E0,7.61838E0,4.051676E0,6.5825586E0,4.163252E0,0E0,1.5112278E0,0E0,0E0,0E0,0E0,0E0,0E0,0E0,0E0,0E0,0E0],"parents":[2147483647,0,0,1,1,2,2,3,3,4,4,5,5,7,7,8,8,9,9,10,10,12,12],"right_children":[2,4,6,8,10,12,-1,14,16,18,20,-1,22,-1,-1,-1,-1,-1,-1,-1,-1,-1,-1],"split_conditions":[3.8E1,3E1,4E1,2.8E1,3.2625E1,3.9E1,2.6916012E-2,-7.485108E-1,1.7E1,2.1E1,3.8E1,-6.1917998E-2,4E1,3.367674E-2,-1.3809459E-2,1.804044E-2,-7.399064E-2,-2.5865113E-2,3.6801618E-2,-5.6164622E-2,3.3737868E-2,1.8510764E-2,-4.0586315E-2],"split_indices":[2,2,5,2,9,4,0,10,6,4,6,0,4,0,0,0,0,0,0,0,0,0,0],"split_type":[0,0,0,0,0,0,0,0,0,0,0,0,0,0,0,0,0,0,0,0,0,0,0],"sum_hessian":[1.0894332E2,9.850768E1,1.0435638E1,5.6537743E1,4.196994E1,9.358371E0,1.0772672E0,5.0273888E1,6.2638583E0,3.7708794E1,4.2611475E0,6.846305E0,2.512066E0,9.60615E0,4.0667736E1,1.0592201E0,5.204638E0,4.049783E0,3.3659008E1,3.1798766E0,1.0812709E0,1.2431116E0,1.2689544E0],"tree_param":{"num_deleted":"0","num_feature":"13","num_nodes":"23","size_leaf_vector":"1"}},{"base_weights":[-1.7822545E-2,1.2287248E-1,-8.7220925E-1,2.2769581E-1,-9.495477E-1,-1.1821737E0,3.4703024E-2,3.085791E-1,-7.888784E-1,-6.0821302E-2,1.1910591E-2,-6.8624504E-2,2.5346288E-2,-5.8492135E-2,1.7945444E-2,-7.391851E-2,6.4426833E-3],"categories":[],"categories_nodes":[],"categories_segments":[],"categories_sizes":[],"default_left":[0,0,0,0,0,0,0,0,0,0,0,0,0,0,0,0,0],"id":20,"left_children":[1,3,5,7,9,11,-1,13,15,-1,-1,-1,-1,-1,-1,-1,-1],"loss_changes":[1.3238779E1,1.0858693E1,8.379102E0,7.4009013E0,3.0231833E0,4.9927177E0,0E0,6.473146E0,4.427962E0,0E0,0E0,0E0,0E0,0E0,0E0,0E0,0E0],"parents":[2147483647,0,0,1,1,2,2,3,3,4,4,5,5,7,7,8,8],"right_children":[2,4,6,8,10,12,-1,14,16,-1,-1,-1,-1,-1,-1,-1,-1],"split_conditions":[3.6E1,3.8E1,4.6E1,4.1E1,3.3E1,4.4E1,3.4703024E-2,1.6E1,4.5E1,-6.0821302E-2,1.1910591E-2,-6.8624504E-2,2.5346288E-2,-5.8492135E-2,1.7945444E-2,-7.391851E-2,6.4426833E-3],"split_indices":[3,2,3,6,3,5,0,0,6,0,0,0,0,0,0,0,0],"split_type":[0,0,0,0,0,0,0,0,0,0,0,0,0,0,0,0,0],"sum_hessian":[1.0824076E2,9.3671684E1,1.45690775E1,8.604858E1,7.623107E0,1.23668995E1,2.2021778E0,8.035187E1,5.69671E0,6.2048097E0,1.4182973E0,1.1283045E1,1.0838542E0,1.9130486E0,7.843882E1,2.9040232E0,2.792687E0],"tree_param":{"num_deleted":"0","num_feature":"13","num_nodes":"17","size_leaf_vector":"1"}},{"base_weights":[5.7895605E-2,1.4874317E-1,-7.858094E-1,2.2783886E-1,-6.882103E-1,-9.792511E-1,2.5757222E-2,5.8051154E-2,7.6704544E-1,1.3441463E-1,-6.304979E-2,-5.9194893E-2,-2.9265726E-1,1.2690799E-2,-2.3632698E-2,-1.8679392E-2,4.5118373E-2,-4.307416E-2,4.79349E-2,-4.2081144E-2,2.7397139E-2],"categories":[],"categories_nodes":[],"categories_segments":[],"categories_sizes":[],"default_left":[0,0,0,0,0,0,0,0,0,0,0,0,0,0,0,0,0,0,0,0,0],"id":21,"left_children":[1,3,5,7,9,11,-1,13,15,17,-1,-1,19,-1,-1,-1,-1,-1,-1,-1,-1],"loss_changes":[8.618651E0,6.8414383E0,3.2579913E0,8.470576E0,4.394891E0,1.0403404E0,0E0,7.5813775E0,3.7624798E0,4.5894537E0,0E0,0E0,2.119976E0,0E0,0E0,0E0,0E0,0E0,0E0,0E0,0E0],"parents":[2147483647,0,0,1,1,2,2,3,3,4,4,5,5,7,7,8,8,9,9,12,12],"right_children":[2,4,6,8,10,12,-1,14,16,18,-1,-1,20,-1,-1,-1,-1,-1,-1,-1,-1],"split_conditions":[3.8E1,3.2625E1,4.3E1,3.3E1,3.2E1,3.6E1,2.5757222E-2,3.2E1,2.1E1,3.8E1,-6.304979E-2,-5.9194893E-2,1.38E2,1.2690799E-2,-2.3632698E-2,-1.8679392E-2,4.5118373E-2,-4.307416E-2,4.79349E-2,-4.2081144E-2,2.7397139E-2],"split_indices":[2,9,7,2,0,6,0,4,7,6,0,0,12,0,0,0,0,0,0,0,0],"split_type":[0,0,0,0,0,0,0,0,0,0,0,0,0,0,0,0,0,0,0,0,0],"sum_hessian":[1.0991884E2,9.9977295E1,9.941546E0,9.200976E1,7.9675407E0,8.869938E0,1.0716084E0,7.081795E1,2.1191805E1,3.5846534E0,4.3828874E0,6.2752314E0,2.5947065E0,5.211549E1,1.870246E1,2.0607708E0,1.9131033E1,1.6029011E0,1.9817524E0,1.5688984E0,1.025808E0],"tree_param":{"num_deleted":"0","num_feature":"13","num_nodes":"21","size_leaf_vector":"1"}},{"base_weights":[-6.508297E-3,6.311481E-2,-1.1269945E0,1.8496977E-1,-5.167572E-1,-7.424938E-2,1.2470324E-3,2.7702525E-1,-8.5061383E-1,2.1818938E-2,-6.397068E-2,-6.0623925E-2,1.665521E-2,-5.741755E-2,1.7101038E-2,-3.2724004E-2,6.0195435E-2],"categories":[],"categories_nodes":[],"categories_segments":[],"categories_sizes":[],"default_left":[0,0,0,0,0,0,0,0,0,0,0,0,0,0,0,0,0],"id":22,"left_children":[1,3,5,7,9,-1,-1,11,13,15,-1,-1,-1,-1,-1,-1,-1],"loss_changes":[8.654982E0,7.482603E0,2.713459E0,8.541395E0,7.5928526E0,0E0,0E0,7.150337E0,3.0055919E0,1.0203614E1,0E0,0E0,0E0,0E0,0E0,0E0,0E0],"parents":[2147483647,0,0,1,1,2,2,3,3,4,4,7,7,8,8,9,9],"right_children":[2,4,6,8,10,-1,-1,12,14,16,-1,-1,-1,-1,-1,-1,-1],"split_conditions":[4.1E1,3.6E1,3.225E1,3.8E1,1.46E2,-7.424938E-2,1.2470324E-3,1.6E1,3.6E1,1.3E2,-6.397068E-2,-6.0623925E-2,1.665521E-2,-5.741755E-2,1.7101038E-2,-3.2724004E-2,6.0195435E-2],"split_indices":[6,3,8,2,12,0,0,0,6,12,0,0,0,0,0,0,0],"split_type":[0,0,0,0,0,0,0,0,0,0,0,0,0,0,0,0,0],"sum_hessian":[1.0903284E2,1.03542725E2,5.4901114E0,8.6125275E1,1.7417446E1,3.9678707E0,1.5222404E0,7.976708E1,6.3581934E0,1.0777753E1,6.6396933E0,2.1460207E0,7.762106E1,5.1177063E0,1.2404869E0,7.1394544E0,3.638299E0],"tree_param":{"num_deleted":"0","num_feature":"13","num_nodes":"17","size_leaf_vector":"1"}},{"base_weights":[-4.8551545E-2,5.948916E-1,-1.5942127E-1,8.2965434E-1,-6.136278E-2,-3.8181152E-3,-7.3727614E-1,-1.2719381E-2,1.0240068E0,9.0317E-2,-8.4335744E-1,1.4376876E-1,-1.3891205E0,-4.3537174E-3,5.947985E-2,-7.046147E-3,2.992024E-2,-5.589502E-2,5.4895245E-3,3.8042706E-2,-5.2140363E-2,1.695281E-2,-7.973691E-2],"categories":[],"categories_nodes":[],"categories_segments":[],"categories_sizes":[],"default_left":[0,0,0,0,0,0,0,0,0,0,0,0,0,0,0,0,0,0,0,0,0,0,0],"id":23,"left_children":[1,3,5,7,-1,9,11,-1,13,15,17,19,21,-1,-1,-1,-1,-1,-1,-1,-1,-1,-1],"loss_changes":[7.7551374E0,7.8600473E0,8.304136E0,3.3713474E0,0E0,5.9079003E0,1.1452866E1,0E0,2.443781E0,7.986098E0,2.0948935E0,7.55804E0,4.5759525E0,0E0,0E0,0E0,0E0,0E0,0E0,0E0,0E0,0E0,0E0],"parents":[2147483647,0,0,1,1,2,2,3,3,5,5,6,6,8,8,9,9,10,10,11,11,12,12],"right_children":[2,4,6,8,-1,10,12,-1,14,16,18,20,22,-1,-1,-1,-1,-1,-1,-1,-1,-1,-1],"split_conditions":[2.4125E1,3E1,6.6312265E-1,1.7E1,-6.136278E-2,3.8E1,1.09E2,-1.2719381E-2,2.61E2,3.3E1,5.6806475E-1,3.2E1,1.3E1,-4.3537174E-3,5.947985E-2,-7.046147E-3,2.992024E-2,-5.589502E-2,5.4895245E-3,3.8042706E-2,-5.2140363E-2,1.695281E-2,-7.973691E-2],"split_indices":[9,7,11,0,0,2,12,0,12,2,11,0,3,0,0,0,0,0,0,0,0,0,0],"split_type":[0,0,0,0,0,0,0,0,0,0,0,0,0,0,0,0,0,0,0,0,0,0,0],"sum_hessian":[1.0637979E2,1.4994144E1,9.138564E1,1.3765325E1,1.2288207E0,7.279123E1,1.8594414E1,2.0457613E0,1.1719563E1,6.62547E1,6.5365276E0,8.238521E0,1.0355894E1,1.5815825E0,1.013798E1,4.6028805E1,2.0225899E1,4.9405966E0,1.5959308E0,5.6559134E0,2.582607E0,1.0321244E0,9.32377E0],"tree_param":{"num_deleted":"0","num_feature":"13","num_nodes":"23","size_leaf_vector":"1"}},{"base_weights":[-6.809781E-3,4.602604E-2,-5.3902984E-2,2.039123E-1,-2.9998013E-1,3.1611252E-1,-8.0451405E-1,5.701524E-1,-5.130872E-1,3.1390473E-2,5.0274874E-3,4.049611E-2,-7.412716E-2,-1.8724287E-2,5.792327E-2,-4.901361E-2,-3.4365542E-3],"categories":[],"categories_nodes":[],"categories_segments":[],"categories_sizes":[],"default_left":[0,0,0,0,0,0,0,0,0,0,0,0,0,0,0,0,0],"id":24,"left_children":[1,3,-1,5,7,9,11,13,15,-1,-1,-1,-1,-1,-1,-1,-1],"loss_changes":[6.222513E0,5.7914815E0,0E0,8.471232E0,6.462102E0,4.37608E0,9.468789E0,4.334691E0,5.590091E0,0E0,0E0,0E0,0E0,0E0,0E0,0E0,0E0],"parents":[2147483647,0,0,1,1,3,3,4,4,5,5,6,6,7,7,8,8],"right_children":[2,4,-1,6,8,10,12,14,16,-1,-1,-1,-1,-1,-1,-1,-1],"split_conditions":[4.1E1,3.2E1,-5.3902984E-2,9.350162E-1,2.1E1,1.46E2,1.4E1,1.9E1,3.7E1,3.1390473E-2,5.0274874E-3,4.049611E-2,-7.412716E-2,-1.8724287E-2,5.792327E-2,-4.901361E-2,-3.4365542E-3],"split_indices":[2,4,0,10,3,12,12,3,4,0,0,0,0,0,0,0,0],"split_type":[0,0,0,0,0,0,0,0,0,0,0,0,0,0,0,0,0],"sum_hessian":[1.08061035E2,1.0389385E2,4.167182E0,7.1622444E1,3.2271408E1,6.50692E1,6.553245E0,6.019186E0,2.6252224E1,2.5820766E1,3.9248436E1,1.8806818E0,4.6725636E0,2.4495184E0,3.5696673E0,1.2209455E1,1.40427685E1],"tree_param":{"num_deleted":"0","num_feature":"13","num_nodes":"17","size_leaf_vector":"1"}},{"base_weights":[5.712914E-2,2.1296518E-1,-4.4694376E-1,-5.882727E-2,2.696333E-1,-1.1828213E0,-1.1075014E-1,5.1958066E-1,-4.5844734E-2,1.7403973E-2,-7.329564E-2,3.0167714E-1,-5.756861E-2,3.0394906E-2,-5.6225087E-2,6.593317E-3,-5.9873577E-2,-4.95391E-2,2.5167977E-2],"categories":[],"categories_nodes":[],"categories_segments":[],"categories_sizes":[],"default_left":[0,0,0,0,0,0,0,0,0,0,0,0,0,0,0,0,0,0,0],"id":25,"left_children":[1,3,5,-1,7,9,11,13,15,-1,-1,17,-1,-1,-1,-1,-1,-1,-1],"loss_changes":[8.612979E0,6.892496E0,6.2838173E0,0E0,6.414561E0,3.9894238E0,8.45942E0,7.261305E0,7.6781483E0,0E0,0E0,4.2337594E0,0E0,0E0,0E0,0E0,0E0,0E0,0E0],"parents":[2147483647,0,0,1,1,2,2,4,4,5,5,6,6,7,7,8,8,11,11],"right_children":[2,4,6,-1,8,10,12,14,16,-1,-1,18,-1,-1,-1,-1,-1,-1,-1],"split_conditions":[3.4E1,1.6E1,3.05E1,-5.882727E-2,2.8E1,1.9E1,3.2375E1,4E1,3.8E1,1.7403973E-2,-7.329564E-2,2.2E1,-5.756861E-2,3.0394906E-2,-5.6225087E-2,6.593317E-3,-5.9873577E-2,-4.95391E-2,2.5167977E-2],"split_indices":[0,0,8,0,4,5,9,6,5,0,0,5,0,0,0,0,0,0,0],"split_type":[0,0,0,0,0,0,0,0,0,0,0,0,0,0,0,0,0,0,0],"sum_hessian":[1.07434135E2,8.250494E1,2.49292E1,2.458564E0,8.004637E1,7.027901E0,1.7901299E1,4.430075E1,3.574562E1,1.0609472E0,5.9669538E0,1.3328818E1,4.57248E0,4.2640427E1,1.6603242E0,3.1734125E1,4.011495E0,1.271023E0,1.2057796E1],"tree_param":{"num_deleted":"0","num_feature":"13","num_nodes":"19","size_leaf_vector":"1"}},{"base_weights":[1.3752231E-2,1.0695238E-1,-9.329865E-1,2.0559071E-1,-6.5937954E-1,-5.6727994E-2,-2.3845054E-1,3.119142E-1,-4.8482284E-1,-6.301114E-2,6.509433E-2,-3.896359E-2,2.6872087E-2,-2.8514965E-2,2.0005416E-2,4.3998226E-3,-6.038397E-2,-4.845524E-2,3.7600063E-2],"categories":[],"categories_nodes":[],"categories_segments":[],"categories_sizes":[],"default_left":[0,0,0,0,0,0,0,0,0,0,0,0,0,0,0,0,0,0,0],"id":26,"left_children":[1,3,5,7,9,-1,11,13,15,-1,17,-1,-1,-1,-1,-1,-1,-1,-1],"loss_changes":[9.559089E0,7.580679E0,1.0889444E0,6.6128297E0,5.074691E0,0E0,1.8666757E0,6.2103744E0,5.132289E0,0E0,5.098226E0,0E0,0E0,0E0,0E0,0E0,0E0,0E0,0E0],"parents":[2147483647,0,0,1,1,2,2,3,3,4,4,6,6,7,7,8,8,10,10],"right_children":[2,4,6,8,10,-1,12,14,16,-1,18,-1,-1,-1,-1,-1,-1,-1,-1],"split_conditions":[3.8E1,3.8E1,3.6E1,3.6E1,2.975E1,-5.6727994E-2,1.38E2,1.8E1,1.45E2,-6.301114E-2,1.11E2,-3.896359E-2,2.6872087E-2,-2.8514965E-2,2.0005416E-2,4.3998226E-3,-6.038397E-2,-4.845524E-2,3.7600063E-2],"split_indices":[2,5,6,3,8,0,12,5,12,0,12,0,0,0,0,0,0,0,0],"split_type":[0,0,0,0,0,0,0,0,0,0,0,0,0,0,0,0,0,0,0],"sum_hessian":[1.0620436E2,9.7493774E1,8.710584E0,8.7024185E1,1.0469589E1,6.2601624E0,2.4504218E0,7.588599E1,1.1138199E1,5.3188744E0,5.150715E0,1.4413795E0,1.0090424E0,6.3999825E0,6.948601E1,6.7039766E0,4.4342227E0,1.8917276E0,3.2589872E0],"tree_param":{"num_deleted":"0","num_feature":"13","num_nodes":"19","size_leaf_vector":"1"}},{"base_weights":[-3.4413487E-2,5.178505E-2,-9.9298006E-1,2.0118296E-1,-4.4540876E-1,-6.201604E-2,-2.1854385E-3,5.8934116E-1,-8.919995E-2,4.822217E-2,-1.1742694E0,5.1194515E-2,4.4072275E-3,2.1341613E-2,-2.3969274E-2,-6.7518696E-2,1.8515198E-2,-1.5545349E-2,-6.938978E-2],"categories":[],"categories_nodes":[],"categories_segments":[],"categories_sizes":[],"default_left":[0,0,0,0,0,0,0,0,0,0,0,0,0,0,0,0,0,0,0],"id":27,"left_children":[1,3,5,7,9,-1,-1,11,13,15,17,-1,-1,-1,-1,-1,-1,-1,-1],"loss_changes":[8.77339E0,7.3541355E0,2.002265E0,8.606632E0,8.2987175E0,0E0,0E0,7.0118856E0,9.120741E0,7.0851865E0,1.2810593E0,0E0,0E0,0E0,0E0,0E0,0E0,0E0,0E0],"parents":[2147483647,0,0,1,1,2,2,3,3,4,4,7,7,8,8,9,9,10,10],"right_children":[2,4,6,8,10,-1,-1,12,14,16,18,-1,-1,-1,-1,-1,-1,-1,-1],"split_conditions":[3.9E1,7.485108E-1,8.85456E-1,1.49E2,2.8E1,-6.201604E-2,-2.1854385E-3,3.1E1,2.6E1,1.8E1,2.1E1,5.1194515E-2,4.4072275E-3,2.1341613E-2,-2.3969274E-2,-6.7518696E-2,1.8515198E-2,-1.5545349E-2,-6.938978E-2],"split_indices":[0,10,10,12,5,0,0,1,9,5,3,0,0,0,0,0,0,0,0],"split_type":[0,0,0,0,0,0,0,0,0,0,0,0,0,0,0,0,0,0,0],"sum_hessian":[1.0455828E2,9.679961E1,7.7586718E0,7.4891426E1,2.190818E1,5.91172E0,1.8469517E0,3.1609335E1,4.3282093E1,1.3618621E1,8.289559E0,1.6371752E1,1.5237583E1,1.859531E1,2.4686785E1,1.9515668E0,1.1667054E1,2.1306484E0,6.1589108E0],"tree_param":{"num_deleted":"0","num_feature":"13","num_nodes":"19","size_leaf_vector":"1"}},{"base_weights":[-2.2717712E-2,-8.7544775E-1,3.9928578E-2,7.474179E-3,-1.1293327E0,7.2067547E-1,-6.775134E-2,-6.280888E-3,-7.282971E-2,3.0361813E-1,5.962607E-2,1.250567E-2,-1.0823501E0,-5.7365138E-2,3.7700247E-2,-5.7766933E-2,3.2889363E-3,-7.1313016E-2,2.5261329E-3],"categories":[],"categories_nodes":[],"categories_segments":[],"categories_sizes":[],"default_left":[0,0,0,0,0,0,0,0,0,0,0,0,0,0,0,0,0,0,0],"id":28,"left_children":[1,3,5,-1,7,9,11,-1,-1,13,-1,15,17,-1,-1,-1,-1,-1,-1],"loss_changes":[5.6474776E0,2.0511875E0,7.293297E0,0E0,1.7598538E0,2.311006E0,7.036415E0,0E0,0E0,6.453593E0,0E0,5.1099215E0,2.5396543E0,0E0,0E0,0E0,0E0,0E0,0E0],"parents":[2147483647,0,0,1,1,2,2,4,4,5,5,6,6,9,9,11,11,12,12],"right_children":[2,4,6,-1,8,10,12,-1,-1,14,-1,16,18,-1,-1,-1,-1,-1,-1],"split_conditions":[1.8E1,2.1E1,2.4375E1,7.474179E-3,-6.6312265E-1,2.5E1,4.1E1,-6.280888E-3,-7.282971E-2,1.9E1,5.962607E-2,1.9E1,3.225E1,-5.7365138E-2,3.7700247E-2,-5.7766933E-2,3.2889363E-3,-7.1313016E-2,2.5261329E-3],"split_indices":[5,1,9,0,11,1,6,0,0,6,0,3,8,0,0,0,0,0,0],"split_type":[0,0,0,0,0,0,0,0,0,0,0,0,0,0,0,0,0,0,0],"sum_hessian":[1.0406333E2,6.2339177E0,9.7829414E1,1.319266E0,4.9146514E0,1.2583626E1,8.524579E1,1.5486791E0,3.3659725E0,7.551998E0,5.0316277E0,7.991223E1,5.33356E0,1.4223914E0,6.1296067E0,2.5837836E0,7.7328445E1,3.892825E0,1.4407353E0],"tree_param":{"num_deleted":"0","num_feature":"13","num_nodes":"19","size_leaf_vector":"1"}},{"base_weights":[-8.076864E-3,7.014236E-2,-9.3354386E-1,1.2579903E-1,-7.442246E-1,2.7507672E-2,-6.060067E-2,2.8137428E-1,-1.78197E-1,-5.260077E-2,2.3720624E-2,1.9554144E-2,-2.1973385E-2,2.1262981E-2,-3.5213593E-2],"categories":[],"categories_nodes":[],"categories_segments":[],"categories_sizes":[],"default_left":[0,0,0,0,0,0,0,0,0,0,0,0,0,0,0],"id":29,"left_children":[1,3,5,7,9,-1,-1,11,13,-1,-1,-1,-1,-1,-1],"loss_changes":[7.897621E0,4.657529E0,4.179398E0,4.5481515E0,2.969428E0,0E0,0E0,5.1777024E0,1.0714866E1,0E0,0E0,0E0,0E0,0E0,0E0],"parents":[2147483647,0,0,1,1,2,2,3,3,4,4,7,7,8,8],"right_children":[2,4,6,8,10,-1,-1,12,14,-1,-1,-1,-1,-1,-1],"split_conditions":[3.3E1,3.8E1,2.5E1,2.39E2,3.2875E1,2.7507672E-2,-6.060067E-2,3.8E1,2.4375E1,-5.260077E-2,2.3720624E-2,1.9554144E-2,-2.1973385E-2,2.1262981E-2,-3.5213593E-2],"split_indices":[9,2,6,12,9,0,0,5,9,0,0,0,0,0,0],"split_type":[0,0,0,0,0,0,0,0,0,0,0,0,0,0,0],"sum_hessian":[1.0719471E2,9.9693E1,7.5017095E0,9.4106926E1,5.5860705E0,1.031295E0,6.470414E0,6.2298836E1,3.1808092E1,4.568846E0,1.0172244E0,5.4466732E1,7.832105E0,1.4903748E1,1.6904345E1],"tree_param":{"num_deleted":"0","num_feature":"13","num_nodes":"15","size_leaf_vector":"1"}},{"base_weights":[-4.0514626E-2,5.2563716E-3,-5.047499E-2,8.315795E-2,-5.0530064E-1,1.9190331E-1,-3.620695E-1,2.7868224E-2,-7.5243795E-1,1.3821117E-2,-3.906342E-2,-3.2595396E-2,2.6954433E-2,-6.676297E-2,-8.535763E-3],"categories":[],"categories_nodes":[],"categories_segments":[],"categories_sizes":[],"default_left":[0,0,0,0,0,0,0,0,0,0,0,0,0,0,0],"id":30,"left_children":[1,3,-1,5,7,9,11,-1,13,-1,-1,-1,-1,-1,-1],"loss_changes":[4.649034E0,4.058125E0,0E0,4.3527136E0,3.9670808E0,6.1178384E0,4.977761E0,0E0,3.6321402E0,0E0,0E0,0E0,0E0,0E0,0E0],"parents":[2147483647,0,0,1,1,3,3,4,4,5,5,6,6,8,8],"right_children":[2,4,-1,6,8,10,12,-1,14,-1,-1,-1,-1,-1,-1],"split_conditions":[4.1E1,3.7E1,-5.047499E-2,3.5E1,2.1E1,3.8E1,3.8E1,2.7868224E-2,3.1E1,1.3821117E-2,-3.906342E-2,-3.2595396E-2,2.6954433E-2,-6.676297E-2,-8.535763E-3],"split_indices":[2,0,0,3,3,5,7,0,3,0,0,0,0,0,0],"split_type":[0,0,0,0,0,0,0,0,0,0,0,0,0,0,0],"sum_hessian":[1.0370302E2,9.997517E1,3.7278533E0,8.7466515E1,1.2508653E1,7.075404E1,1.671247E1,2.1233182E0,1.0385335E1,6.57589E1,4.995139E0,1.2854635E1,3.8578327E0,4.5407023E0,5.844632E0],"tree_param":{"num_deleted":"0","num_feature":"13","num_nodes":"15","size_leaf_vector":"1"}},{"base_weights":[-2.2771673E-2,1.2231517E-1,-5.2531517E-1,2.2601905E-1,-5.848953E-1,5.1340884E-1,-1.0970173E0,3.1005982E-1,-5.0939865E-2,-9.044238E-1,2.2196597E-1,-5.5030543E-2,9.654232E-1,-1.564608E-1,-7.4957006E-2,3.5076853E-2,3.1325181E-3,-1.2886161E-3,-5.941235E-2,-3.7694534E-3,2.7143387E-2,5.7922114E-2,4.5722905E-3,-5.579982E-2,2.7174631E-2],"categories":[],"categories_nodes":[],"categories_segments":[],"categories_sizes":[],"default_left":[0,0,0,0,0,0,0,0,0,0,0,0,0,0,0,0,0,0,0,0,0,0,0,0,0],"id":31,"left_children":[1,3,5,7,9,11,13,15,-1,17,19,-1,21,23,-1,-1,-1,-1,-1,-1,-1,-1,-1,-1,-1],"loss_changes":[7.880376E0,6.2923884E0,1.4936724E1,8.05471E0,3.0419674E0,7.8283052E0,5.7906876E0,6.7419558E0,0E0,1.9871783E0,4.1585165E-1,0E0,1.2060871E0,4.5608387E0,0E0,0E0,0E0,0E0,0E0,0E0,0E0,0E0,0E0,0E0,0E0],"parents":[2147483647,0,0,1,1,2,2,3,3,4,4,5,5,6,6,7,7,9,9,10,10,12,12,13,13],"right_children":[2,4,6,8,10,12,14,16,-1,18,20,-1,22,24,-1,-1,-1,-1,-1,-1,-1,-1,-1,-1,-1],"split_conditions":[7.485108E-1,3.2625E1,2.2E1,3.8E1,3.9E1,2.3E1,2.2E1,1.46E2,-5.0939865E-2,3E1,3.8E1,-5.5030543E-2,2.7E2,2.5E1,-7.4957006E-2,3.5076853E-2,3.1325181E-3,-1.2886161E-3,-5.941235E-2,-3.7694534E-3,2.7143387E-2,5.7922114E-2,4.5722905E-3,-5.579982E-2,2.7174631E-2],"split_indices":[10,9,6,2,2,4,5,12,0,1,7,0,12,7,0,0,0,0,0,0,0,0,0,0,0],"split_type":[0,0,0,0,0,0,0,0,0,0,0,0,0,0,0,0,0,0,0,0,0,0,0,0,0],"sum_hessian":[1.0619874E2,8.299443E1,2.3204306E1,7.297407E1,1.002036E1,8.273739E0,1.4930566E1,6.906241E1,3.9116626E0,7.09122E0,2.9291399E0,1.4962252E0,6.7775135E0,4.887619E0,1.0042947E1,2.6033669E1,4.302874E1,1.9976764E0,5.0935435E0,1.9174538E0,1.0116861E0,5.284862E0,1.4926515E0,1.8108364E0,3.0767827E0],"tree_param":{"num_deleted":"0","num_feature":"13","num_nodes":"25","size_leaf_vector":"1"}},{"base_weights":[-7.542675E-2,4.4443183E-2,-8.079086E-1,1.920282E-1,-4.2180604E-1,-6.283607E-2,1.1477662E-2,2.8741404E-1,-5.7307005E-2,3.8122582E-1,-7.392114E-2,7.4188673E-1,-4.4849183E-2,2.938282E-2,-2.0051449E-4,3.3232383E-2,-5.65313E-2,8.235931E-3,4.84541E-2],"categories":[],"categories_nodes":[],"categories_segments":[],"categories_sizes":[],"default_left":[0,0,0,0,0,0,0,0,0,0,0,0,0,0,0,0,0,0,0],"id":32,"left_children":[1,3,5,7,9,-1,11,13,-1,15,-1,17,-1,-1,-1,-1,-1,-1,-1],"loss_changes":[9.011006E0,6.1908636E0,5.3202124E0,9.025736E0,1.8942978E1,0E0,4.711027E0,5.636928E0,0E0,6.365746E0,0E0,3.5531354E-1,0E0,0E0,0E0,0E0,0E0,0E0,0E0],"parents":[2147483647,0,0,1,1,2,2,3,3,4,4,6,6,7,7,9,9,11,11],"right_children":[2,4,6,8,10,-1,12,14,-1,16,-1,18,-1,-1,-1,-1,-1,-1,-1],"split_conditions":[3.6E1,7.485108E-1,3.3E1,3.9E1,2.6E1,-6.283607E-2,2.5E1,1.88E2,-5.7307005E-2,3.2E1,-7.392114E-2,2.9E1,-4.4849183E-2,2.938282E-2,-2.0051449E-4,3.3232383E-2,-5.65313E-2,8.235931E-3,4.84541E-2],"split_indices":[3,10,2,0,6,0,6,12,0,1,0,1,0,0,0,0,0,0,0],"split_type":[0,0,0,0,0,0,0,0,0,0,0,0,0,0,0,0,0,0,0],"sum_hessian":[1.0121913E2,8.779147E1,1.3427663E1,6.713038E1,2.066109E1,8.330795E0,5.096868E0,6.339663E1,3.733751E0,1.2102418E1,8.558673E0,2.926944E0,2.169924E0,3.0725222E1,3.267141E1,1.0663704E1,1.4387139E0,1.3139603E0,1.6129837E0],"tree_param":{"num_deleted":"0","num_feature":"13","num_nodes":"19","size_leaf_vector":"1"}},{"base_weights":[-3.601312E-2,1.4450313E-1,-3.0508858E-1,2.464825E-1,-7.868425E-1,-4.135259E-2,-1.2750105E0,3.9728174E-1,-2.7644947E-1,1.9926628E-2,-5.5780645E-2,2.6639622E-1,-5.467563E-1,-7.842653E-2,1.5854636E-2,2.7346143E-2,-2.7345512E-2,2.8445808E-2,-4.9342807E-2,-5.6858074E-2,2.1079361E-2,3.0240354E-3,-6.85741E-2],"categories":[],"categories_nodes":[],"categories_segments":[],"categories_sizes":[],"default_left":[0,0,0,0,0,0,0,0,0,0,0,0,0,0,0,0,0,0,0,0,0,0,0],"id":33,"left_children":[1,3,5,7,9,11,13,15,17,-1,-1,19,21,-1,-1,-1,-1,-1,-1,-1,-1,-1,-1],"loss_changes":[5.0087605E0,6.0684376E0,1.0527443E1,4.5659556E0,2.9164402E0,5.364224E0,4.613801E0,6.5541162E0,8.5114355E0,0E0,0E0,5.1682158E0,6.60631E0,0E0,0E0,0E0,0E0,0E0,0E0,0E0,0E0,0E0,0E0],"parents":[2147483647,0,0,1,1,2,2,3,3,4,4,5,5,6,6,7,7,8,8,11,11,12,12],"right_children":[2,4,6,8,10,12,14,16,18,-1,-1,20,22,-1,-1,-1,-1,-1,-1,-1,-1,-1,-1],"split_conditions":[2.01E2,3.9E1,3.1E1,7.485108E-1,2.1E1,2.7E1,4.5E1,3.7E1,2.5E1,1.9926628E-2,-5.5780645E-2,1.6E1,2.4E1,-7.842653E-2,1.5854636E-2,2.7346143E-2,-2.7345512E-2,2.8445808E-2,-4.9342807E-2,-5.6858074E-2,2.1079361E-2,3.0240354E-3,-6.85741E-2],"split_indices":[12,0,0,10,3,4,0,5,6,0,0,4,5,0,0,0,0,0,0,0,0,0,0],"split_type":[0,0,0,0,0,0,0,0,0,0,0,0,0,0,0,0,0,0,0,0,0,0,0],"sum_hessian":[1.0121165E2,6.085108E1,4.036056E1,5.5508434E1,5.3426485E0,3.255187E1,7.8086944E0,4.3270645E1,1.2237786E1,1.1139895E0,4.228659E0,2.052609E1,1.2025777E1,6.6056776E0,1.203017E0,3.7714222E1,5.556424E0,5.6790414E0,6.558745E0,1.4136305E0,1.9112461E1,7.4598393E0,4.565937E0],"tree_param":{"num_deleted":"0","num_feature":"13","num_nodes":"23","size_leaf_vector":"1"}},{"base_weights":[6.9000637E-3,2.614822E-1,-2.8178874E-1,-5.4743886E-2,3.3856916E-1,-1.3435644E-2,-8.517675E-1,6.455292E-1,-4.887053E-2,-4.1980398E-1,4.8249018E-1,6.185597E-1,-1.3005996E0,-3.6093485E-2,4.0023476E-2,-4.6782043E-2,1.5002777E-2,-3.7019007E-2,1.53779015E-2,4.487215E-2,-2.578736E-3,5.1572382E-2,-2.7084383E-3,-7.607109E-2,-1.784665E-2],"categories":[],"categories_nodes":[],"categories_segments":[],"categories_sizes":[],"default_left":[0,0,0,0,0,0,0,0,0,0,0,0,0,0,0,0,0,0,0,0,0,0,0,0,0],"id":34,"left_children":[1,3,5,-1,7,9,11,13,15,17,19,21,23,-1,-1,-1,-1,-1,-1,-1,-1,-1,-1,-1,-1],"loss_changes":[7.4372196E0,5.991626E0,7.243512E0,0E0,6.1720586E0,6.906344E0,1.0813701E1,6.6961613E0,7.6305118E0,4.615584E0,3.469473E0,1.229359E0,1.9455128E0,0E0,0E0,0E0,0E0,0E0,0E0,0E0,0E0,0E0,0E0,0E0,0E0],"parents":[2147483647,0,0,1,1,2,2,4,4,5,5,6,6,7,7,8,8,9,9,10,10,11,11,12,12],"right_children":[2,4,6,-1,8,10,12,14,16,18,20,22,24,-1,-1,-1,-1,-1,-1,-1,-1,-1,-1,-1,-1],"split_conditions":[2.8E1,1.7E1,1.92E2,-5.4743886E-2,2.8E1,1.2E2,2.4E1,1.9E1,2.5E1,8.2298386E-1,2.9625E1,1.3E1,8.2298386E-1,-3.6093485E-2,4.0023476E-2,-4.6782043E-2,1.5002777E-2,-3.7019007E-2,1.53779015E-2,4.487215E-2,-2.578736E-3,5.1572382E-2,-2.7084383E-3,-7.607109E-2,-1.784665E-2],"split_indices":[4,0,12,0,0,12,9,1,3,11,9,1,10,0,0,0,0,0,0,0,0,0,0,0,0],"split_type":[0,0,0,0,0,0,0,0,0,0,0,0,0,0,0,0,0,0,0,0,0,0,0,0,0],"sum_hessian":[9.919097E1,5.2759182E1,4.6431793E1,2.127218E0,5.063196E1,3.226473E1,1.4167065E1,2.7878386E1,2.2753578E1,1.7817951E1,1.4446776E1,3.2248006E0,1.0942264E1,2.464994E0,2.5413391E1,5.9501686E0,1.680341E1,1.2354816E1,5.4631357E0,7.7471027E0,6.699673E0,1.6678967E0,1.556904E0,8.371136E0,2.5711281E0],"tree_param":{"num_deleted":"0","num_feature":"13","num_nodes":"25","size_leaf_vector":"1"}},{"base_weights":[1.3564288E-2,5.5070516E-2,-4.8375096E-2,-5.4161157E-2,9.056214E-2,1.6144027E-1,-5.457107E-1,1.111336E-2,-3.176109E-2,-5.8585346E-2,1.3207845E-2],"categories":[],"categories_nodes":[],"categories_segments":[],"categories_sizes":[],"default_left":[0,0,0,0,0,0,0,0,0,0,0],"id":35,"left_children":[1,3,-1,-1,5,7,9,-1,-1,-1,-1],"loss_changes":[4.318543E0,4.196254E0,0E0,0E0,4.5661044E0,4.508009E0,5.4708776E0,0E0,0E0,0E0,0E0],"parents":[2147483647,0,0,1,1,4,4,5,5,6,6],"right_children":[2,4,-1,-1,6,8,10,-1,-1,-1,-1],"split_conditions":[4.1E1,1.6E1,-4.8375096E-2,-5.4161157E-2,3.8E1,4.1E1,4.6472317E-1,1.111336E-2,-3.176109E-2,-5.8585346E-2,1.3207845E-2],"split_indices":[2,0,0,0,0,1,10,0,0,0,0],"split_type":[0,0,0,0,0,0,0,0,0,0,0],"sum_hessian":[1.037452E2,1.00439735E2,3.305464E0,2.1443772E0,9.8295364E1,8.911464E1,9.180725E0,8.346305E1,5.6515875E0,4.926186E0,4.254539E0],"tree_param":{"num_deleted":"0","num_feature":"13","num_nodes":"11","size_leaf_vector":"1"}},{"base_weights":[-1.2964476E-2,5.0484337E-2,-8.439693E-1,2.3269366E-1,-2.2449131E-1,-5.6740113E-2,1.8914236E-2,3.230329E-1,-6.634493E-1,7.2263286E-2,-9.148412E-1,2.1959173E-2,-1.6501088E-2,-4.9514048E-2,1.8374192E-2,-1.6061056E-2,2.8578108E-2,2.3553275E-2,-7.3242016E-2],"categories":[],"categories_nodes":[],"categories_segments":[],"categories_sizes":[],"default_left":[0,0,0,0,0,0,0,0,0,0,0,0,0,0,0,0,0,0,0],"id":36,"left_children":[1,3,5,7,9,-1,-1,11,13,15,17,-1,-1,-1,-1,-1,-1,-1,-1],"loss_changes":[5.4162884E0,4.843631E0,3.0192375E0,4.910496E0,7.978424E0,0E0,0E0,4.1931E0,2.2641635E0,5.6724615E0,9.596327E0,0E0,0E0,0E0,0E0,0E0,0E0,0E0,0E0],"parents":[2147483647,0,0,1,1,2,2,3,3,4,4,7,7,8,8,9,9,10,10],"right_children":[2,4,6,8,10,-1,-1,12,14,16,18,-1,-1,-1,-1,-1,-1,-1,-1],"split_conditions":[3.3E1,2.18E2,4.3E1,3.8E1,2.9E1,-5.6740113E-2,1.8914236E-2,8.85456E-1,3.2625E1,3E1,2.4125E1,2.1959173E-2,-1.6501088E-2,-4.9514048E-2,1.8374192E-2,-1.6061056E-2,2.8578108E-2,2.3553275E-2,-7.3242016E-2],"split_indices":[9,12,5,2,6,0,0,11,9,5,9,0,0,0,0,0,0,0,0],"split_type":[0,0,0,0,0,0,0,0,0,0,0,0,0,0,0,0,0,0,0],"sum_hessian":[1.00916595E2,9.4630615E1,6.28598E0,5.700843E1,3.762219E1,5.1355386E0,1.1504418E0,5.2368725E1,4.6397057E0,2.6937937E1,1.068425E1,4.4739048E1,7.629675E0,3.5528088E0,1.086897E0,1.5264802E1,1.1673136E1,3.0762148E0,7.608035E0],"tree_param":{"num_deleted":"0","num_feature":"13","num_nodes":"19","size_leaf_vector":"1"}},{"base_weights":[3.1339966E-2,1.9717714E-1,-3.4155232E-1,-6.0835864E-2,2.7414995E-1,-9.700161E-3,-1.0819504E0,-6.14757E-2,3.2917213E-1,4.3134314E-1,-5.530015E-1,-6.5333165E-2,2.4987098E-3,1.9094495E-2,-4.2065617E-2,-5.8932323E-2,4.313077E-2,-6.407385E-2,4.17334E-3],"categories":[],"categories_nodes":[],"categories_segments":[],"categories_sizes":[],"default_left":[0,0,0,0,0,0,0,0,0,0,0,0,0,0,0,0,0,0,0],"id":37,"left_children":[1,3,5,-1,7,9,11,-1,13,15,17,-1,-1,-1,-1,-1,-1,-1,-1],"loss_changes":[6.3915176E0,8.106367E0,7.814418E0,0E0,6.076137E0,5.7497163E0,2.5700521E0,0E0,4.4505057E0,1.0221162E1,5.088161E0,0E0,0E0,0E0,0E0,0E0,0E0,0E0,0E0],"parents":[2147483647,0,0,1,1,2,2,4,4,5,5,6,6,8,8,9,9,10,10],"right_children":[2,4,6,-1,8,10,12,-1,14,16,18,-1,-1,-1,-1,-1,-1,-1,-1],"split_conditions":[3.2E1,1.7E1,3.2E1,-6.0835864E-2,1.5E1,-1.6081226E-16,3.8E1,-6.14757E-2,4E1,8.6E1,3.1E1,-6.5333165E-2,2.4987098E-3,1.9094495E-2,-4.2065617E-2,-5.8932323E-2,4.313077E-2,-6.407385E-2,4.17334E-3],"split_indices":[4,0,0,0,5,11,1,0,2,12,2,0,0,0,0,0,0,0,0],"split_type":[0,0,0,0,0,0,0,0,0,0,0,0,0,0,0,0,0,0,0],"sum_hessian":[1.0126767E2,7.042059E1,3.0847076E1,2.8712995E0,6.754929E1,2.199973E1,8.847347E0,1.6309999E0,6.591829E1,1.2256318E1,9.743411E0,7.253074E0,1.5942731E0,6.372203E1,2.1962614E0,2.2233484E0,1.003297E1,4.0707636E0,5.6726475E0],"tree_param":{"num_deleted":"0","num_feature":"13","num_nodes":"19","size_leaf_vector":"1"}},{"base_weights":[3.9302606E-2,1.0186543E-1,-6.653368E-1,-7.286043E-1,1.5880768E-1,-5.6492817E-2,3.4538773E-1,-1.016937E0,2.0298196E-2,2.1356821E-1,-6.344012E-1,2.1423232E-2,6.795425E-3,1.7718768E-2,-7.1589835E-2,1.5998073E-2,-1.2996097E-2,-6.216525E-2,5.863808E-3],"categories":[],"categories_nodes":[],"categories_segments":[],"categories_sizes":[],"default_left":[0,0,0,0,0,0,0,0,0,0,0,0,0,0,0,0,0,0,0],"id":38,"left_children":[1,3,5,7,9,-1,11,13,-1,15,17,-1,-1,-1,-1,-1,-1,-1,-1],"loss_changes":[4.641144E0,4.662483E0,4.424459E0,2.4896507E0,4.079549E0,0E0,2.181679E-3,3.5495286E0,0E0,4.39964E0,2.9449213E0,0E0,0E0,0E0,0E0,0E0,0E0,0E0,0E0],"parents":[2147483647,0,0,1,1,2,2,3,3,4,4,6,6,7,7,9,9,10,10],"right_children":[2,4,6,8,10,-1,12,14,-1,16,18,-1,-1,-1,-1,-1,-1,-1,-1],"split_conditions":[3.9E1,1.8E1,8.85456E-1,2.75E1,4.1E1,-5.6492817E-2,2E1,2.2E1,2.0298196E-2,3.6E1,4.5E1,2.1423232E-2,6.795425E-3,1.7718768E-2,-7.1589835E-2,1.5998073E-2,-1.2996097E-2,-6.216525E-2,5.863808E-3],"split_indices":[0,5,10,9,6,0,4,1,0,3,6,0,0,0,0,0,0,0,0],"split_type":[0,0,0,0,0,0,0,0,0,0,0,0,0,0,0,0,0,0,0],"sum_hessian":[1.02741615E2,9.514905E1,7.592564E0,5.348518E0,8.980053E1,5.1210904E0,2.4714735E0,4.347379E0,1.0011389E0,8.468491E1,5.1156135E0,1.0211269E0,1.4503466E0,1.0435928E0,3.3037863E0,6.941224E1,1.5272679E1,2.4648755E0,2.6507382E0],"tree_param":{"num_deleted":"0","num_feature":"13","num_nodes":"19","size_leaf_vector":"1"}},{"base_weights":[-1.6218424E-2,4.1076746E-2,-9.0931106E-1,1.5985592E-1,-3.4615064E-1,-6.464293E-2,2.5010867E-2,-5.6908317E-2,2.0482971E-1,2.5362045E-1,-7.960963E-1,1.2647028E-2,-4.7275696E-2,2.859502E-2,-5.917762E-2,-5.5029105E-2,1.738298E-2],"categories":[],"categories_nodes":[],"categories_segments":[],"categories_sizes":[],"default_left":[0,0,0,0,0,0,0,0,0,0,0,0,0,0,0,0,0],"id":39,"left_children":[1,3,5,7,9,-1,-1,-1,11,13,15,-1,-1,-1,-1,-1,-1],"loss_changes":[5.1015835E0,4.37695E0,3.8956656E0,4.4705706E0,6.239252E0,0E0,0E0,0E0,4.1688185E0,5.410164E0,4.91835E0,0E0,0E0,0E0,0E0,0E0,0E0],"parents":[2147483647,0,0,1,1,2,2,3,3,4,4,8,8,9,9,10,10],"right_children":[2,4,6,8,10,-1,-1,-1,12,14,16,-1,-1,-1,-1,-1,-1],"split_conditions":[4.1E1,2.66E2,2.98E2,1.7E1,2.4375E1,-6.464293E-2,2.5010867E-2,-5.6908317E-2,3.6E1,2.7E1,2.975E1,1.2647028E-2,-4.7275696E-2,2.859502E-2,-5.917762E-2,-5.5029105E-2,1.738298E-2],"split_indices":[6,12,12,1,9,0,0,0,8,0,8,0,0,0,0,0,0],"split_type":[0,0,0,0,0,0,0,0,0,0,0,0,0,0,0,0,0],"sum_hessian":[9.796897E1,9.29593E1,5.0096736E0,7.1587524E1,2.1371773E1,4.0031476E0,1.0065261E0,1.583303E0,7.000422E1,9.347725E0,1.2024049E1,6.7942764E1,2.0614557E0,8.145801E0,1.201924E0,9.525863E0,2.498186E0],"tree_param":{"num_deleted":"0","num_feature":"13","num_nodes":"17","size_leaf_vector":"1"}},{"base_weights":[9.104707E-3,4.99546E-2,-4.7135327E-2,-5.2013483E-2,8.4609084E-2,1.4336084E-1,-6.0082185E-1,-8.007804E-3,1.3863008E-2,-5.504421E-2,1.9294694E-2],"categories":[],"categories_nodes":[],"categories_segments":[],"categories_sizes":[],"default_left":[0,0,0,0,0,0,0,0,0,0,0],"id":40,"left_children":[1,3,-1,-1,5,7,9,-1,-1,-1,-1],"loss_changes":[3.96983E0,3.7787712E0,0E0,0E0,3.9360929E0,3.655847E0,4.244044E0,0E0,0E0,0E0,0E0],"parents":[2147483647,0,0,1,1,4,4,5,5,6,6],"right_children":[2,4,-1,-1,6,8,10,-1,-1,-1,-1],"split_conditions":[4.1E1,1.6E1,-4.7135327E-2,-5.2013483E-2,3.9E1,2.5E1,8.85456E-1,-8.007804E-3,1.3863008E-2,-5.504421E-2,1.9294694E-2],"split_indices":[2,0,0,0,0,3,10,0,0,0,0],"split_type":[0,0,0,0,0,0,0,0,0,0,0],"sum_hessian":[9.988985E1,9.668771E1,3.2021332E0,2.0847118E0,9.4603004E1,8.786269E1,6.7403097E0,2.6835989E1,6.1026703E1,4.396487E0,2.3438222E0],"tree_param":{"num_deleted":"0","num_feature":"13","num_nodes":"11","size_leaf_vector":"1"}},{"base_weights":[3.412844E-2,-5.8131892E-2,6.82914E-2,5.908109E-1,-4.215237E-2,-5.196401E-1,7.8839713E-1,3.2004587E-2,-9.2656815E-1,1.6785216E-2,-5.3800393E-2,1.5793325E-2,6.166581E-2,5.063308E-3,-4.4538427E-2,-6.206074E-2,1.796369E-2],"categories":[],"categories_nodes":[],"categories_segments":[],"categories_sizes":[],"default_left":[0,0,0,0,0,0,0,0,0,0,0,0,0,0,0,0,0],"id":41,"left_children":[1,-1,3,5,7,9,11,13,15,-1,-1,-1,-1,-1,-1,-1,-1],"loss_changes":[4.176423E0,0E0,5.7018366E0,4.190369E0,5.4168878E0,1.8867185E0,2.7693806E0,4.9956703E0,3.0304012E0,0E0,0E0,0E0,0E0,0E0,0E0,0E0,0E0],"parents":[2147483647,0,0,2,2,3,3,4,4,5,5,6,6,7,7,8,8],"right_children":[2,-1,4,6,8,10,12,14,16,-1,-1,-1,-1,-1,-1,-1,-1],"split_conditions":[1.6E1,-5.8131892E-2,2.4875E1,1.8E1,2.98E2,2.6E2,2.5E1,4.1E1,9.7094184E-1,1.6785216E-2,-5.3800393E-2,1.5793325E-2,6.166581E-2,5.063308E-3,-4.4538427E-2,-6.206074E-2,1.796369E-2],"split_indices":[4,0,9,5,12,12,3,6,10,0,0,0,0,0,0,0,0],"split_type":[0,0,0,0,0,0,0,0,0,0,0,0,0,0,0,0,0],"sum_hessian":[9.920831E1,1.8366412E0,9.737167E1,1.6231161E1,8.114051E1,2.205595E0,1.4025565E1,7.575258E1,5.3879294E0,1.025553E0,1.180042E0,7.6309657E0,6.3945994E0,7.129182E1,4.460767E0,4.356578E0,1.0313517E0],"tree_param":{"num_deleted":"0","num_feature":"13","num_nodes":"17","size_leaf_vector":"1"}},{"base_weights":[-3.190769E-2,6.0505096E-2,-6.4118344E-1,4.5396876E-1,-4.5163307E-2,-1.0442939E0,2.7363837E-1,7.087017E-1,-3.218453E-1,-1.0395558E0,5.583509E-2,-6.3398145E-2,1.0618882E-2,-3.621767E-2,7.335537E-1,4.8049964E-2,-1.9496033E-2,-4.9842924E-2,2.3301464E-2,9.364011E-3,-6.5794274E-2,-2.0905565E-2,1.1310924E-2,9.781297E-3,4.5658067E-2],"categories":[],"categories_nodes":[],"categories_segments":[],"categories_sizes":[],"default_left":[0,0,0,0,0,0,0,0,0,0,0,0,0,0,0,0,0,0,0,0,0,0,0,0,0],"id":42,"left_children":[1,3,5,7,9,11,13,15,17,19,21,-1,-1,-1,23,-1,-1,-1,-1,-1,-1,-1,-1,-1,-1],"loss_changes":[5.5773873E0,3.609675E0,5.095069E0,3.8577182E0,6.983876E0,2.8720932E0,2.725917E0,4.2936735E0,3.2446792E0,2.4192734E0,5.2264967E0,0E0,0E0,0E0,1.8558502E-1,0E0,0E0,0E0,0E0,0E0,0E0,0E0,0E0,0E0,0E0],"parents":[2147483647,0,0,1,1,2,2,3,3,4,4,5,5,6,6,7,7,8,8,9,9,10,10,14,14],"right_children":[2,4,6,8,10,12,14,16,18,20,22,-1,-1,-1,24,-1,-1,-1,-1,-1,-1,-1,-1,-1,-1],"split_conditions":[3.7E1,-7.485108E-1,6.6312265E-1,3.3E1,-4.6472317E-1,3.8E1,2.9E1,3.5E1,3.2E1,2.2E1,2.4E1,-6.3398145E-2,1.0618882E-2,-3.621767E-2,2.8E1,4.8049964E-2,-1.9496033E-2,-4.9842924E-2,2.3301464E-2,9.364011E-3,-6.5794274E-2,-2.0905565E-2,1.1310924E-2,9.781297E-3,4.5658067E-2],"split_indices":[0,10,10,7,10,1,2,2,1,3,7,0,0,0,5,0,0,0,0,0,0,0,0,0,0],"split_type":[0,0,0,0,0,0,0,0,0,0,0,0,0,0,0,0,0,0,0,0,0,0,0,0,0],"sum_hessian":[9.736791E1,8.532658E1,1.2041339E1,1.736619E1,6.796039E1,8.260066E0,3.7812734E0,1.3138699E1,4.227491E0,5.409332E0,6.2551052E1,7.0044003E0,1.2556654E0,1.0114689E0,2.7698045E0,1.0786792E1,2.351907E0,2.1339633E0,2.0935278E0,1.0536481E0,4.3556833E0,1.615622E1,4.6394836E1,1.2162626E0,1.5535419E0],"tree_param":{"num_deleted":"0","num_feature":"13","num_nodes":"25","size_leaf_vector":"1"}},{"base_weights":[-7.0068456E-2,-9.736943E-3,-8.580867E-1,8.374528E-2,-5.4752463E-1,1.4966133E-2,-5.959597E-2,7.305763E-1,-2.2648335E-2,-8.257923E-1,5.7395685E-1,-1.0009015E-2,4.7750972E-2,-7.868766E-3,2.6477864E-2,1.1514629E-2,-5.8964927E-2,9.9245375E-3,3.542235E-2],"categories":[],"categories_nodes":[],"categories_segments":[],"categories_sizes":[],"default_left":[0,0,0,0,0,0,0,0,0,0,0,0,0,0,0,0,0,0,0],"id":43,"left_children":[1,3,5,7,9,-1,-1,11,13,15,17,-1,-1,-1,-1,-1,-1,-1,-1],"loss_changes":[4.5738254E0,4.5975366E0,3.0006924E0,5.3842773E0,4.6994596E0,0E0,0E0,2.4989948E0,5.1386733E0,4.4747124E0,2.509451E-2,0E0,0E0,0E0,0E0,0E0,0E0,0E0,0E0],"parents":[2147483647,0,0,1,1,2,2,3,3,4,4,7,7,8,8,9,9,10,10],"right_children":[2,4,6,8,10,-1,-1,12,14,16,18,-1,-1,-1,-1,-1,-1,-1,-1],"split_conditions":[4E1,3.6E1,2.2E1,4.8E1,4.6E1,1.4966133E-2,-5.959597E-2,2.9E1,3.3E1,-9.350162E-1,2.9E1,-1.0009015E-2,4.7750972E-2,-7.868766E-3,2.6477864E-2,1.1514629E-2,-5.8964927E-2,9.9245375E-3,3.542235E-2],"split_indices":[4,3,3,12,3,0,0,0,3,10,1,0,0,0,0,0,0,0,0],"split_type":[0,0,0,0,0,0,0,0,0,0,0,0,0,0,0,0,0,0,0],"sum_hessian":[9.5381065E1,8.953828E1,5.842789E0,7.699817E1,1.2540112E1,1.331121E0,4.511668E0,1.0047376E1,6.695079E1,1.0258403E1,2.281708E0,1.9731026E0,8.074273E0,5.4394615E1,1.2556177E1,2.6600785E0,7.598325E0,1.254712E0,1.0269961E0],"tree_param":{"num_deleted":"0","num_feature":"13","num_nodes":"19","size_leaf_vector":"1"}},{"base_weights":[2.3330508E-2,-7.7277154E-1,8.288088E-2,7.875202E-3,-1.0105608E0,1.2431944E-1,-4.521355E-2,2.4732451E-3,-6.621025E-2,-5.910937E-2,3.9954525E-1,2.0520762E-2,-1.7335132E-2,3.5561632E-2,-3.8709526E-3],"categories":[],"categories_nodes":[],"categories_segments":[],"categories_sizes":[],"default_left":[0,0,0,0,0,0,0,0,0,0,0,0,0,0,0],"id":44,"left_children":[1,3,5,-1,7,9,-1,-1,-1,11,13,-1,-1,-1,-1],"loss_changes":[4.765505E0,1.7073517E0,3.9236875E0,0E0,1.963512E0,4.582182E0,0E0,0E0,0E0,7.5765653E0,5.442788E0,0E0,0E0,0E0,0E0],"parents":[2147483647,0,0,1,1,2,2,4,4,5,5,9,9,10,10],"right_children":[2,4,6,-1,8,10,-1,-1,-1,12,14,-1,-1,-1,-1],"split_conditions":[1.8E1,2.2E1,4.1E1,7.875202E-3,-6.6312265E-1,3.1E1,-4.521355E-2,2.4732451E-3,-6.621025E-2,2.5E1,3E1,2.0520762E-2,-1.7335132E-2,3.5561632E-2,-3.8709526E-3],"split_indices":[5,9,2,0,11,2,0,0,0,5,6,0,0,0,0],"split_type":[0,0,0,0,0,0,0,0,0,0,0,0,0,0,0],"sum_hessian":[9.8169754E1,5.998726E0,9.217103E1,1.289926E0,4.7088E0,8.929661E1,2.8744216E0,1.2674567E0,3.441343E0,5.405559E1,3.5241016E1,2.037094E1,3.368465E1,2.101617E1,1.4224844E1],"tree_param":{"num_deleted":"0","num_feature":"13","num_nodes":"15","size_leaf_vector":"1"}},{"base_weights":[-1.9096028E-2,1.3772908E-1,-2.7307525E-1,6.349198E-1,-2.5049316E-2,5.5589914E-1,-5.4498357E-1,-3.8550075E-2,9.1762716E-1,2.2362949E-1,-3.3347446E-1,8.1997997E-1,-3.4255423E-2,3.9787866E-2,-8.684798E-1,-1.5444035E-2,5.490868E-2,2.4005217E-2,-4.247771E-2,-3.230678E-2,3.8467538E-2,-2.6578528E-3,5.2941836E-2,-4.5736134E-2,2.8548151E-2,8.487074E-3,-5.899597E-2],"categories":[],"categories_nodes":[],"categories_segments":[],"categories_sizes":[],"default_left":[0,0,0,0,0,0,0,0,0,0,0,0,0,0,0,0,0,0,0,0,0,0,0,0,0,0,0],"id":45,"left_children":[1,3,5,7,9,11,13,-1,15,17,19,21,-1,23,25,-1,-1,-1,-1,-1,-1,-1,-1,-1,-1,-1,-1],"loss_changes":[3.9199448E0,4.946808E0,8.765848E0,6.695377E0,3.668784E0,3.7631347E0,5.4783163E0,0E0,3.2178593E0,7.7134366E0,7.8482165E0,1.8310084E0,0E0,6.2036543E0,6.2051754E0,0E0,0E0,0E0,0E0,0E0,0E0,0E0,0E0,0E0,0E0,0E0,0E0],"parents":[2147483647,0,0,1,1,2,2,3,3,4,4,5,5,6,6,8,8,9,9,10,10,11,11,13,13,14,14],"right_children":[2,4,6,8,10,12,14,-1,16,18,20,22,-1,24,26,-1,-1,-1,-1,-1,-1,-1,-1,-1,-1,-1,-1],"split_conditions":[3E1,-8.2298386E-1,4.8E1,2.1E1,2.8E1,3.5E1,2.5E1,-3.8550075E-2,7.5E1,3.3E1,3.25E1,3E1,-3.4255423E-2,2.7E1,-8.85456E-1,-1.5444035E-2,5.490868E-2,2.4005217E-2,-4.247771E-2,-3.230678E-2,3.8467538E-2,-2.6578528E-3,5.2941836E-2,-4.5736134E-2,2.8548151E-2,8.487074E-3,-5.899597E-2],"split_indices":[0,11,12,0,3,3,6,0,12,7,9,2,0,9,10,0,0,0,0,0,0,0,0,0,0,0,0],"split_type":[0,0,0,0,0,0,0,0,0,0,0,0,0,0,0,0,0,0,0,0,0,0,0,0,0,0,0],"sum_hessian":[9.647183E1,5.992656E1,3.654527E1,1.4065215E1,4.5861347E1,8.768393E0,2.7776878E1,2.0656083E0,1.1999607E1,2.554207E1,2.0319277E1,7.509638E0,1.2587544E0,1.0205608E1,1.757127E1,1.4485245E0,1.0551083E1,2.1061356E1,4.4807134E0,1.6153671E1,4.165606E0,1.7800701E0,5.729568E0,3.3906353E0,6.8149734E0,4.159629E0,1.3411641E1],"tree_param":{"num_deleted":"0","num_feature":"13","num_nodes":"27","size_leaf_vector":"1"}},{"base_weights":[3.6699984E-2,9.511673E-2,-7.761187E-1,1.4995734E-1,-7.0584095E-1,-5.3045817E-2,1.8120924E-2,-2.0803522E-1,2.8138143E-1,-4.9077217E-2,1.7063567E-2,1.9771695E-2,-2.6094204E-2,-2.334165E-2,1.8680906E-2],"categories":[],"categories_nodes":[],"categories_segments":[],"categories_sizes":[],"default_left":[0,0,0,0,0,0,0,0,0,0,0,0,0,0,0],"id":46,"left_children":[1,3,5,7,9,-1,-1,11,13,-1,-1,-1,-1,-1,-1],"loss_changes":[4.8559494E0,4.2722197E0,2.60955E0,4.2740445E0,2.1402986E0,0E0,0E0,4.8721952E0,4.7267447E0,0E0,0E0,0E0,0E0,0E0,0E0],"parents":[2147483647,0,0,1,1,2,2,3,3,4,4,7,7,8,8],"right_children":[2,4,6,8,10,-1,-1,12,14,-1,-1,-1,-1,-1,-1],"split_conditions":[3.3E1,3.8E1,4.3E1,2.4E1,3.2625E1,-5.3045817E-2,1.8120924E-2,1.8E1,2E1,-4.9077217E-2,1.7063567E-2,1.9771695E-2,-2.6094204E-2,-2.334165E-2,1.8680906E-2],"split_indices":[9,2,5,7,9,0,0,7,2,0,0,0,0,0,0],"split_type":[0,0,0,0,0,0,0,0,0,0,0,0,0,0,0],"sum_hessian":[9.971408E1,9.3851974E1,5.8621006E0,8.859852E1,5.253457E0,4.7436767E0,1.1184237E0,2.3635014E1,6.496351E1,4.20809E0,1.045367E0,7.997485E0,1.5637529E1,6.683818E0,5.8279686E1],"tree_param":{"num_deleted":"0","num_feature":"13","num_nodes":"15","size_leaf_vector":"1"}},{"base_weights":[-2.8910803E-2,-5.8709007E-2,1.9353036E-2,5.794543E-1,-5.3387143E-2,-2.8722286E-2,8.9529413E-1,1.261574E-1,-2.9801294E-1,1.7584745E-3,5.8677096E-2,1.5740125E-2,-2.3359474E-2,1.772345E-2,-2.7839927E-2],"categories":[],"categories_nodes":[],"categories_segments":[],"categories_sizes":[],"default_left":[0,0,0,0,0,0,0,0,0,0,0,0,0,0,0],"id":47,"left_children":[1,-1,3,5,7,-1,9,11,13,-1,-1,-1,-1,-1,-1],"loss_changes":[5.304276E0,0E0,3.806494E0,4.4270372E0,3.6801662E0,0E0,2.069549E0,5.579358E0,6.175121E0,0E0,0E0,0E0,0E0,0E0,0E0],"parents":[2147483647,0,0,2,2,3,3,4,4,6,6,7,7,8,8],"right_children":[2,-1,4,6,8,-1,10,12,14,-1,-1,-1,-1,-1,-1],"split_conditions":[1.7E1,-5.8709007E-2,2E1,-6.6312265E-1,1.88E2,-2.8722286E-2,2.4E1,7.485108E-1,2.475E1,1.7584745E-3,5.8677096E-2,1.5740125E-2,-2.3359474E-2,1.772345E-2,-2.7839927E-2],"split_indices":[0,0,0,11,12,0,3,10,9,0,0,0,0,0,0],"split_type":[0,0,0,0,0,0,0,0,0,0,0,0,0,0,0],"sum_hessian":[9.45503E1,2.8800576E0,9.167024E1,9.736081E0,8.193416E1,1.9162822E0,7.819799E0,4.7532032E1,3.440213E1,2.186682E0,5.6331167E0,3.642176E1,1.1110268E1,9.664662E0,2.4737469E1],"tree_param":{"num_deleted":"0","num_feature":"13","num_nodes":"15","size_leaf_vector":"1"}},{"base_weights":[-4.5712028E-2,6.265617E-2,-4.1997632E-1,1.3320804E-1,-7.0687556E-1,1.9266707E-1,-8.938547E-1,4.2500854E-1,-1.6663511E-1,-1.0428026E0,2.5390396E-2,8.374569E-1,-3.4377936E-1,-7.253732E-2,-6.8436205E-2,-5.354337E-2,2.6935983E-2,-2.9168418E-2,9.185906E-3,-9.888428E-4,-6.711053E-2,5.2902203E-2,1.0745623E-3,3.599204E-2,-4.46209E-2,2.8345097E-2,-4.9051017E-2],"categories":[],"categories_nodes":[],"categories_segments":[],"categories_sizes":[],"default_left":[0,0,0,0,0,0,0,0,0,0,0,0,0,0,0,0,0,0,0,0,0,0,0,0,0,0,0],"id":48,"left_children":[1,3,5,7,9,11,13,15,17,19,-1,21,23,25,-1,-1,-1,-1,-1,-1,-1,-1,-1,-1,-1,-1,-1],"loss_changes":[3.919336E0,4.182541E0,6.4669113E0,6.1797633E0,3.1747823E0,3.8434033E0,4.738078E0,6.6437216E0,5.2398334E0,1.6292553E0,0E0,8.6987567E-1,4.3303547E0,3.8092196E0,0E0,0E0,0E0,0E0,0E0,0E0,0E0,0E0,0E0,0E0,0E0,0E0,0E0],"parents":[2147483647,0,0,1,1,2,2,3,3,4,4,5,5,6,6,7,7,8,8,9,9,11,11,12,12,13,13],"right_children":[2,4,6,8,10,12,14,16,18,20,-1,22,24,26,-1,-1,-1,-1,-1,-1,-1,-1,-1,-1,-1,-1,-1],"split_conditions":[2.66E2,9.7094184E-1,2.4375E1,2.925E1,3.9E1,3.546049E-1,2.2E1,1.9E1,3.3E1,2.075E1,2.5390396E-2,2.2E1,1.6E1,-3.546049E-1,-6.8436205E-2,-5.354337E-2,2.6935983E-2,-2.9168418E-2,9.185906E-3,-9.888428E-4,-6.711053E-2,5.2902203E-2,1.0745623E-3,3.599204E-2,-4.46209E-2,2.8345097E-2,-4.9051017E-2],"split_indices":[12,11,9,9,1,10,4,1,3,9,0,7,3,11,0,0,0,0,0,0,0,0,0,0,0,0,0],"split_type":[0,0,0,0,0,0,0,0,0,0,0,0,0,0,0,0,0,0,0,0,0,0,0,0,0,0,0],"sum_hessian":[9.498572E1,7.430368E1,2.0682035E1,6.882096E1,5.4827156E0,9.279134E0,1.1402903E1,3.4666695E1,3.415427E1,4.4057775E0,1.0769378E0,3.9591975E0,5.319936E0,4.5998745E0,6.803028E0,1.854409E0,3.2812283E1,1.5295595E1,1.8858675E1,1.23886E0,3.1669176E0,2.8831048E0,1.0760925E0,1.7041435E0,3.6157923E0,2.9203591E0,1.6795152E0],"tree_param":{"num_deleted":"0","num_feature":"13","num_nodes":"27","size_leaf_vector":"1"}},{"base_weights":[-5.386805E-2,1.529707E-2,-6.3121885E-1,5.7180908E-2,-4.847208E-2,-5.987526E-2,4.419263E-1,5.4365027E-1,-3.630203E-2,4.3479692E-2,-4.4794204E-3,3.9578002E-2,-1.664523E-2,-7.170977E-2,2.1461917E-3],"categories":[],"categories_nodes":[],"categories_segments":[],"categories_sizes":[],"default_left":[0,0,0,0,0,0,0,0,0,0,0,0,0,0,0],"id":49,"left_children":[1,3,5,7,-1,-1,9,11,13,-1,-1,-1,-1,-1,-1],"loss_changes":[3.8880725E0,3.673004E0,6.8579583E0,3.8887026E0,0E0,0E0,1.0616312E0,3.2571416E0,8.068731E0,0E0,0E0,0E0,0E0,0E0,0E0],"parents":[2147483647,0,0,1,1,2,2,3,3,6,6,7,7,8,8],"right_children":[2,4,6,8,-1,-1,10,12,14,-1,-1,-1,-1,-1,-1],"split_conditions":[3.8E1,3.5E1,3.15E1,5.7E1,-4.847208E-2,-5.987526E-2,2.4E1,3.2625E1,7.4E1,4.3479692E-2,-4.4794204E-3,3.9578002E-2,-1.664523E-2,-7.170977E-2,2.1461917E-3],"split_indices":[5,8,8,12,0,0,6,9,12,0,0,0,0,0,0],"split_type":[0,0,0,0,0,0,0,0,0,0,0,0,0,0,0],"sum_hessian":[9.612423E1,8.671009E1,9.414139E0,8.407602E1,2.634068E0,6.086486E0,3.3276527E0,1.2776061E1,7.129996E1,1.4914968E0,1.8361559E0,1.0034921E1,2.7411406E0,2.9068959E0,6.839307E1],"tree_param":{"num_deleted":"0","num_feature":"13","num_nodes":"15","size_leaf_vector":"1"}},{"base_weights":[1.5060777E-2,1.1888375E-1,-3.6995098E-1,-7.1946037E-1,1.9476093E-1,5.560137E-1,-6.08461E-1,-1.1189054E-1,-6.1630577E-2,-2.5091308E-1,3.25971E-1,-4.0460424E-4,4.3155633E-2,-8.835665E-1,1.5771817E-1,-4.8843753E-2,3.2940976E-2,1.5777785E-2,-3.5931423E-2,4.830755E-2,5.8913557E-3,-1.4591949E-2,-6.8056814E-2,-3.959578E-2,4.0219773E-2],"categories":[],"categories_nodes":[],"categories_segments":[],"categories_sizes":[],"default_left":[0,0,0,0,0,0,0,0,0,0,0,0,0,0,0,0,0,0,0,0,0,0,0,0,0],"id":50,"left_children":[1,3,5,7,9,11,13,15,-1,17,19,-1,-1,21,23,-1,-1,-1,-1,-1,-1,-1,-1,-1,-1],"loss_changes":[3.9468362E0,5.0799704E0,4.971834E0,1.9379709E0,4.2920475E0,8.4193647E-1,3.7564435E0,3.409196E0,0E0,4.715184E0,7.355831E0,0E0,0E0,3.2137709E0,3.9423218E0,0E0,0E0,0E0,0E0,0E0,0E0,0E0,0E0,0E0,0E0],"parents":[2147483647,0,0,1,1,2,2,3,3,4,4,5,5,6,6,7,7,9,9,10,10,13,13,14,14],"right_children":[2,4,6,8,10,12,14,16,-1,18,20,-1,-1,22,24,-1,-1,-1,-1,-1,-1,-1,-1,-1,-1],"split_conditions":[3.4E1,1.8E1,3.2E1,2.65E2,1E2,3E1,3.5E1,2.6E1,-6.1630577E-2,2.9125E1,1.49E2,-4.0460424E-4,4.3155633E-2,1.63E2,1.69E2,-4.8843753E-2,3.2940976E-2,1.5777785E-2,-3.5931423E-2,4.830755E-2,5.8913557E-3,-1.4591949E-2,-6.8056814E-2,-3.959578E-2,4.0219773E-2],"split_indices":[0,5,12,12,12,2,5,0,0,9,12,0,0,12,12,0,0,0,0,0,0,0,0,0,0],"split_type":[0,0,0,0,0,0,0,0,0,0,0,0,0,0,0,0,0,0,0,0,0,0,0,0,0],"sum_hessian":[9.663712E1,7.6656906E1,1.9980219E1,5.6582866E0,7.099862E1,3.8197305E0,1.6160488E1,3.1485069E0,2.5097797E0,1.5940863E1,5.5057755E1,1.6896627E0,2.1300678E0,1.1778185E1,4.382304E0,1.357479E0,1.791028E0,7.3564715E0,8.584392E0,1.261538E1,4.244237E1,5.979922E0,5.798263E0,1.6843197E0,2.6979845E0],"tree_param":{"num_deleted":"0","num_feature":"13","num_nodes":"25","size_leaf_vector":"1"}},{"base_weights":[-4.1114073E-2,1.4992295E-1,-2.7946034E-1,2.2938919E-1,-6.421933E-1,7.372904E-1,-3.960904E-1,3.9175975E-1,-2.9129353E-1,-4.8665788E-2,1.7075965E-2,6.353435E-4,5.2487846E-2,-1.5455908E-1,-9.9651283E-1,2.6970506E-2,-2.581499E-2,3.2546084E-2,-3.820342E-2,-6.1137635E-2,-4.246533E-4,-3.7789077E-3,-6.819405E-2],"categories":[],"categories_nodes":[],"categories_segments":[],"categories_sizes":[],"default_left":[0,0,0,0,0,0,0,0,0,0,0,0,0,0,0,0,0,0,0,0,0,0,0],"id":51,"left_children":[1,3,5,7,9,11,13,15,17,-1,-1,-1,-1,19,21,-1,-1,-1,-1,-1,-1,-1,-1],"loss_changes":[4.410153E0,3.5403798E0,5.394941E0,4.318141E0,2.0189888E0,1.068366E0,5.538691E0,5.4178786E0,6.0183625E0,0E0,0E0,0E0,0E0,4.5420227E0,3.6446304E0,0E0,0E0,0E0,0E0,0E0,0E0,0E0,0E0],"parents":[2147483647,0,0,1,1,2,2,3,3,4,4,5,5,6,6,7,7,8,8,13,13,14,14],"right_children":[2,4,6,8,10,12,14,16,18,-1,-1,-1,-1,20,22,-1,-1,-1,-1,-1,-1,-1,-1],"split_conditions":[1.88E2,3.9E1,1.6E1,7.485108E-1,1.69E2,4.6472317E-1,2.9E1,3.7E1,2.2E1,-4.8665788E-2,1.7075965E-2,6.353435E-4,5.2487846E-2,2E1,2.13E2,2.6970506E-2,-2.581499E-2,3.2546084E-2,-3.820342E-2,-6.1137635E-2,-4.246533E-4,-3.7789077E-3,-6.819405E-2],"split_indices":[12,0,1,10,12,10,6,5,6,0,0,0,0,1,12,0,0,0,0,0,0,0,0],"split_type":[0,0,0,0,0,0,0,0,0,0,0,0,0,0,0,0,0,0,0,0,0,0,0],"sum_hessian":[9.493611E1,5.290399E1,4.203212E1,4.8726128E1,4.177865E0,3.7776783E0,3.825444E1,3.7332043E1,1.1394084E1,3.1336367E0,1.0442283E0,1.4517827E0,2.3258953E0,2.8177092E1,1.0077351E1,3.2460022E1,4.8720207E0,3.6810784E0,7.713005E0,2.5027833E0,2.5674307E1,3.2174442E0,6.859906E0],"tree_param":{"num_deleted":"0","num_feature":"13","num_nodes":"23","size_leaf_vector":"1"}},{"base_weights":[5.720712E-3,9.670012E-2,-5.428882E-1,-3.1289507E-2,4.990676E-1,-6.0174674E-2,1.0333146E-1,3.8547814E-2,-5.2156236E-2,6.852556E-1,-4.7098123E-2,6.0762215E-1,-4.317618E-2,-9.835039E-3,1.6252285E-2,-4.4790115E-2,4.1954156E-2,5.8273282E-2,-3.567018E-2],"categories":[],"categories_nodes":[],"categories_segments":[],"categories_sizes":[],"default_left":[0,0,0,0,0,0,0,0,0,0,0,0,0,0,0,0,0,0,0],"id":52,"left_children":[1,3,5,7,9,-1,11,13,-1,15,-1,17,-1,-1,-1,-1,-1,-1,-1],"loss_changes":[4.812698E0,4.2722106E0,5.9803076E0,4.5378547E0,6.0130625E0,0E0,4.3546944E0,4.1417584E0,0E0,5.2013035E0,0E0,5.0683985E0,0E0,0E0,0E0,0E0,0E0,0E0,0E0],"parents":[2147483647,0,0,1,1,2,2,3,3,4,4,6,6,7,7,9,9,11,11],"right_children":[2,4,6,8,10,-1,12,14,-1,16,-1,18,-1,-1,-1,-1,-1,-1,-1],"split_conditions":[3.6E1,3.2E1,3.2E1,3.2375E1,3.25E1,-6.0174674E-2,1.45E2,3E1,-5.2156236E-2,2.1E1,-4.7098123E-2,2.9E1,-4.317618E-2,-9.835039E-3,1.6252285E-2,-4.4790115E-2,4.1954156E-2,5.8273282E-2,-3.567018E-2],"split_indices":[3,3,6,9,8,0,12,2,0,2,0,4,0,0,0,0,0,0,0],"split_type":[0,0,0,0,0,0,0,0,0,0,0,0,0,0,0,0,0,0,0],"sum_hessian":[9.437165E1,8.1654144E1,1.27175045E1,6.2648453E1,1.9005693E1,5.862322E0,6.855183E0,5.9503403E1,3.1450489E0,1.7295502E1,1.7101933E0,4.7494965E0,2.1056867E0,3.284621E1,2.665719E1,1.1058645E0,1.6189636E1,3.4221475E0,1.3273491E0],"tree_param":{"num_deleted":"0","num_feature":"13","num_nodes":"19","size_leaf_vector":"1"}},{"base_weights":[-5.563231E-2,7.540865E-2,-5.7837087E-1,-9.5018506E-1,1.5488392E-1,4.596011E-1,-9.021815E-1,8.004011E-3,-6.488319E-2,-3.9177158E-1,3.118192E-1,3.986341E-2,-1.04827E-2,-1.176431E0,3.3024095E-2,4.3969587E-3,-5.796895E-2,4.3293443E-2,6.3196095E-3,6.649057E-3,-6.766034E-2,-3.935383E-2,4.529594E-2],"categories":[],"categories_nodes":[],"categories_segments":[],"categories_sizes":[],"default_left":[0,0,0,0,0,0,0,0,0,0,0,0,0,0,0,0,0,0,0,0,0,0,0],"id":53,"left_children":[1,3,5,7,9,11,13,-1,-1,15,17,-1,-1,19,21,-1,-1,-1,-1,-1,-1,-1,-1],"loss_changes":[6.392287E0,6.259485E0,6.697138E0,2.3424377E0,6.1665373E0,1.3212947E0,3.7795591E0,0E0,0E0,6.051918E0,5.5715995E0,0E0,0E0,2.7967339E0,3.7768204E0,0E0,0E0,0E0,0E0,0E0,0E0,0E0,0E0],"parents":[2147483647,0,0,1,1,2,2,3,3,4,4,5,5,6,6,9,9,10,10,13,13,14,14],"right_children":[2,4,6,8,10,12,14,-1,-1,16,18,-1,-1,20,22,-1,-1,-1,-1,-1,-1,-1,-1],"split_conditions":[3.4E1,1.8E1,4.3E1,1.22E2,1E2,3.2E1,3.5E1,8.004011E-3,-6.488319E-2,3.1E1,1.49E2,3.986341E-2,-1.04827E-2,2.6E1,1.93E2,4.3969587E-3,-5.796895E-2,4.3293443E-2,6.3196095E-3,6.649057E-3,-6.766034E-2,-3.935383E-2,4.529594E-2],"split_indices":[0,5,12,12,12,7,5,0,0,1,12,0,0,8,12,0,0,0,0,0,0,0,0],"split_type":[0,0,0,0,0,0,0,0,0,0,0,0,0,0,0,0,0,0,0,0,0,0,0],"sum_hessian":[9.168114E1,7.398915E1,1.769198E1,4.5332904E0,6.9455864E1,4.1071615E0,1.3584819E1,1.2091426E0,3.3241477E0,1.5158298E1,5.4297565E1,2.602709E0,1.5044526E0,1.030495E1,3.2798688E0,9.873415E0,5.2848825E0,1.2695186E1,4.160238E1,1.2551984E0,9.049751E0,1.741764E0,1.538105E0],"tree_param":{"num_deleted":"0","num_feature":"13","num_nodes":"23","size_leaf_vector":"1"}},{"base_weights":[-3.8098555E-2,2.4573842E-2,-6.640478E-1,-2.7786273E-1,1.6245529E-1,-5.4425877E-2,1.7905615E-2,4.374795E-2,-7.314463E-1,3.9790365E-1,-1.6059937E-1,-2.1486558E-2,2.7622644E-2,-6.8162335E-6,-6.5713584E-2,2.912489E-2,-1.7195253E-2,-2.7976075E-2,1.0719548E-2],"categories":[],"categories_nodes":[],"categories_segments":[],"categories_sizes":[],"default_left":[0,0,0,0,0,0,0,0,0,0,0,0,0,0,0,0,0,0,0],"id":54,"left_children":[1,3,5,7,9,-1,-1,11,13,15,17,-1,-1,-1,-1,-1,-1,-1,-1],"loss_changes":[3.6312184E0,3.5781991E0,4.0439615E0,3.956061E0,4.5382986E0,0E0,0E0,4.2557425E0,4.780597E0,4.8990245E0,3.9362512E0,0E0,0E0,0E0,0E0,0E0,0E0,0E0,0E0],"parents":[2147483647,0,0,1,1,2,2,3,3,4,4,7,7,8,8,9,9,10,10],"right_children":[2,4,6,8,10,-1,-1,12,14,16,18,-1,-1,-1,-1,-1,-1,-1,-1],"split_conditions":[3.8E1,2.5E1,8.85456E-1,2.6E1,2.8E1,-5.4425877E-2,1.7905615E-2,2.4E1,2.4E1,7.485108E-1,-1.8369701E-16,-2.1486558E-2,2.7622644E-2,-6.8162335E-6,-6.5713584E-2,2.912489E-2,-1.7195253E-2,-2.7976075E-2,1.0719548E-2],"split_indices":[0,3,10,7,4,0,0,7,6,10,11,0,0,0,0,0,0,0,0],"split_type":[0,0,0,0,0,0,0,0,0,0,0,0,0,0,0,0,0,0,0],"sum_hessian":[9.1146935E1,8.372483E1,7.422105E0,2.5899734E1,5.7825096E1,5.198442E0,2.2236629E0,1.5683205E1,1.021653E1,3.331373E1,2.4511368E1,8.203246E0,7.479959E0,4.974689E0,5.2418413E0,2.6847635E1,6.4660945E0,1.163826E1,1.2873109E1],"tree_param":{"num_deleted":"0","num_feature":"13","num_nodes":"19","size_leaf_vector":"1"}},{"base_weights":[7.959832E-3,-3.3239296E-1,1.1519048E-1,6.5662247E-1,-7.0332015E-1,3.074426E-1,-1.8668593E-1,5.3638946E-2,-3.8797375E-2,3.7299618E-2,-9.082265E-1,4.0356427E-1,-4.9206698E-1,-6.038741E-2,-4.050751E-4,-1.5841838E-2,-6.443821E-2,-2.5371999E-2,2.4430012E-2,-6.1073966E-2,2.523129E-2,2.2019763E-2,-2.7049197E-2],"categories":[],"categories_nodes":[],"categories_segments":[],"categories_sizes":[],"default_left":[0,0,0,0,0,0,0,0,0,0,0,0,0,0,0,0,0,0,0,0,0,0,0],"id":55,"left_children":[1,3,5,7,9,11,13,-1,-1,-1,15,17,19,-1,21,-1,-1,-1,-1,-1,-1,-1,-1],"loss_changes":[3.567916E0,9.056198E0,4.3686113E0,4.9502025E0,5.8805943E0,3.7152715E0,5.6151752E0,0E0,0E0,0E0,3.1476374E0,3.455009E0,4.5143604E0,0E0,6.4264255E0,0E0,0E0,0E0,0E0,0E0,0E0,0E0,0E0],"parents":[2147483647,0,0,1,1,2,2,3,3,4,4,5,5,6,6,10,10,11,11,12,12,14,14],"right_children":[2,4,6,8,10,12,14,-1,-1,-1,16,18,20,-1,22,-1,-1,-1,-1,-1,-1,-1,-1],"split_conditions":[2.4E1,2E1,3.3E1,2.475E1,2.3E1,9.350162E-1,2.2E1,5.3638946E-2,-3.8797375E-2,3.7299618E-2,2.5E1,-9.7094184E-1,3.1E1,-6.038741E-2,3E1,-1.5841838E-2,-6.443821E-2,-2.5371999E-2,2.4430012E-2,-6.1073966E-2,2.523129E-2,2.2019763E-2,-2.7049197E-2],"split_indices":[7,2,7,9,12,11,1,0,0,0,4,11,7,0,4,0,0,0,0,0,0,0,0],"split_type":[0,0,0,0,0,0,0,0,0,0,0,0,0,0,0,0,0,0,0,0,0,0,0],"sum_hessian":[9.571205E1,2.2427336E1,7.328471E1,5.907024E0,1.6520311E1,4.476034E1,2.8524378E1,4.7719426E0,1.1350815E0,1.7192589E0,1.4801052E1,4.039862E1,4.3617196E0,3.5549781E0,2.4969398E1,6.512556E0,8.288496E0,3.0249104E0,3.737371E1,2.3883295E0,1.9733901E0,1.3856125E1,1.1113274E1],"tree_param":{"num_deleted":"0","num_feature":"13","num_nodes":"23","size_leaf_vector":"1"}},{"base_weights":[5.100709E-2,1.18496254E-1,-6.4336944E-1,2.4398392E-1,-2.6007825E-1,3.9198267E-1,-1.0857986E0,2.9997218E-1,-4.344836E-2,4.1587862E-1,-1.1438563E0,5.660501E-3,2.5372967E-2,-7.274287E-2,1.42337745E-2,-9.970867E-3,2.0470662E-2,4.035826E-2,-1.079728E-2,6.1951E-3,-6.67979E-2],"categories":[],"categories_nodes":[],"categories_segments":[],"categories_sizes":[],"default_left":[0,0,0,0,0,0,0,0,0,0,0,0,0,0,0,0,0,0,0,0,0],"id":56,"left_children":[1,3,5,7,9,11,13,15,-1,17,19,-1,-1,-1,-1,-1,-1,-1,-1,-1,-1],"loss_changes":[4.464641E0,4.158159E0,4.2966967E0,4.326577E0,1.358372E1,4.7650993E-2,3.542965E0,3.5176582E0,0E0,3.4292881E0,2.5463123E0,0E0,0E0,0E0,0E0,0E0,0E0,0E0,0E0,0E0,0E0],"parents":[2147483647,0,0,1,1,2,2,3,3,4,4,5,5,6,6,7,7,9,9,10,10],"right_children":[2,4,6,8,10,12,14,16,-1,18,20,-1,-1,-1,-1,-1,-1,-1,-1,-1,-1],"split_conditions":[9.7094184E-1,7.485108E-1,1.03E2,3.9E1,2.5E1,5.3E1,3.12E2,2.2E1,-4.344836E-2,2.8E1,2.3625E1,5.660501E-3,2.5372967E-2,-7.274287E-2,1.42337745E-2,-9.970867E-3,2.0470662E-2,4.035826E-2,-1.079728E-2,6.1951E-3,-6.67979E-2],"split_indices":[11,10,12,0,6,12,12,6,0,5,9,0,0,0,0,0,0,0,0,0,0],"split_type":[0,0,0,0,0,0,0,0,0,0,0,0,0,0,0,0,0,0,0,0,0],"sum_hessian":[9.264346E1,8.519261E1,7.450854E0,6.425069E1,2.0941925E1,2.2648287E0,5.186025E0,6.1868782E1,2.3819058E0,1.2166114E1,8.77581E0,1.2434304E0,1.0213984E0,4.03725E0,1.1487747E0,1.0973514E1,5.0895267E1,7.341829E0,4.8242855E0,1.2015171E0,7.5742936E0],"tree_param":{"num_deleted":"0","num_feature":"13","num_nodes":"21","size_leaf_vector":"1"}},{"base_weights":[-5.2924737E-2,7.5305104E-3,-7.1211815E-1,-1.7027517E-1,2.125974E-1,3.097921E-2,-5.7544585E-2,4.0480664E-1,-4.4366857E-1,3.4146765E-1,-6.386383E-1,2.688908E-2,-2.46368E-2,-5.579403E-2,-7.5814463E-3,-3.7318576E-2,2.2407036E-2,-4.7027748E-2,1.861514E-2],"categories":[],"categories_nodes":[],"categories_segments":[],"categories_sizes":[],"default_left":[0,0,0,0,0,0,0,0,0,0,0,0,0,0,0,0,0,0,0],"id":57,"left_children":[1,3,5,7,9,-1,-1,11,13,15,17,-1,-1,-1,-1,-1,-1,-1,-1],"loss_changes":[3.7101626E0,3.177208E0,5.282488E0,7.5210557E0,4.6554165E0,0E0,0E0,2.123112E0,6.1374874E0,4.4868693E0,2.0798633E0,0E0,0E0,0E0,0E0,0E0,0E0,0E0,0E0],"parents":[2147483647,0,0,1,1,2,2,3,3,4,4,7,7,8,8,9,9,10,10],"right_children":[2,4,6,8,10,-1,-1,12,14,16,18,-1,-1,-1,-1,-1,-1,-1,-1],"split_conditions":[3.9E1,3E1,2E1,2.475E1,3.8E1,3.097921E-2,-5.7544585E-2,2.6E1,2.675E1,2.1E1,3.7E1,2.688908E-2,-2.46368E-2,-5.579403E-2,-7.5814463E-3,-3.7318576E-2,2.2407036E-2,-4.7027748E-2,1.861514E-2],"split_indices":[4,2,0,9,2,0,0,2,8,7,5,0,0,0,0,0,0,0,0],"split_type":[0,0,0,0,0,0,0,0,0,0,0,0,0,0,0,0,0,0,0],"sum_hessian":[9.196467E1,8.5144554E1,6.820111E0,4.569437E1,3.9450184E1,1.5880886E0,5.232022E0,1.4568637E1,3.1125734E1,3.4783154E1,4.667033E0,1.3037849E1,1.5307869E0,8.572562E0,2.2553171E1,2.5706952E0,3.2212456E1,3.6473727E0,1.0196604E0],"tree_param":{"num_deleted":"0","num_feature":"13","num_nodes":"19","size_leaf_vector":"1"}},{"base_weights":[3.6873976E-3,6.268231E-2,-6.065216E-1,1.175084E-1,-6.782314E-1,2.3531912E-2,-1.0252568E0,3.0731052E-1,-8.684921E-2,3.188839E-2,-5.802036E-2,5.12756E-3,-6.681808E-2,2.4160488E-2,-1.3382027E-2,-3.196388E-2,6.042172E-3,6.594911E-3,-4.3762503E-3],"categories":[],"categories_nodes":[],"categories_segments":[],"categories_sizes":[],"default_left":[0,0,0,0,0,0,0,0,0,0,0,0,0,0,0,0,0,0,0],"id":58,"left_children":[1,3,5,7,9,-1,11,13,15,17,-1,-1,-1,-1,-1,-1,-1,-1,-1],"loss_changes":[3.2488458E0,3.420201E0,4.071268E0,3.0296745E0,2.0276039E0,0E0,2.257657E0,4.211129E0,4.4441786E0,5.1245388E-2,0E0,0E0,0E0,0E0,0E0,0E0,0E0,0E0,0E0],"parents":[2147483647,0,0,1,1,2,2,3,3,4,4,6,6,7,7,8,8,9,9],"right_children":[2,4,6,8,10,-1,12,14,16,18,-1,-1,-1,-1,-1,-1,-1,-1,-1],"split_conditions":[9.7094184E-1,3.24E2,2E1,2.8E1,2.2E1,2.3531912E-2,5.3E1,7.485108E-1,2.5E1,2.3E1,-5.802036E-2,5.12756E-3,-6.681808E-2,2.4160488E-2,-1.3382027E-2,-3.196388E-2,6.042172E-3,6.594911E-3,-4.3762503E-3],"split_indices":[11,12,8,0,5,0,12,10,3,2,0,0,0,0,0,0,0,0,0],"split_type":[0,0,0,0,0,0,0,0,0,0,0,0,0,0,0,0,0,0,0],"sum_hessian":[8.8191574E1,8.123506E1,6.9565153E0,7.642143E1,4.8136272E0,1.9125901E0,5.0439253E0,3.9360558E1,3.706087E1,2.3243413E0,2.4892862E0,1.2354772E0,3.808448E0,3.0261873E1,9.098685E0,9.558591E0,2.7502281E1,1.2080429E0,1.1162984E0],"tree_param":{"num_deleted":"0","num_feature":"13","num_nodes":"19","size_leaf_vector":"1"}},{"base_weights":[3.266585E-2,6.653122E-2,-4.2439997E-2,1.1759186E-1,-5.124977E-1,1.6637324E-1,-7.497943E-1,-9.65343E-1,4.1521227E-1,1.4053056E-2,-8.692232E-3,-5.3964164E-2,6.224298E-3,1.06646E-2,-6.551064E-2,2.5656348E-2,6.7186616E-3],"categories":[],"categories_nodes":[],"categories_segments":[],"categories_sizes":[],"default_left":[0,0,0,0,0,0,0,0,0,0,0,0,0,0,0,0,0],"id":59,"left_children":[1,3,-1,5,7,9,11,13,15,-1,-1,-1,-1,-1,-1,-1,-1],"loss_changes":[2.8725092E0,2.7735891E0,0E0,3.7276113E0,3.6035864E0,3.2263227E0,1.4926944E0,2.4840674E0,1.9041896E-2,0E0,0E0,0E0,0E0,0E0,0E0,0E0,0E0],"parents":[2147483647,0,0,1,1,3,3,4,4,5,5,6,6,7,7,8,8],"right_children":[2,4,-1,6,8,10,12,14,16,-1,-1,-1,-1,-1,-1,-1,-1],"split_conditions":[4.1E1,9.7094184E-1,-4.2439997E-2,4.1E1,3.4E1,7.485108E-1,3E1,2E1,3E1,1.4053056E-2,-8.692232E-3,-5.3964164E-2,6.224298E-3,1.06646E-2,-6.551064E-2,2.5656348E-2,6.7186616E-3],"split_indices":[2,11,0,6,1,10,8,7,3,0,0,0,0,0,0,0,0],"split_type":[0,0,0,0,0,0,0,0,0,0,0,0,0,0,0,0,0],"sum_hessian":[9.333594E1,9.077302E1,2.5629208E0,8.4149376E1,6.6236477E0,8.043399E1,3.7153788E0,4.423721E0,2.1999269E0,6.028554E1,2.014845E1,2.5281255E0,1.1872534E0,1.0877452E0,3.335976E0,1.0179105E0,1.1820164E0],"tree_param":{"num_deleted":"0","num_feature":"13","num_nodes":"17","size_leaf_vector":"1"}},{"base_weights":[-2.0520642E-2,-5.9746247E-2,2.4860976E-2,1.6085917E-1,-3.2232535E-1,2.7211466E-1,-6.676846E-1,-7.8857404E-1,2.3092338E-1,-4.478803E-2,1.5914803E-2,1.695872E-2,-5.420478E-2,-5.2500904E-2,6.750712E-4,-4.8119947E-2,2.3176527E-2],"categories":[],"categories_nodes":[],"categories_segments":[],"categories_sizes":[],"default_left":[0,0,0,0,0,0,0,0,0,0,0,0,0,0,0,0,0],"id":60,"left_children":[1,-1,3,5,7,9,11,13,15,-1,-1,-1,-1,-1,-1,-1,-1],"loss_changes":[4.945629E0,0E0,4.2912226E0,6.1901035E0,6.786721E0,3.4227562E0,3.7242882E0,2.9753313E0,3.9110947E0,0E0,0E0,0E0,0E0,0E0,0E0,0E0,0E0],"parents":[2147483647,0,0,2,2,3,3,4,4,5,5,6,6,7,7,8,8],"right_children":[2,-1,4,6,8,10,12,14,16,-1,-1,-1,-1,-1,-1,-1,-1],"split_conditions":[1.6E1,-5.9746247E-2,3.3E1,3.6E1,3.2E1,1.6E1,-9.350162E-1,3.5E1,3.4E1,-4.478803E-2,1.5914803E-2,1.695872E-2,-5.420478E-2,-5.2500904E-2,6.750712E-4,-4.8119947E-2,2.3176527E-2],"split_indices":[4,0,7,3,3,0,10,1,7,0,0,0,0,0,0,0,0],"split_type":[0,0,0,0,0,0,0,0,0,0,0,0,0,0,0,0,0],"sum_hessian":[9.123747E1,2.4520376E0,8.878544E1,6.418131E1,2.4604122E1,5.717546E1,7.0058527E0,1.3121048E1,1.1483074E1,1.4751056E0,5.5700356E1,2.1039934E0,4.9018593E0,9.662378E0,3.4586697E0,1.3613951E0,1.0121679E1],"tree_param":{"num_deleted":"0","num_feature":"13","num_nodes":"17","size_leaf_vector":"1"}},{"base_weights":[1.7992336E-2,-5.8200773E-2,6.3104175E-2,4.7740647E-1,-6.289859E-3,-1.6422851E-2,6.521527E-1,-2.4816182E-1,2.3626652E-1,4.0140174E-2,-1.1767527E-2,1.4345394E-3,-3.7730444E-2,1.6418373E-2,-4.483727E-2],"categories":[],"categories_nodes":[],"categories_segments":[],"categories_sizes":[],"default_left":[0,0,0,0,0,0,0,0,0,0,0,0,0,0,0],"id":61,"left_children":[1,-1,3,5,7,-1,9,11,13,-1,-1,-1,-1,-1,-1],"loss_changes":[4.957552E0,0E0,2.5668418E0,2.0176835E0,4.597735E0,0E0,1.6409001E0,5.521756E0,4.3790426E0,0E0,0E0,0E0,0E0,0E0,0E0],"parents":[2147483647,0,0,2,2,3,3,4,4,6,6,7,7,8,8],"right_children":[2,-1,4,6,8,-1,10,12,14,-1,-1,-1,-1,-1,-1],"split_conditions":[1.6E1,-5.8200773E-2,2.4125E1,1.8E1,3E1,-1.6422851E-2,2.7E1,2.14E2,4E1,4.0140174E-2,-1.1767527E-2,1.4345394E-3,-3.7730444E-2,1.6418373E-2,-4.483727E-2],"split_indices":[4,0,9,5,2,0,2,12,4,0,0,0,0,0,0],"split_type":[0,0,0,0,0,0,0,0,0,0,0,0,0,0,0],"sum_hessian":[9.059537E1,2.4186885E0,8.817668E1,1.1806835E1,7.636984E1,1.9472468E0,9.859589E0,3.82273E1,3.8142544E1,8.51041E0,1.3491783E0,2.5326015E1,1.2901284E1,3.5931873E1,2.2106686E0],"tree_param":{"num_deleted":"0","num_feature":"13","num_nodes":"15","size_leaf_vector":"1"}},{"base_weights":[-1.5817527E-2,1.08603604E-1,-2.923733E-1,-5.3225376E-2,1.7422636E-1,-6.679987E-1,6.560944E-2,4.6172845E-1,-3.0321125E-2,4.676199E-1,-1.0291283E0,3.6856276E-1,-4.8478726E-2,-4.1576248E-2,2.7877722E-2,2.16694E-2,-1.6971143E-2,4.2962395E-2,-5.1066778E-3,-6.898569E-2,1.7320964E-2,3.4422707E-2,-4.754863E-2],"categories":[],"categories_nodes":[],"categories_segments":[],"categories_sizes":[],"default_left":[0,0,0,0,0,0,0,0,0,0,0,0,0,0,0,0,0,0,0,0,0,0,0],"id":62,"left_children":[1,3,5,-1,7,9,11,13,15,17,19,21,-1,-1,-1,-1,-1,-1,-1,-1,-1,-1,-1],"loss_changes":[3.1087277E0,4.989524E0,3.8113644E0,0E0,3.5399868E0,6.124964E0,5.1420035E0,3.560113E0,5.3030024E0,9.820533E-1,5.6638985E0,5.942478E0,0E0,0E0,0E0,0E0,0E0,0E0,0E0,0E0,0E0,0E0,0E0],"parents":[2147483647,0,0,1,1,2,2,4,4,5,5,6,6,7,7,8,8,9,9,10,10,11,11],"right_children":[2,4,6,-1,8,10,12,14,16,18,20,22,-1,-1,-1,-1,-1,-1,-1,-1,-1,-1,-1],"split_conditions":[3.2E1,1.7E1,3.7E1,-5.3225376E-2,1.46E2,2.1E1,3.2E1,2.525E1,2.4E1,2.9E1,3.4E1,2.17E2,-4.8478726E-2,-4.1576248E-2,2.7877722E-2,2.16694E-2,-1.6971143E-2,4.2962395E-2,-5.1066778E-3,-6.898569E-2,1.7320964E-2,3.4422707E-2,-4.754863E-2],"split_indices":[4,0,4,0,12,5,0,8,0,1,8,12,0,0,0,0,0,0,0,0,0,0,0],"split_type":[0,0,0,0,0,0,0,0,0,0,0,0,0,0,0,0,0,0,0,0,0,0,0],"sum_hessian":[8.8422554E1,6.1404335E1,2.701822E1,2.44656E0,5.8957775E1,1.2761637E1,1.4256584E1,2.398637E1,3.4971405E1,3.0079308E0,9.753706E0,1.1527075E1,2.7295094E0,1.1250749E0,2.2861294E1,1.38267145E1,2.1144691E1,1.4814979E0,1.526433E0,7.770271E0,1.9834355E0,9.662807E0,1.8642675E0],"tree_param":{"num_deleted":"0","num_feature":"13","num_nodes":"23","size_leaf_vector":"1"}},{"base_weights":[-2.0584099E-2,-7.278714E-1,3.302895E-2,3.081405E-2,-6.399191E-2,8.522623E-2,-6.833656E-1,-2.6058865E-1,1.8616137E-1,1.7599417E-2,-4.959438E-2,2.116646E-2,-7.338666E-2,3.1917613E-2,1.2214518E-3],"categories":[],"categories_nodes":[],"categories_segments":[],"categories_sizes":[],"default_left":[0,0,0,0,0,0,0,0,0,0,0,0,0,0,0],"id":63,"left_children":[1,3,5,-1,-1,7,9,11,13,-1,-1,-1,-1,-1,-1],"loss_changes":[3.4099572E0,5.488765E0,3.1976998E0,0E0,0E0,2.8110209E0,2.2058544E0,1.5727818E1,4.5074496E0,0E0,0E0,0E0,0E0,0E0,0E0],"parents":[2147483647,0,0,1,1,2,2,5,5,6,6,7,7,8,8],"right_children":[2,4,6,-1,-1,8,10,12,14,-1,-1,-1,-1,-1,-1],"split_conditions":[1.8E1,7.3E1,3.9E1,3.081405E-2,-6.399191E-2,9E1,2.1E1,5.7E1,1.49E2,1.7599417E-2,-4.959438E-2,2.116646E-2,-7.338666E-2,3.1917613E-2,1.2214518E-3],"split_indices":[5,12,0,0,0,12,3,12,12,0,0,0,0,0,0],"split_type":[0,0,0,0,0,0,0,0,0,0,0,0,0,0,0],"sum_hessian":[8.829144E1,5.3348837E0,8.295656E1,1.5190842E0,3.8157997E0,7.814394E1,4.8126183E0,1.7297853E1,6.084609E1,1.0725188E0,3.7400994E0,1.1456431E1,5.8414226E0,1.5252984E1,4.5593105E1],"tree_param":{"num_deleted":"0","num_feature":"13","num_nodes":"15","size_leaf_vector":"1"}},{"base_weights":[3.0408718E-2,1.0043523E-1,-5.083857E-1,1.6607788E-1,-5.713893E-1,2.6243785E-1,-5.856624E-2,3.022153E-1,-1.7481937E-1,2.273494E-2,-9.9007225E-1,4.730692E-2,-4.7318745E-2,-3.9540853E-2,1.6920876E-2,3.1030425E-3,-4.1295014E-2,-6.5663524E-2,1.1387612E-2],"categories":[],"categories_nodes":[],"categories_segments":[],"categories_sizes":[],"default_left":[0,0,0,0,0,0,0,0,0,0,0,0,0,0,0,0,0,0,0],"id":64,"left_children":[1,3,5,7,9,11,-1,13,15,-1,17,-1,-1,-1,-1,-1,-1,-1,-1],"loss_changes":[3.5201273E0,3.7201352E0,5.795864E0,3.5642233E0,3.6903934E0,5.674933E0,0E0,2.4216633E0,3.4791577E0,0E0,2.5313215E0,0E0,0E0,0E0,0E0,0E0,0E0,0E0,0E0],"parents":[2147483647,0,0,1,1,2,2,3,3,4,4,5,5,7,7,8,8,10,10],"right_children":[2,4,6,8,10,12,-1,14,16,-1,18,-1,-1,-1,-1,-1,-1,-1,-1],"split_conditions":[9.350162E-1,9.7094184E-1,2.5E1,3.2E1,2E1,2.6E1,-5.856624E-2,1.5E1,3.2E1,2.273494E-2,3.2125E1,4.730692E-2,-4.7318745E-2,-3.9540853E-2,1.6920876E-2,3.1030425E-3,-4.1295014E-2,-6.5663524E-2,1.1387612E-2],"split_indices":[10,11,6,4,8,5,0,4,0,0,9,0,0,0,0,0,0,0,0],"split_type":[0,0,0,0,0,0,0,0,0,0,0,0,0,0,0,0,0,0,0],"sum_hessian":[9.094479E1,8.1204346E1,9.740445E0,7.4662056E1,6.5422873E0,4.783095E0,4.9573507E0,5.343589E1,2.122617E1,1.8709733E0,4.671314E0,3.1939223E0,1.5891726E0,1.0448502E0,5.2391037E1,1.6227032E1,4.9991374E0,3.629664E0,1.0416498E0],"tree_param":{"num_deleted":"0","num_feature":"13","num_nodes":"19","size_leaf_vector":"1"}},{"base_weights":[1.791397E-3,1.738093E-1,-3.4824255E-1,-1.230252E-1,4.3363538E-1,-8.869889E-1,4.761581E-2,6.462406E-2,-9.017373E-1,-4.5705896E-2,5.3602266E-1,1.5544961E-1,-1.1207819E0,-4.8971248E-1,6.53842E-1,1.1131604E-2,-3.7167538E-2,-5.7713665E-2,4.8704697E-3,3.1470142E-2,-1.8315509E-2,1.1428697E-2,4.356571E-4,7.119274E-3,-6.3898765E-2,1.7050972E-2,-5.559097E-2,-1.2662488E-2,4.851755E-2],"categories":[],"categories_nodes":[],"categories_segments":[],"categories_sizes":[],"default_left":[0,0,0,0,0,0,0,0,0,0,0,0,0,0,0,0,0,0,0,0,0,0,0,0,0,0,0,0,0],"id":65,"left_children":[1,3,5,7,9,11,13,15,17,-1,19,21,23,25,27,-1,-1,-1,-1,-1,-1,-1,-1,-1,-1,-1,-1,-1,-1],"loss_changes":[5.3148127E0,4.61736E0,6.2454047E0,4.20824E0,4.874901E0,3.189146E0,6.0909457E0,3.2063189E0,1.5208015E0,0E0,2.7721062E0,3.174766E-2,2.212514E0,5.5282164E0,2.7585807E0,0E0,0E0,0E0,0E0,0E0,0E0,0E0,0E0,0E0,0E0,0E0,0E0,0E0,0E0],"parents":[2147483647,0,0,1,1,2,2,3,3,4,4,5,5,6,6,7,7,8,8,10,10,11,11,12,12,13,13,14,14],"right_children":[2,4,6,8,10,12,14,16,18,-1,20,22,24,26,28,-1,-1,-1,-1,-1,-1,-1,-1,-1,-1,-1,-1,-1,-1],"split_conditions":[2.9625E1,2.6E1,3.3E1,3.3E1,1.7E1,4.3E1,3.4E1,3.4E1,3.1E1,-4.5705896E-2,3.6E1,3.2E1,2.4E1,3.5E1,-4.6472317E-1,1.1131604E-2,-3.7167538E-2,-5.7713665E-2,4.8704697E-3,3.1470142E-2,-1.8315509E-2,1.1428697E-2,4.356571E-4,7.119274E-3,-6.3898765E-2,1.7050972E-2,-5.559097E-2,-1.2662488E-2,4.851755E-2],"split_indices":[9,0,3,7,4,12,7,1,2,0,3,6,4,3,10,0,0,0,0,0,0,0,0,0,0,0,0,0,0],"split_type":[0,0,0,0,0,0,0,0,0,0,0,